<?xml version="1.0"?>
<opencv_storage>
<opencv_ml_ann_mlp>
  <format>3</format>
  <layer_sizes>
    144 36</layer_sizes>
  <activation_function>SIGMOID_SYM</activation_function>
  <f_param1>6.6666666666666663e-01</f_param1>
  <f_param2>1.7159000000000000e+00</f_param2>
  <min_val>-9.4999999999999996e-01</min_val>
  <max_val>9.4999999999999996e-01</max_val>
  <min_val1>-9.7999999999999998e-01</min_val1>
  <max_val1>9.7999999999999998e-01</max_val1>
  <training_params>
    <train_method>BACKPROP</train_method>
    <dw_scale>1.0000000000000001e-01</dw_scale>
    <moment_scale>1.0000000000000001e-01</moment_scale>
    <term_criteria>
      <iterations>1000</iterations></term_criteria></training_params>
  <input_scale>
    2.1846430688936574e-01 -2.1994349230059584e-01
    1.3544916041873195e-02 -8.5304372623280023e-01
    1.0468018587743093e-02 -1.0651892521614255e+00
    1.0492535108141148e-02 -1.2248328020303705e+00
    1.0920853960197621e-02 -1.3738933070931596e+00
    1.1356087801728865e-02 -1.5258500911469846e+00
    1.1725434895257751e-02 -1.6636207690398674e+00
    1.2026467147755385e-02 -1.7804702782638557e+00
    1.2369348884794580e-02 -1.8432287327450292e+00
    1.2412087220836955e-02 -1.8650936335821080e+00
    1.2823073069788801e-02 -1.8974777976647290e+00
    1.2920002810949804e-02 -1.8189246857997741e+00
    1.3621323752551321e-02 -1.7516432961580168e+00
    1.3975665816396383e-02 -1.6243525552486464e+00
    1.4993761195161060e-02 -1.5963453866301958e+00
    1.5968904426677970e-02 -1.5821217651924191e+00
    1.8556353291922175e-02 -1.6765115050956971e+00
    2.2428759304349871e-02 -1.8262141011866910e+00
    2.5128274567385690e-02 -1.9269852929573783e+00
    2.5743299231338494e-02 -1.9280214992466842e+00
    2.5834513910217623e-02 -1.9337175063262493e+00
    2.5856848275993004e-02 -1.9327973367676345e+00
    2.5860031552829649e-02 -1.9314014214817918e+00
    2.5794853028433623e-02 -1.9165307103740468e+00
    2.5699989189172493e-02 -1.8997399059932218e+00
    2.5606626533961327e-02 -1.8914238254098426e+00
    2.4878708586239778e-02 -1.9008738767703961e+00
    2.1048644487221012e-02 -1.7010694791781895e+00
    2.0358411778828758e-02 -1.6488201029372640e+00
    2.0401250291939749e-02 -1.6296675665896025e+00
    2.0546408251370853e-02 -1.6093048348492895e+00
    2.0554130387429950e-02 -1.5792308226751697e+00
    2.0503019288070256e-02 -1.5572979585266458e+00
    2.0540325902227510e-02 -1.5708847889615698e+00
    2.0573254388000801e-02 -1.6069236537630300e+00
    2.0570855692420759e-02 -1.6454393408951635e+00
    2.1126108206505477e-02 -1.7144497000460648e+00
    2.3757360309257420e-02 -1.8809290379942911e+00
    2.5849292358312955e-02 -1.9642717776262175e+00
    2.5532333749701496e-02 -1.9618335339824222e+00
    2.4915356775874389e-02 -1.9664056032909241e+00
    2.1988979514871793e-02 -1.8249972028613024e+00
    2.0551301643089197e-02 -1.7707103593498301e+00
    2.0045999514155161e-02 -1.8071902249500367e+00
    1.8853109609681968e-02 -1.7929813311861977e+00
    1.7759772975623256e-02 -1.7497403637200526e+00
    1.7063165216659876e-02 -1.7233229463893389e+00
    1.6664789530412061e-02 -1.7254573523985171e+00
    1.6688162951587170e-02 -1.7732496956680124e+00
    1.6673123258757944e-02 -1.8233676828254943e+00
    1.6895786985279437e-02 -1.9006426836790289e+00
    1.6886856823854716e-02 -1.9078792489407499e+00
    1.6381841606987486e-02 -1.8792925780235137e+00
    1.6076054173914608e-02 -1.9208662687070746e+00
    1.5688285755551815e-02 -1.9574731712203202e+00
    1.4795620821110907e-02 -1.8749768268750902e+00
    1.4558749608835117e-02 -1.8105829131420710e+00
    1.4107135646685214e-02 -1.7200368168804603e+00
    1.3886655850179494e-02 -1.5954359990153475e+00
    1.3645780764551254e-02 -1.4559780189855731e+00
    1.3288820612545283e-02 -1.2943098314750314e+00
    1.2873567587811529e-02 -1.1313735788126333e+00
    1.2568093831638899e-02 -9.7160982730114531e-01
    1.2260942690842609e-02 -8.2043145041862253e-01
    2.2282988317840413e-01 -4.9213622356140652e-01
    1.7200855854853415e-02 -1.4818303012426142e+00
    1.5980614854712420e-02 -1.9384005632021732e+00
    1.6459701039796288e-02 -2.2180113188707637e+00
    1.6524876221704215e-02 -2.3533145080979896e+00
    1.6452441265361193e-02 -2.4413669492693209e+00
    1.6401413976307164e-02 -2.5117247585392093e+00
    1.7438195317414241e-02 -2.5869381105516136e+00
    2.6827431603732115e-02 -3.0315825321285192e+00
    2.6890411538683337e-02 -2.5906552142470525e+00
    2.5477383325018876e-02 -2.3350113682944675e+00
    2.4493348722507021e-02 -2.1830590035606559e+00
    2.4997296837185618e-02 -2.1817832966394355e+00
    2.5923476039670875e-02 -2.2142979503226901e+00
    2.6797680189684085e-02 -2.2509997678084250e+00
    2.7768882558754541e-02 -2.3037403181491878e+00
    2.8759474112001446e-02 -2.3529962413726082e+00
    2.9609817969594571e-02 -2.3737642999881743e+00
    2.9870611304484672e-02 -2.3721884789207754e+00
    2.9751785499650872e-02 -2.3627447205348542e+00
    2.9785407950161821e-02 -2.3664232151506592e+00
    2.9697193123161974e-02 -2.3561022492002546e+00
    2.9773014785683588e-02 -2.3660994169842278e+00
    2.9814946749176847e-02 -2.3743077896289093e+00
    2.9831891367448807e-02 -2.3899348864977172e+00
    3.0457066935283800e-02 -2.5346441877176282e+00
    2.8166128734868682e-02 -2.4382174093136961e+00
    2.5922143550899064e-02 -2.3322991699057556e+00
    2.1938246809302946e-02 -2.1625187324185258e+00
    1.8438200485167741e-02 -1.9410387108986245e+00
    1.7000730876651601e-02 -1.8692623724820423e+00
    1.7126320189516465e-02 -1.9417198806084821e+00
    1.7249620875669568e-02 -1.9605514108206177e+00
    1.6526644109774082e-02 -1.9066397331348883e+00
    1.6449488018228420e-02 -1.8791595910599457e+00
    1.9636902209628770e-02 -2.0673519801353573e+00
    2.2885756185404976e-02 -2.2073476882334053e+00
    2.4886690460393237e-02 -2.2736823394259429e+00
    2.7144676611623762e-02 -2.3664046102989875e+00
    2.8968599775072865e-02 -2.4748202077313359e+00
    2.8469982090644195e-02 -2.3652418558685593e+00
    2.7017513716298361e-02 -2.2228702707382100e+00
    2.6386554655271791e-02 -2.1890924262807223e+00
    2.1875863837491145e-02 -1.8858931553361311e+00
    2.1307355994535752e-02 -1.8456430055146678e+00
    2.1239339805358005e-02 -1.8509208177228493e+00
    2.1216546855056119e-02 -1.8456279209344775e+00
    2.2743293973280610e-02 -1.9349695642257880e+00
    2.3173489920881384e-02 -1.9511540026837488e+00
    2.7434900032342422e-02 -2.2558808196546023e+00
    2.8805824035558918e-02 -2.3116489135817853e+00
    2.7769421139696750e-02 -2.2751711476254757e+00
    2.7662766039446091e-02 -2.2948392334800491e+00
    2.8079971219096372e-02 -2.3602318308520478e+00
    2.8239407238433503e-02 -2.4464739804229558e+00
    2.7327027177045257e-02 -2.4952991691039452e+00
    2.4286761797184142e-02 -2.4944109860778845e+00
    1.5195570355008209e-02 -2.0560154607526404e+00
    1.4282713869866110e-02 -1.9904632672069482e+00
    1.4611256639664654e-02 -1.9805464713163901e+00
    1.5073344376654779e-02 -1.9610276098024246e+00
    1.5670966434216230e-02 -1.9242483906546388e+00
    1.6209073575809470e-02 -1.7933222861158133e+00
    1.6291642724353659e-02 -1.4113066298601089e+00
    8.9021151287555778e-03 -1.4014211806284038e+00
    9.9405662973603755e-03 -1.1390104772567773e+00
    9.9740864637622578e-03 -1.3305175596852088e+00
    9.6083105595706608e-03 -1.4969255117936240e+00
    8.3273644084887240e-03 -1.3397448200272435e+00
    9.8993462611323135e-03 -5.0735418735259663e-01
    1.0073120055252169e-02 -5.0456000071628493e-01
    8.2586737791011892e-03 -9.2715260018048040e-01
    8.0910938287672204e-03 -1.1856149490420234e+00
    9.3277110743662083e-03 -6.3705874917132910e-01
    1.0052467264612829e-02 -5.7551663867762881e-01
    8.0325543728193456e-03 -1.0464770644322516e+00
    8.7483393681003080e-03 -1.2737582119954047e+00
    1.0980045606188297e-02 -6.7206325298800207e-01
    1.0531137962502409e-02 -7.2508235017721723e-01
    8.6212847976367586e-03 -1.0302877450345036e+00</input_scale>
  <output_scale>
    5.2631578947368418e-01 4.9999999999999994e-01 5.2631578947368418e-01
    4.9999999999999994e-01 5.2631578947368418e-01 4.9999999999999994e-01
    5.2631578947368418e-01 4.9999999999999994e-01 5.2631578947368418e-01
    4.9999999999999994e-01 5.2631578947368418e-01 4.9999999999999994e-01
    5.2631578947368418e-01 4.9999999999999994e-01 5.2631578947368418e-01
    4.9999999999999994e-01 5.2631578947368418e-01 4.9999999999999994e-01
    5.2631578947368418e-01 4.9999999999999994e-01 5.2631578947368418e-01
    4.9999999999999994e-01 5.2631578947368418e-01 4.9999999999999994e-01
    5.2631578947368418e-01 4.9999999999999994e-01 5.2631578947368418e-01
    4.9999999999999994e-01 5.2631578947368418e-01 4.9999999999999994e-01
    5.2631578947368418e-01 4.9999999999999994e-01 5.2631578947368418e-01
    4.9999999999999994e-01 5.2631578947368418e-01 4.9999999999999994e-01
    5.2631578947368418e-01 4.9999999999999994e-01 5.2631578947368418e-01
    4.9999999999999994e-01 5.2631578947368418e-01 4.9999999999999994e-01
    5.2631578947368418e-01 4.9999999999999994e-01 5.2631578947368418e-01
    4.9999999999999994e-01 5.2631578947368418e-01 4.9999999999999994e-01
    5.2631578947368418e-01 4.9999999999999994e-01 5.2631578947368418e-01
    4.9999999999999994e-01 5.2631578947368418e-01 4.9999999999999994e-01
    5.2631578947368418e-01 4.9999999999999994e-01 5.2631578947368418e-01
    4.9999999999999994e-01 5.2631578947368418e-01 4.9999999999999994e-01
    5.2631578947368418e-01 4.9999999999999994e-01 5.2631578947368418e-01
    4.9999999999999994e-01 5.2631578947368418e-01 4.9999999999999994e-01
    5.2631578947368418e-01 4.9999999999999994e-01 5.2631578947368418e-01
    4.9999999999999994e-01 5.2631578947368418e-01 4.9999999999999994e-01</output_scale>
  <inv_output_scale>
    1.8999999999999999e+00 -9.4999999999999996e-01
    1.8999999999999999e+00 -9.4999999999999996e-01
    1.8999999999999999e+00 -9.4999999999999996e-01
    1.8999999999999999e+00 -9.4999999999999996e-01
    1.8999999999999999e+00 -9.4999999999999996e-01
    1.8999999999999999e+00 -9.4999999999999996e-01
    1.8999999999999999e+00 -9.4999999999999996e-01
    1.8999999999999999e+00 -9.4999999999999996e-01
    1.8999999999999999e+00 -9.4999999999999996e-01
    1.8999999999999999e+00 -9.4999999999999996e-01
    1.8999999999999999e+00 -9.4999999999999996e-01
    1.8999999999999999e+00 -9.4999999999999996e-01
    1.8999999999999999e+00 -9.4999999999999996e-01
    1.8999999999999999e+00 -9.4999999999999996e-01
    1.8999999999999999e+00 -9.4999999999999996e-01
    1.8999999999999999e+00 -9.4999999999999996e-01
    1.8999999999999999e+00 -9.4999999999999996e-01
    1.8999999999999999e+00 -9.4999999999999996e-01
    1.8999999999999999e+00 -9.4999999999999996e-01
    1.8999999999999999e+00 -9.4999999999999996e-01
    1.8999999999999999e+00 -9.4999999999999996e-01
    1.8999999999999999e+00 -9.4999999999999996e-01
    1.8999999999999999e+00 -9.4999999999999996e-01
    1.8999999999999999e+00 -9.4999999999999996e-01
    1.8999999999999999e+00 -9.4999999999999996e-01
    1.8999999999999999e+00 -9.4999999999999996e-01
    1.8999999999999999e+00 -9.4999999999999996e-01
    1.8999999999999999e+00 -9.4999999999999996e-01
    1.8999999999999999e+00 -9.4999999999999996e-01
    1.8999999999999999e+00 -9.4999999999999996e-01
    1.8999999999999999e+00 -9.4999999999999996e-01
    1.8999999999999999e+00 -9.4999999999999996e-01
    1.8999999999999999e+00 -9.4999999999999996e-01
    1.8999999999999999e+00 -9.4999999999999996e-01
    1.8999999999999999e+00 -9.4999999999999996e-01
    1.8999999999999999e+00 -9.4999999999999996e-01</inv_output_scale>
  <weights>
    <_>
      -2.1706357098765955e-01 -4.1813748770653449e-02
      1.8001707560077293e-01 -8.5055329542042410e-02
      5.4821426122319383e-02 -1.4594072911399880e-01
      6.5882973830360542e-02 -2.3830587095741707e-01
      8.1248869472246854e-03 -1.6665033505563620e-01
      -1.0085094629213255e-01 1.2862266530662614e-01
      -3.0498538235177848e-02 1.2668069488001468e-01
      6.2112466136372238e-02 9.9226567209802607e-02
      -7.4922737274727064e-02 -2.1135851170513496e-02
      -3.7737572865878771e-01 -1.7717048352577847e-01
      7.8013239122812078e-03 1.0763118014971401e-01
      1.5019488420668348e-01 9.7773184463192081e-02
      -1.0528747430236173e-02 -1.9849986871578884e-01
      5.6746627278784066e-02 5.5817983339658421e-02
      -6.8260703672436751e-02 9.3721922202338159e-02
      -3.7864845722202206e-01 -1.6453430717150840e-02
      1.3577472863477802e-01 -4.6597196156810239e-01
      -3.6222768433506865e-02 6.1440704369065381e-02
      1.1927144391129592e-01 3.7773678754672718e-01
      7.2942535933324115e-02 1.4512990996284783e-01
      1.0832285525788474e-01 9.1059841247347256e-02
      1.0992948217075742e-01 1.8482215307608649e-01
      -1.2582152822909978e-01 2.0926495921213331e-02
      7.2527520574961007e-02 8.6853319278117763e-02
      1.3812786555611226e-01 1.5615653878113675e-01
      5.5877384165630699e-02 -3.7581870641478589e-02
      7.3042485505422666e-02 3.0057839636558815e-02
      -5.7793043016510359e-01 1.4560305119685321e-01
      -2.1753358098152448e-01 4.1992991850123687e-02
      7.4976969100736826e-02 1.5499662656142259e-02
      -1.6387846496430736e-01 1.8513365769624646e-01
      2.3252336969233969e-03 7.9439547224586099e-02
      -1.4608540751583013e-01 1.0910097928841403e-01
      3.6037179529460034e-01 5.6327861173643481e-02
      1.4034336731878666e-01 1.3364065378081677e-01
      6.1855851326887194e-02 1.0541629614006752e-01
      -6.3709275428181356e-01 -2.0081694547214085e-01
      -7.7098973741477128e-01 9.3417228422466980e-03
      -1.2087529451999392e-01 -6.4664487568284368e-01
      -3.3758774206917724e-02 -1.0963228062682628e+00
      -3.1170326847422142e-01 -6.4310955518779789e-01
      -5.2591609390539018e-01 -1.3363106026005065e+00
      -6.5065353698015327e-01 9.3069148256189102e-02
      -1.6913597955717227e-01 1.0209455782105557e-01
      -4.0832574953756923e-01 -5.6620013325714147e-01
      2.2880997013342172e-01 -4.0422916012631965e-01
      -6.9860360415916023e-01 -1.1371544238927599e-01
      -1.2590564191030371e-01 -3.6456854075978440e-01
      -2.8287867986110266e-01 -7.5961328638466816e-02
      -2.9659442524782237e-01 -4.9431764270694767e-01
      -2.9058606377781893e-02 -4.9830053759659859e-01
      -8.8561702753461835e-01 -5.6932378721323318e-01
      -5.0733198274984448e-01 -3.1339018193588380e-01
      3.9019464565638630e-03 -9.4000233410499109e-02
      -7.3861322859943956e-01 1.0148220731133877e+00
      9.0027630762830591e-01 1.4890768542922987e+00
      9.8704035152705194e-01 3.3692024153278161e-01
      1.5447160153735842e+00 2.3053512218826717e+00
      3.1323644182104599e-01 1.8188447327074513e+00
      1.1992839172279781e+00 2.5725338265272879e+00
      1.6415180934122087e+00 1.2161133075060921e+00
      1.1015457217176170e+00 7.8749134916556618e-01
      4.6724402280203642e-01 4.2159430504644985e-01
      -1.7465027483026767e+00 7.5942465027646378e-01
      1.2904588768347944e+00 5.4736147096527776e-01
      7.2656160100054956e-01 1.0633878301814645e+00
      9.4109459621534863e-01 3.7738294141463857e-01
      9.1414696021807640e-01 4.0909787298310313e-01
      8.1788689468335818e-01 1.0858684789699871e+00
      1.7433429939410316e+00 7.1804413185809046e-01
      1.4777633608475009e+00 5.3150418511091291e-01
      -4.7899176784536901e-01 -4.6746419021523794e-02
      1.2299367833691863e+00 7.5204378650775849e-01
      4.6019583737819902e-01 3.3744620721652560e-02
      1.7736791522963624e-01 -8.3515295350226115e-01
      1.0591237289184994e+00 3.6098980134232311e-01
      -3.0355828555823738e-01 -4.1936435673498258e-02
      2.6623763376559512e-01 1.7192674313167675e+00
      -3.9786919691170319e-01 1.0874923152566414e+00
      2.5527332848284512e-01 7.3511054292737843e-01
      -3.6164533491934830e-01 7.3271147554160032e-01
      -6.7225793403826961e-01 6.2078620173870180e-01
      3.5063108589410130e-01 2.6630989230789043e-01
      1.0298372744580222e+00 -2.3155297013341142e-02
      6.7927754164465254e-02 -3.8607079034856734e-01
      -2.8904460882028959e-01 8.1173514121072565e-01
      1.3732765202641306e+00 3.0475120744178696e-01
      4.6910465025462766e-01 -2.6006839968849654e-01
      -1.7566295691349093e-01 1.3020204055359541e+00
      9.2828981847724157e-01 2.6963692988521282e-01
      -4.3538899482722759e-01 -2.1178712828766566e-01
      -6.9604856030557172e-01 2.7972315324541192e-01
      -5.8184867735247969e-01 -2.6197630238332048e-01
      -1.1373696283970636e+00 -1.6555921167525500e+00
      -1.0862598876171248e+00 -4.1736098412971767e-01
      -4.4668860309366359e-01 -1.8208185023120476e+00
      -9.2109211959789083e-01 -6.2109810955787870e-01
      -1.9092415653612257e-01 -5.7870540314255514e-01
      -6.1132994699122944e-01 -6.2265010175000857e-01
      1.7952065099318498e-01 -9.2563126294578191e-01
      -6.0614598290396438e-01 -2.6020043416686400e-01
      -1.3316698245486300e+00 -9.0634200533078269e-01
      3.0278718555260004e-01 3.4850783528873513e-01
      -2.8257105409516220e-01 -9.6213776272187446e-01
      -1.0096729662880612e+00 -6.0084255582349788e-01
      -8.1834329565372321e-01 7.4090606422548402e-02
      -9.5053068218079395e-01 -1.0345163064000764e+00
      -1.5216124883512399e+00 4.4158993150276149e-01
      5.3487371582566234e-01 -6.8279629938054753e-02
      -1.9288950811974340e-01 -1.2532300318562706e-01
      -1.0051828011253944e-02 6.6611743808601165e-01
      2.1513229804664408e-01 -2.7299056138942251e-01
      -2.4220362752047106e-01 -1.0794589019493444e+00
      -2.5573711129048014e-02 -8.8956998666702602e-01
      -4.5093366775813482e-01 -1.7344959338182744e-01
      -8.8067109237856733e-01 3.8051640525992020e-01
      7.2437470863459852e-01 6.5776387430605066e-01
      1.1967699394459850e+00 -6.7222502061483586e-02
      -4.9823571344406159e-01 -7.5515392138457782e-01
      3.6835457124732945e-01 7.1426605022693282e-02
      -6.5469930711950119e-01 -4.2243207861397999e-02
      -1.9503453665479942e-01 -1.9282078410638565e-01
      2.2657443952198700e-01 -4.4269555527561699e-01
      -4.2268074558611451e-01 4.8391907262109464e-02
      3.2470442281915607e-01 5.6175420456131864e-01
      5.4290575025701371e-01 -8.7074386349557464e-01
      -1.0900721909226716e+00 -2.1243214376657482e-01
      1.7809099527129608e+00 -2.6454437187708318e-01
      4.8294468349822856e-01 2.3569375288475061e+00
      -1.1354318213174950e+00 5.4551232017737084e-01
      1.4064488231018795e+00 1.2620193355760436e+00
      9.9791808348388433e-01 1.8727484504641356e+00
      1.4390185659714247e+00 3.4938522328619032e-01
      5.2177151645598019e-03 -3.7267885722039423e-01
      8.6561602762466727e-01 9.9131811046015461e-01
      -7.0107180735995744e-01 6.2553887157900201e-01
      9.8760440048680925e-02 5.3828359912172363e-01
      9.4274219338046361e-01 3.3747628593503537e-01
      1.0540892468762928e+00 5.3890433379675839e-01
      8.8281214273857622e-01 5.7731244520314751e-01
      -1.3358752107725129e+00 6.3080154285797185e-01
      1.1109791435259189e-01 -3.0364539130505636e-01
      1.7609169862396210e-01 6.3293866611088168e-01
      2.9898978257497466e-01 -2.6581589028873542e-01
      -5.4294456454196860e-01 1.5627028655119277e-01
      2.1588741481732746e-01 -2.5643163740221264e-01
      -5.7948525415613061e-01 4.8173146860870170e-01
      -8.3436485711303354e-01 -7.7611409930491163e-02
      -1.8366586970295257e-01 -1.9733662647108959e-02
      5.1658501951176730e-02 6.3704399127645073e-01
      -5.9660236667416566e-01 2.3594668574558514e-01
      -6.9508576702671776e-01 2.3733854661933204e-01
      2.4883508679340535e-01 2.6458458194203782e-01
      -2.0850347990476983e-01 2.9682296729553070e-01
      -3.8607957400853371e-01 3.5501670362043636e-01
      -4.8702815812759115e-01 -1.8943867221566246e-01
      4.0490633503389306e-01 -2.3713721646760189e-01
      -3.5867065705116058e-01 -1.3717415647815490e-01
      -6.1955031109983427e-01 6.2829438741126079e-02
      -9.1319608207318448e-01 3.9225309740487402e-01
      -2.2350934701760317e-01 3.6689835705781437e-01
      -6.0771935849834136e-01 -6.9647625031177463e-01
      9.5690447005218806e-03 -1.8889785102198037e-01
      -3.2730879884028058e-01 -1.4526769654552427e+00
      -3.3120445219502120e-01 -2.3055372000470231e-01
      -3.2605483366023813e-01 -6.2238764065906615e-01
      4.7644309376233249e-02 -5.8573430175399077e-01
      -4.7880819255337831e-01 -1.3530735758318110e-01
      -5.9645785085541858e-01 9.6974010176829573e-01
      -1.5217840226569018e-01 -2.5450583537842419e-01
      -1.8075550968354806e-01 1.1132698214335852e-01
      1.2301198734966880e-01 1.3940558234785114e-01
      -4.4801700269018294e-02 -5.7599921040555646e-01
      -1.4436213099728110e+00 3.2771476786201861e-02
      -8.0786981947553405e-02 2.1438645695028391e-01
      -4.3220128349517556e-01 -3.8189206982296708e-01
      6.4102727174217133e-01 -7.5227674307434891e-02
      -4.7160437844224229e-01 3.3984822117362568e-01
      2.8575289649533864e-01 -5.6258356665380527e-01
      -4.8273483571401504e-01 3.2358196406033690e-01
      5.3408862410608549e-01 4.0415177646540540e-01
      1.8416630485749769e-01 1.3830468028354559e-01
      2.4587026268785833e-01 3.2006496933123468e-01
      1.6977096529036423e-01 -1.3179763164759767e-01
      4.1782494350409999e-01 5.0085809338317810e-01
      2.5088006444897504e-01 -3.3656375461413375e-02
      3.8257562118234639e-01 4.9650204426105954e-01
      1.8004914074961845e-01 1.4674442096315207e-01
      3.7885820534693015e-01 3.8569618519077614e-01
      -2.5764123730465316e-01 7.5731882718410692e-02
      2.0727646684943278e-02 2.6221660620245273e-02
      -1.1360257495871200e-02 3.3874666359841527e-01
      -1.8319263840827654e-01 2.3644542313823808e-01
      2.1651741696756632e-01 4.5772743371087765e-01
      3.6299408239019698e-01 -4.4230653105854049e-03
      9.7839901554203329e-02 4.8282967026762413e-01
      5.3347816350618915e-01 8.3104280124007848e-02
      -1.9710111379015455e-01 3.3129040980583191e-01
      -4.8913386527484676e-01 -1.1986095079917373e-01
      -4.6395026342181372e-02 -1.6692734442975035e-01
      -1.6726799185119501e-01 -8.0940476785287915e-02
      -1.8539226216969265e-01 1.2031065518703356e-01
      -3.1088394146656534e-01 2.6885065004314153e-02
      3.3081386078207525e-03 -1.0265757359651174e-01
      5.4940073396891762e-02 1.4823625670444524e-01
      -1.5110493729044563e-01 1.7508342795855822e-01
      -1.3492290057989265e-01 -2.2340883902455441e-01
      -3.9558630414885393e-01 1.8548947360680335e-03
      -2.4599467296084510e-01 -9.0299313497625683e-02
      8.8495457695485780e-02 -1.5517746853408720e-01
      5.0590370104191582e-02 -1.6982226387675221e-02
      -1.9839052767967819e-01 -9.2432366634452520e-02
      2.9710082771172908e-01 2.1854755862514768e-02
      1.9638592111295014e-01 -4.8795345690689884e-02
      1.2587161457889351e-02 5.6632095463657973e-02
      -3.3294603001186157e-01 -9.7505866528362850e-02
      -4.8947412484376757e-02 2.7332779255156792e-01
      2.0253335696122751e-01 -4.7751651853850843e-02
      9.7176542238148672e-02 2.4931759438859785e-01
      -2.0405353027198175e-01 7.1297422534561852e-02
      1.4245710656606148e-01 1.6038207023332496e-01
      1.6756141096739605e-01 -5.9387700760160003e-03
      -2.5020608102476133e-01 -3.4093634965930916e-02
      1.0851441824648653e-01 -6.2328809387644603e-02
      3.4881730876101420e-02 8.3295112628616316e-02
      -4.0725860389790791e-01 -2.3617667177366758e-01
      1.7903148974778152e-01 -4.9181840110553994e-02
      -1.7574095936118889e-02 -1.1150527531487728e-01
      2.8694619943894190e-01 -2.4375156179565100e-01
      -5.8623551043634356e-02 1.8765619434696006e-02
      -1.3452331987857458e-01 -7.4051997165038103e-02
      3.4539118991711387e-01 2.0368844459727342e-01
      -2.2562424797279335e-01 -7.0467936294087277e-02
      -1.7527052393142206e-01 -9.4076822763983700e-02
      1.9728599086475222e-02 2.2320688912883976e-01
      -6.8962198022977886e-02 1.5462729932136760e-01
      -8.4049606660700299e-02 -1.4323449773863015e-01
      -2.2652481295793955e-01 -1.2920553415239258e-01
      -3.0201996944152737e-01 -6.2091961358946110e-02
      7.6859287199201208e-03 2.6922401659911976e-01
      2.9512145224612779e-01 -7.1275850784422116e-03
      -1.0412207370085222e-01 4.4136892317220351e-02
      -2.2961513113720630e-02 2.1906638105089124e-02
      1.6552451306628332e-01 -3.3586554707454433e-02
      -2.3797409609105985e-01 -5.1041447735954960e-02
      -9.5159860278124980e-02 -3.4470281077079820e-02
      -3.2404098795674581e-02 2.3167609991486712e-01
      -2.6304686211017496e-02 -4.3212507268217265e-01
      -3.7427984191776209e-01 3.0355332860432085e-02
      -1.9745083363900634e-01 -1.9159376716412900e-02
      2.3069353221251981e-01 1.4571335972511845e-01
      -2.9090369234655328e-01 6.5054410414929223e-02
      -1.7052492414490857e-02 2.1403292418422362e-01
      5.5250454357271550e-01 8.2949407114804412e-03
      1.6084131165187895e-01 1.7166991928650882e-01
      2.4567491973475919e-01 3.3696456283501258e-01
      -7.3920905449101904e-02 2.0860249582848983e-01
      3.3380539322750907e-01 5.7524831831603151e-01
      3.6552449812309824e-02 2.6541765929777722e-01
      1.0453371642922608e-01 3.0220383733160394e-01
      -1.2412289267151068e-01 1.7334695106053155e-01
      -1.6902396428972194e-01 2.7776685301760462e-01
      -9.1017160443987888e-02 2.0384261921179100e-01
      1.7801549025941066e-01 2.0624675343464477e-01
      7.3527212452468807e-02 1.5737513389925931e-01
      3.3510479443395585e-01 2.8153411396939093e-01
      -1.1493786779075561e-01 1.5146222684393740e-01
      -6.1061301900179214e-02 2.5699084681079193e-01
      3.1165352080306225e-01 2.5414244349685294e-01
      2.8738533228012486e-01 3.0491287654539501e-01
      -7.5339093199208551e-01 -5.8552950025717410e-01
      -1.5046332224369254e+00 -1.1030627481888640e+00
      -7.9183144822286733e-01 -7.7424394746124670e-01
      -1.1769664906166066e+00 -9.6599700882687334e-01
      -6.7094618827083496e-01 -1.2403830945031402e+00
      -8.8189033167116926e-01 -2.0747917172946759e+00
      -1.6482518200130960e+00 -1.2307740833326490e+00
      -4.5285881520636612e-01 -5.0378831832800663e-01
      -8.4715554776230240e-01 -1.7363752974897453e+00
      1.1253600000096485e-01 -1.0631247544081894e+00
      -1.1381936474923058e+00 6.7405544732597661e-02
      -1.1539484919678307e+00 -1.1310223964606743e+00
      -8.1395938550971136e-01 -3.0236763602079231e-01
      -7.9788126316544505e-01 -1.5764256979027065e+00
      -1.2514677817873530e+00 -4.6858989186199845e-01
      -1.2783222544835122e+00 -1.2116116285314174e+00
      -7.5887709026698802e-01 -8.6019223431015079e-01
      -1.5387377476663406e+00 -9.0046124561728957e-01
      -2.3680103210516702e-02 1.7757965785893320e-01
      3.6185964927622211e-01 2.5048369423494365e-01
      5.2797017147515328e-02 2.3914839817825290e-01
      3.8354009754834045e-01 3.1746371386383854e-01
      3.1948236590186430e-01 3.4344476736227647e-01
      1.7717161198325043e-01 6.0995405497500033e-01
      6.9971987477643771e-01 2.8865971094876780e-01
      3.1872070352038168e-01 3.7906495321364275e-01
      3.8926396042776801e-01 5.3856586102057802e-01
      -1.4859147045307819e-01 1.6876686688389886e-01
      3.0830892655706815e-01 -7.1574128743252113e-02
      2.6086420651363129e-01 3.5032979418909632e-01
      1.0963066401024079e-02 9.2428499398758010e-02
      3.7199594755053383e-01 3.1549947412829360e-01
      -4.5587350082745060e-02 2.3805406943008500e-01
      4.4688132235013522e-01 2.9922095121341630e-01
      2.3066813227234020e-01 3.8308475661143754e-01
      4.1350295112423413e-01 3.2075926569040086e-01
      -4.5453355858581385e-01 -2.5118233402771448e-02
      -6.0920822500302829e-01 -3.4404231920366057e-01
      -4.1451538469823790e-01 -4.4538672972186888e-01
      -4.5765306721148924e-01 -6.5701250663890731e-01
      -4.8074344573002019e-02 -3.3063584879800456e-01
      -2.4130316212390368e-01 -1.1182415612424115e+00
      -9.9613024319305032e-01 -1.1709681474849978e-01
      2.1413722962801196e-02 -1.1863543503020445e-01
      -4.9278700770288530e-01 -4.2790634334434358e-01
      2.1519858707743082e-02 -1.2400313099562553e-01
      -6.6830920517510750e-01 1.0492991254021905e-01
      -2.9186999784654188e-01 9.0219266268831526e-04
      -5.2544010694599397e-01 -1.5747582688038497e-01
      -1.9354488010531939e-01 -6.2598197975742731e-01
      -1.7398317723985984e-01 -1.2075764519753580e-01
      -6.0407486012914124e-01 -3.0849395624422071e-01
      -4.0172426218500634e-01 -2.7640579131762782e-01
      -3.4653998179745288e-01 -4.0060819424688759e-01
      6.9509708214690069e-01 3.8453136010102312e-01
      5.6134089500606721e-01 8.1350741689785133e-01
      4.0212333457579713e-01 3.7766258480717785e-01
      6.1474355422452809e-01 -8.7129592291807223e-03
      -9.6068070373679232e-02 6.4301960519854751e-01
      4.5389385086696327e-01 8.2555258604777337e-01
      3.5103983418704604e-01 -2.6490217418920679e-02
      -2.8616902998442842e-02 7.0594412102174098e-01
      1.0690863568150885e-01 6.4728439354418876e-01
      1.8368863765971488e-01 2.5777561411812416e-01
      1.6768285707054920e-01 -3.0414946326663189e-01
      1.3088025126390684e-01 6.8826202367120071e-01
      8.4576981006078056e-01 2.9404407508440983e-01
      7.6093041595022459e-01 4.9971149515501984e-01
      5.8525448947088177e-01 3.0402701361932460e-01
      7.3655614722231466e-01 5.1590334944000604e-01
      1.4011255794921179e-01 4.5003515310897052e-01
      8.0985970260812490e-01 5.1159506031983970e-01
      7.7318328988144880e-01 -1.3896341553516359e-01
      1.1094505583722691e+00 -9.1299003081338059e-01
      6.7305917783403224e-01 4.0481809483758996e-01
      4.2257000158710395e-02 1.6603180496606076e-01
      4.7159169288303721e-01 6.7519029249297613e-01
      5.2279044348775638e-01 1.2481795371725855e+00
      9.1748568430506527e-01 -3.2989350181635674e-01
      9.7775558692334297e-01 -2.9849471932093363e-01
      8.9956228864552601e-01 7.3990630688728332e-01
      -7.3172919630371203e-02 1.1881525554726615e+00
      -2.9202855951331558e-01 -5.0201045834974711e-01
      9.2055282363112090e-01 -3.2103936196909699e-01
      4.2618359845581272e-01 1.6252696388981001e-02
      4.2683247379904043e-01 1.1547098099989501e+00
      6.0611882842672837e-01 5.5255679524527734e-01
      7.0026055513151908e-01 5.5050104267758360e-01
      8.9114391755762565e-02 1.1713335810743726e+00
      1.0419434833764394e+00 -1.5332464524274500e-01
      -1.2127954724555725e+00 -1.4126102217422920e+00
      -1.2425412634563318e+00 -1.7356523441354232e-01
      -1.1593632000857521e+00 -1.0487642709638048e+00
      -1.1047250001062907e+00 -1.0772894877638080e+00
      -1.0131271143669072e+00 -5.6824122150759571e-01
      -9.5450656512184329e-01 -8.8568576235014507e-01
      -1.6328351098628760e-01 -1.0713027910001258e-01
      -1.9428140507877509e+00 -5.8356848997913394e-02
      -1.5291245719844013e+00 -6.6396409836547121e-01
      9.3267518531128790e-01 -1.2752856512444828e+00
      -1.0305898492143581e+00 -9.4245267734228408e-02
      -7.8690854762948259e-01 -1.4819728123124767e+00
      -3.9882016112971780e-01 -1.0574994034871921e+00
      -8.2581452944139178e-01 -1.4354902384412920e+00
      -1.1576191295173861e+00 -6.2542440602853722e-01
      -8.4443270157872219e-01 -1.1570715729165373e+00
      -1.2289318791140886e+00 -1.0365293477803277e+00
      -2.0511692191056161e+00 -1.0532099699810535e+00
      -1.1139523559318274e+00 -1.8609751256129964e-01
      -5.9164953310313373e-01 -3.8015563275994496e-01
      -2.2711912964274047e-01 -5.1139314938002112e-01
      -3.4560666014241398e-01 -1.0586997359727652e+00
      -1.6045012985013168e-01 -5.3629726780598796e-01
      -1.4667990906864808e-02 -6.9153694528485576e-01
      1.5633769564084565e-01 2.0160442661792610e-01
      -4.6359443730435906e-01 -6.8449730875851256e-01
      3.2316840116488298e-02 -1.8925537640935508e-01
      3.3973413546317116e-01 -5.1032682167357701e-01
      -1.1164512995713822e+00 -6.0572939447296270e-01
      -7.6337207765639425e-01 -1.4874050958969165e-01
      -1.5877844804851369e+00 -8.3830273035861678e-03
      -2.2529203687707272e-01 -7.6843611844397952e-01
      -1.3880408602096012e-01 -9.7984423515710339e-01
      -8.8669308800076374e-01 4.3641560226112437e-02
      -3.2850290990366160e-01 -5.5582678223175375e-01
      -2.2897156720445735e-01 -9.7719108723750586e-02
      -3.3881352560602984e-01 3.3617886879812037e-01
      1.8286885708760775e-01 -9.1680825648588371e-02
      -3.8514914264901744e-02 -4.9695076850732417e-01
      4.3685095420042830e-01 -1.3814045302427108e-01
      -4.4449942398747458e-02 -6.6466464247668866e-01
      -2.6710109486986533e-01 -3.6418988115078782e-01
      -4.9822734703889898e-02 8.4680508352042050e-01
      -1.6214249966057612e-01 -1.4401739184513063e-01
      -4.7574518926469184e-01 -3.3964698512224986e-02
      7.8829541558677008e-01 -5.1902547248329667e-01
      -6.9070560405767742e-02 -1.1591798945359588e-01
      -2.2170720347702694e-01 2.6232137293436358e-01
      -1.5020494834667722e-01 1.5384256271928601e-01
      -4.4115120090161958e-01 7.5667655509782258e-02
      3.6690766514685830e-01 -9.6512893916468778e-01
      -2.0762610552198738e-01 -3.5349302780624370e-02
      1.5404060970133190e-01 -2.7583370146658320e-01
      2.9279469207983511e-01 3.9028742261505767e-01
      -1.4382639873867478e-01 7.1283008772636625e-01
      6.4868541622204623e-01 3.5765071921599501e-01
      6.8094088125347640e-01 5.5005869579314970e-01
      7.9333257334505869e-01 1.3053535024634708e+00
      1.1809362656271638e+00 1.0432154182431981e+00
      3.1488516663197191e-01 2.1135856511309331e-01
      9.4353673206584798e-01 1.2354733645367448e+00
      7.9959739690025589e-01 9.6517065443915839e-01
      2.1548329649694556e-01 -4.1318652970673247e-02
      -1.1492457916038099e+00 8.4698162291182244e-01
      5.7463524659073495e-01 -7.6685632790375532e-02
      1.1060098493834611e+00 1.6276419735405723e+00
      2.8504219538151088e-01 -4.2059093984256130e-01
      -6.9963967212332751e-02 1.5395730191623061e-02
      -1.7569049844245203e-03 8.7898693070314138e-01
      2.2145479450247829e-01 3.7543426226836196e-01
      9.9498821366208900e-01 7.2167192603356978e-01
      -3.6248582093284065e-01 -7.2356115243599556e-02
      8.1332730621733573e-02 -4.9600477852234742e-01
      -7.0699479045910241e-01 -9.7573941392106751e-03
      -5.9572226812880402e-01 -6.5921613233119092e-01
      -8.9001503930326542e-01 -4.3115602894512117e-01
      -1.0755576867301462e+00 -5.1289792196624850e-01
      -2.9320861928529417e-02 -4.2311079274321123e-01
      -4.5221837553255451e-01 -6.9826488514216778e-01
      -7.6367130479517142e-01 -2.7768967953987339e-01
      -9.2900482619505675e-02 -4.9821035804844099e-01
      1.1440155014832762e+00 -8.3301341012395924e-01
      -1.6295689297747726e-01 -8.3829608831251748e-02
      -1.0977597186676840e+00 -1.6221029349365063e-02
      -6.5597752439473900e-01 -4.8949793923644302e-01
      2.8344114971437029e-01 -8.2994332970992368e-01
      -1.3917612204061808e-01 -1.5838122400932690e+00
      -3.3077541856113357e-01 -2.1264335101377671e-01
      -6.1627565142771723e-01 -1.0205470822778462e+00
      1.7686272501578873e-01 -3.7281013962107601e-01
      -4.9723154399975533e-01 5.1187079806834035e-01
      2.6223664242036809e-01 -3.6876073268945947e-01
      1.0078306241265331e-01 4.0263324913193566e-02
      3.8936288270227604e-02 1.7723683741259262e+00
      5.5249568430984053e-01 4.8529687360438173e-01
      -2.7650019157498440e-01 -1.2013604741920623e-01
      -3.4873102468690237e-01 4.5834130859333821e-01
      2.8407870049175493e-01 -1.3792337830667004e-01
      -1.3400226981903302e-01 4.1349972387335010e-02
      -6.4769601351744677e-01 -2.0736805008023419e-02
      7.5503661376898523e-01 5.6987394227316146e-01
      3.8982691495805416e-01 1.5275952641263896e-01
      1.4237134926989046e+00 -6.0219998877761183e-01
      -1.4454995934946968e-01 -5.1413130498309068e-01
      -2.7982229724645022e-02 -5.6540104306716847e-02
      -1.9872113511204809e-01 1.7512771196475529e-01
      2.4269229771213993e-01 3.4661340638181833e-02
      -5.7512559992861445e-01 -7.4583532820290721e-01
      -5.2319202383970899e-02 -2.3837462434856072e-01
      -5.4217014154366437e-02 8.8689698351792148e-04
      -7.2589728776305498e-02 8.3909050372773797e-02
      -1.1215285978369051e-01 1.6188529961637381e-02
      2.0735115634933377e-01 -9.0213613125881831e-02
      -2.7368560506287791e-03 -1.7708337910993504e-03
      -1.1292410862871825e-01 3.2470555338829810e-01
      -3.9050327176309779e-01 -6.0775466366507561e-02
      -4.2473198419972998e-02 -1.6746486770698538e-01
      1.7009807073700445e-01 -9.9960402698929696e-02
      -9.1263351262492437e-02 -1.4507364100010128e-01
      -2.0025173180865199e-01 -1.7362600757353730e-01
      -8.5554135288808619e-02 -2.4316299963274757e-01
      -9.0662765211864019e-02 -3.9290290444920550e-01
      -1.8255742413790030e-01 -1.9150236940665452e-01
      -1.1349630008396874e-01 -2.2148337867930612e-01
      1.0830302788588357e-01 -6.5923675486973560e-02
      -5.5501500287804872e-01 -9.1831944393542600e-03
      2.1502256588968233e-01 1.4540934348465473e-01
      1.9917817036654842e-01 1.1133637957545586e-03
      3.9883879112407006e-01 3.7773747346606357e-01
      4.3211895312787868e-01 -1.0202036730765811e-01
      -6.2478667876568215e-02 1.1082751356156542e-01
      -9.9077697783141405e-02 1.6987955205875982e-01
      6.3874354168553193e-02 -6.9340323859205555e-01
      3.6390175799470753e-01 3.0261231164780850e-01
      1.2190950832382805e-01 1.1751418465092589e-02
      1.1333448492638790e-01 1.4304513759505849e-01
      2.6697592396711467e-01 -3.1299434220697353e-01
      2.8779944259852597e-01 4.2639870257414680e-01
      1.6627981817814258e-01 4.5126292467845264e-01
      2.1528219863648268e-01 5.5303876987474687e-01
      3.2682771104692687e-01 2.7596146293929334e-02
      4.4881998215157547e-03 4.5064653464622445e-01
      1.8487490913860355e-01 9.3310061548463968e-02
      2.2710846464033124e-01 5.1076262178475251e-01
      -2.6937147425768254e-01 -4.6032688849113040e-01
      2.5824660420690017e-02 -5.8624580479733934e-01
      -5.7949200802527967e-01 -3.4726575856131192e-01
      -8.3674301241425653e-01 2.1397605085856816e-01
      -7.7978564931668187e-02 -4.9143571983156380e-02
      -2.6745368398087843e-01 2.9279778691567576e-01
      -4.9354804367427357e-01 -8.8455084768931616e-02
      3.5785677227400552e-02 -1.2703913049350557e+00
      3.1564944973183218e-01 3.9295568689321991e-02
      -3.6216890095765464e-01 -6.0799819534092570e-01
      -6.2159681662926614e-01 4.7637356412530302e-01
      -5.5402255888990970e-01 -1.3379057412848472e+00
      2.8689229548771705e-01 -5.4771816326286415e-01
      -3.3514474811940775e-01 -9.7938309410008195e-01
      -1.0691767154642531e+00 1.7984700632124091e+00
      -6.9685743952138024e-01 -6.1281011160946863e-01
      -8.6499162107504868e-01 1.0486692020867721e+00
      -8.9516884196812219e-01 -2.1629121100628477e+00
      -5.1748306600262062e-01 -3.8961049006422849e-01
      1.6778374051635961e-01 -6.7595445278993982e-01
      -1.0242156623060482e-01 -7.2221259045760586e-02
      2.0029839360654800e-01 -4.6217456239264304e-01
      -1.2966989906338247e+00 -9.0378969652954078e-01
      -8.0977111601573204e-01 -4.5299828393653474e-01
      -3.3616065842014614e-01 3.0093071375134328e-01
      -2.1229322326637345e-01 -3.6947607206857247e-01
      -4.1552676417470297e-01 1.2304044822935445e-01
      3.9163662681771613e-02 -1.1168790949480582e-01
      -9.9032269499477610e-01 -6.0836476282660101e-01
      2.9033205191798972e-01 -1.2793304966392047e+00
      -1.2629504137362526e+00 -1.6537304531604882e-01
      -9.6448679461501208e-01 1.6104606989888387e-01
      -4.6891059158151055e-01 -1.1510653942106555e-01
      2.3302208746998299e-01 -8.0414292657225417e-01
      -1.3717903866937334e-02 1.6485625975403340e-01
      4.6439189620292476e-02 -1.5212985611649119e+00
      5.7192148127228792e-01 4.7345342445464417e-01
      1.1788110634384921e+00 -4.8302491305625683e-01
      3.9679397856612947e-01 6.5796415105121875e-01
      5.7381049100864379e-01 7.9636111573127677e-01
      1.2004799791981604e+00 1.1066035338018825e+00
      9.3360895957484302e-01 9.9286241242329343e-01
      5.4504953173626869e-01 9.1619529191900484e-01
      1.4235033481021115e+00 7.5405704598005352e-01
      9.4717575706606982e-01 6.8904301497428511e-01
      4.0755078962402341e-01 1.6066289043847777e+00
      1.5380407347587173e+00 -1.7991614598147085e-01
      6.0166617589168594e-02 1.7769831503875720e-03
      1.3844038822596394e+00 1.5451354224954109e-01
      1.3522017466940832e+00 8.8805586115735524e-01
      8.9406581405295371e-01 1.1266421124139905e+00
      4.7026624216821078e-02 3.6460519330312846e-01
      3.8489747846234612e-01 1.7149092365954322e+00
      1.0669198283926045e+00 3.1804507805984783e-01
      1.5294421167860001e-01 1.3029612001480123e-01
      -9.8782464906138470e-02 -4.4393444046086125e-02
      3.7177316520749411e-02 -4.0515935736738323e-01
      4.0954179819971592e-01 -1.8816054750359840e-01
      -2.5430959163986799e-01 8.9928643392619217e-02
      -5.0343043173450265e-02 3.1388130472311493e-01
      3.8388022746167882e-01 -5.5639034659089259e-01
      -8.9683051550594317e-01 3.9291180289537531e-01
      -3.2140965586516546e-01 2.2008505070702539e-01
      -1.0094742211568095e+00 -6.1272922600716917e-01
      -2.2582243369356025e-01 -1.6136515769633025e-01
      5.2174107992113661e-01 1.2527062912789564e+00
      -6.6544956683906176e-01 5.9899741214617519e-01
      -5.3786051150857139e-01 -1.1445942556585234e-01
      1.2307914833062927e-01 5.4669935561897176e-01
      6.9053369493082717e-02 -2.4853704305204863e-01
      4.5404620642099783e-02 -6.6031612698746633e-01
      -9.7469348926021981e-01 8.1846982483037944e-01
      -1.3447418635592587e+00 -7.8492533028337563e-01
      -1.0204059456986807e+00 -3.2444658428485612e-01
      -4.5625797046234229e-01 -7.1339873667005727e-01
      -1.3048439122058821e+00 -6.6440763131807212e-01
      -1.4123592780517515e+00 -1.2777802136163496e+00
      -1.1966577839605292e+00 -8.8953703809995077e-01
      -1.5504283686450768e+00 -1.3558941383023493e+00
      -8.6258353412889299e-01 -5.7997183810080744e-01
      -6.0202080372545042e-01 -1.6989654017808649e+00
      8.1326725583733905e-01 -7.7090613852429857e-01
      -8.4543366615287374e-01 7.5522230542042837e-02
      -1.8240619935506204e+00 6.4988629327320047e-01
      -2.0129353289029792e-01 -5.2808435308193102e-01
      2.8525319276882621e-01 -1.1006863249166137e+00
      -6.7882191988694585e-01 -1.3852878633657055e+00
      -7.4178616910334139e-01 -2.2129739671529308e-01
      -1.2833673867645374e+00 -1.7550648450290045e+00
      -7.7591477249092888e-01 -2.8494506911409934e-01
      -3.7636085910695222e-01 -3.3860341928379512e-01
      -7.5493159973014445e-01 -1.2220989917607201e+00
      -2.9888082933714660e-01 -2.5877809346385178e-01
      -1.0975154150173263e+00 -4.3779880129690385e-01
      -5.9187624353878765e-01 -5.0967214571665154e-01
      -1.0315407165544703e-01 -6.8062607258901775e-01
      -2.8268224059561831e-01 -7.4694367230089642e-01
      -1.5655481587694235e+00 -4.6586894362607034e-01
      -8.0877394407470604e-01 -5.1470476224722350e-01
      3.0007321778011448e-01 -1.1456723067297405e+00
      -2.2830960875712004e-02 -5.9803355987752560e-01
      -7.0433683699828287e-01 -1.1267919960339159e+00
      -1.5753482639993872e+00 -8.6090100031906680e-01
      -2.4697907752332440e-01 -8.8904440593540746e-01
      -7.0576136745796081e-01 -8.4341679926947721e-01
      -1.2203351338102950e+00 -9.7184195266272400e-01
      -5.4987612225188442e-01 -1.2588843415803646e+00
      -5.7998120288449151e-01 4.1276971939068924e-01
      -1.9719587767336685e-01 1.6008421220678118e-01
      1.8317855535334857e-02 9.9676646718636214e-02
      1.9907371894394096e-01 -8.2633807522247282e-01
      -6.6129981196803161e-02 -4.0158355352621744e-01
      -1.7248577937289916e-01 -8.9992774946158899e-02
      -6.2377565254692913e-01 -1.3914000003084159e-01
      -5.3422290351640200e-02 -3.8460915430305992e-01
      -8.5425188921452921e-01 7.6623817002496841e-01
      -7.4175128605964724e-01 3.5475838483219541e-01
      4.4542582056434951e-02 -1.7885163416572475e-01
      -1.6929674262624134e-01 -1.6488515206044302e-02
      -7.6777344593074071e-01 9.6256183651628580e-02
      -2.1721859481706996e-03 -5.8561969643082645e-01
      -2.2565551064525136e-01 2.6499128150162871e-01
      2.8573185509232674e-01 -4.4756089109909286e-01
      4.3076838052979943e-01 1.3859369190056964e-01
      4.6428229374734925e-02 -9.7023176895704666e-01
      -3.6204474533524078e-01 4.6718659058643858e-01
      -1.5705457894992856e+00 2.7783145825988809e-01
      -4.0982075957837338e-01 -5.4650208982940696e-01
      -7.8403097359478424e-01 -8.2863275361596356e-01
      -1.6316726790049099e-02 -9.7912355069330470e-01
      -8.8006840896615213e-01 -4.3233566753762526e-01
      1.9856810480396117e-01 -4.3794938862973448e-01
      1.0173097902335435e-01 -1.1252746125218329e+00
      3.0085181802025224e-01 -8.1839514197640717e-01
      -9.8288257481011754e-01 -7.0370490888221859e-01
      -1.4329608460641841e-01 -3.7742379274794818e-01
      -7.3474909073780059e-01 -6.2182736387735027e-01
      -2.3382265406056738e-01 -1.3311071657254256e-01
      -1.0490032898796651e+00 -1.3674501783614693e-01
      2.2409536118131443e-01 -3.1592768739705945e-01
      -5.9000353582745757e-01 7.1215589344076924e-01
      -2.4876429856145860e-01 -8.5693044497551185e-01
      -3.0347450303850537e-01 -9.1593549125063856e-01
      -7.3622774694659032e-01 -3.8042830529678107e-01
      1.2635640047054257e+00 9.3252296068546092e-01
      1.1700576628368562e+00 9.0441682103787369e-01
      9.8831011660099011e-01 1.0110140300886865e+00
      1.0685825634007382e+00 2.7411463181087176e-01
      1.3638831516909380e+00 1.4373393016301765e+00
      1.0013340815071790e+00 6.4475662693401059e-01
      1.3269995995856292e+00 2.0189325990833797e+00
      2.2290420452951984e+00 1.0568210624269179e+00
      1.3342088910962338e+00 6.0582834274490049e-01
      -3.0387369902109544e-02 1.3738957755424959e+00
      8.4496071442703913e-01 -4.0453285842756420e-01
      1.0715439367970467e+00 1.1067444090674841e+00
      4.4645544466917519e-01 8.5457745543925612e-01
      1.2772382752860536e+00 1.3615395645699429e+00
      6.9671394875079962e-01 7.8348459709443063e-01
      1.2282258633848697e+00 1.1537367356461956e+00
      1.7217518761401212e+00 8.2473564850762515e-01
      1.7226049118731208e+00 8.9437415148354260e-01
      -6.2429391806344048e-01 6.7635073591941833e-03
      -5.0179396783099806e-01 -3.2567646539726752e-01
      -5.0005334025263881e-01 -3.2666070643428213e-01
      -5.2462857973392674e-01 -2.0539984039116091e-01
      -5.8838687041582194e-01 -3.5923546210711693e-01
      -6.9906775473083471e-01 -2.7314940452825291e-02
      -4.5928237229265206e-01 -4.4023673442279948e-01
      -5.2836945330342699e-01 1.8572653844755893e-01
      -5.0839716129478996e-01 -5.6073014648855501e-01
      -2.7785182524907076e-01 -5.9921959368472100e-01
      -2.7534710098518855e-01 1.5380873171507993e-02
      -5.9040463216122308e-01 -7.4454020039505397e-01
      7.5562099662616344e-02 -4.5607421844281382e-01
      -2.0005564342462812e-01 -5.9302508359309503e-01
      -2.7536180868563059e-01 3.5035166320251665e-01
      -4.7439641537088639e-01 -6.5316434509823362e-01
      -2.2830889626799011e-01 -8.3024672222672069e-02
      -9.7138431729506203e-01 -5.1191837237395121e-01
      -5.7509368623658497e-01 2.7156459857599974e-01
      -5.5965931434558203e-01 7.5368508577316262e-01
      -2.1688293914686280e-01 -2.6509325140957857e-01
      -1.4694949334245991e-01 -2.4240552912991575e-01
      -4.3457557470214908e-01 -4.3685840299426976e-01
      3.8237558624984075e-01 -2.6500680995626791e-01
      -5.1436539600758968e-01 -1.1314849299708205e+00
      3.5403910298064105e-02 2.7201633640872319e-01
      -1.1487993229596175e-01 -8.0036098551948720e-01
      6.8905300787010915e-01 -4.0042788972711840e-01
      6.7398154055759191e-02 3.1932289005775083e-01
      -1.0546233556587609e-01 5.1574581315525991e-01
      7.9068420327826694e-01 3.2474791470580894e-01
      7.9503671223189340e-02 -6.5499275944748539e-02
      1.2357716372573956e-02 -9.3708165554425149e-01
      3.2694190591033856e-01 4.9038529918430157e-01
      2.4447011191574378e-01 -8.4898041734385832e-01
      1.4408771815724306e-01 9.9283242765416158e-01
      1.4906726394672898e+00 1.2905144340247596e+00
      6.2572368253062571e-01 8.6743046002233615e-01
      7.1987369589972439e-01 1.3374251845180967e+00
      1.3048144422040189e+00 8.3786146970604913e-01
      1.0636310854689970e+00 9.6685361561333893e-01
      1.1800540903373455e+00 5.7485116703106542e-01
      9.8364670408218302e-01 2.0193778551000885e+00
      2.5433737787163793e+00 4.6040106349921905e-01
      1.7926327257034718e+00 8.1312276170337461e-01
      6.9994927836819409e-01 1.6113801277419642e+00
      1.7945155139669786e+00 1.6675902060110120e-01
      1.3553369225451506e+00 1.1428821156337563e+00
      1.0209801943675230e+00 1.3122091911922347e+00
      7.3879631346433272e-01 1.3103963605385174e+00
      7.1651187777421488e-01 8.0690866932628036e-01
      1.0687364894250213e+00 1.2668460809485582e+00
      1.2754797443070987e+00 1.8369362880944275e+00
      1.7296242945384424e+00 8.8198241947326306e-01
      -6.9044808497051760e-02 1.6799118358198105e-02
      -6.2312472859653312e-01 5.7655966546047344e-01
      -7.4363030249199713e-01 -3.3803029686264902e-01
      -6.5623622000114656e-01 -5.3818204310524076e-01
      -8.0626803795794433e-01 -1.6388233130267789e+00
      -3.5907493716176808e-01 -4.8283137343552762e-01
      -3.3459715680285279e-01 -8.0129513141239250e-01
      -4.2929666811325401e-01 -8.3045776117763692e-01
      -2.2646169230884342e-01 -7.4177894697892655e-01
      3.6686175720918940e-01 -6.8326176550493223e-01
      -7.0866918571181670e-01 2.3894990925535389e-01
      -5.7911832492842519e-01 -7.1057740748776199e-01
      -4.8334154280502606e-01 8.1852852548643315e-02
      -1.5875103685447406e-01 -7.1010911155509548e-01
      -5.7957885290723354e-01 -7.3549095728064029e-01
      -2.1308400851113568e-01 -1.7144717717086169e-01
      -2.5119542148295043e-01 -1.0256012967273589e+00
      -4.6813719439154694e-01 -9.9119860467764290e-02
      3.7343218302489378e-01 -7.1181741601544246e-01
      4.8412926313611521e-02 -2.1823496228261602e-01
      3.9504800213212643e-01 1.4467621117176252e-01
      -8.6166558398376969e-01 -2.3124241600834791e-01
      -1.9479028364072840e-01 2.0984340521573139e-01
      -4.3672148515033243e-01 -5.4612588711946886e-01
      -3.4901484748011047e-01 2.2101082304266384e-01
      -6.4425366948981844e-01 -2.4023963930343772e-01
      1.5833181831501328e-02 2.3986546701806452e-01
      -5.7604407008390618e-02 -5.5878444082415468e-01
      -4.1281468092291579e-01 -7.4910316840992003e-02
      -1.0914841404941349e-01 -5.4551732006433606e-01
      -8.5897692164375650e-01 -5.6030523130447885e-01
      -2.4346143047984894e-01 -3.2445216413333766e-01
      -4.1479720872328180e-01 2.8491745478528428e-02
      -5.3125595669540571e-01 -5.3148662480687681e-01
      -6.8392928701283062e-01 -6.9714066530121313e-02
      -1.1249911684735550e+00 -1.1188450967567811e+00
      -4.4417165898670519e-01 7.5532910676945425e-02
      -1.8742856620847909e-03 2.0114624770409320e-01
      2.9478396810741969e-01 -2.8459154406809767e-01
      -9.7932800242297134e-03 2.3216472964906179e-01
      2.7304114598162071e-01 -1.7950736830051155e-02
      -3.3773821165987788e-02 -6.4598712749866072e-01
      -8.1954914487593500e-01 -1.3230307854444459e-01
      3.3608973414294546e-01 1.2791331114939491e-01
      5.3870474365304725e-02 1.5198274854539534e-01
      3.4247794491399627e-02 -7.3520934064974564e-01
      -5.9549752675249631e-02 1.8565904394781882e-01
      -1.1251812057839811e-01 5.1299151895868289e-01
      1.0113786568422007e+00 2.0892658486858290e-01
      2.1915229593473040e-01 7.0743985605719928e-01
      7.0342293040000070e-01 -3.9693473288633663e-01
      3.7303958494356854e-01 -5.0839977905396738e-02
      -9.2528461691359684e-02 -1.4152238409146259e-01
      7.4353669698174238e-02 5.0386602499910793e-01
      -1.7363531732030074e-01 1.2458241823323880e-01
      1.0466272442700236e-02 -1.2024151659138910e-01
      -1.7551324155123901e-01 -2.5214271610733436e-03
      1.7326811199501899e-02 9.4193341582019981e-03
      2.4120018159338127e-01 3.0567604859421348e-02
      2.5589522106560714e-01 -1.0850851630619976e-01
      3.9634664579054502e-01 3.5635972117443099e-02
      -8.4335660460807857e-02 -2.1111313580372265e-01
      5.5850192045276076e-03 1.6304900343680873e-02
      -2.9606948499847530e-01 1.0504724635061463e-01
      -2.1394130947478152e-02 -3.4562203413343973e-01
      1.6230533645394143e-01 1.5950967972758731e-01
      -4.9714584795504189e-02 -8.6257221060749761e-02
      3.2343528478111011e-01 -3.3340206624264283e-02
      1.3015991573653429e-01 4.0994341962035513e-01
      5.6165775865404455e-01 -1.5920929008884310e-02
      -2.5727543989224505e-01 5.7480731750421732e-01
      7.2779378100405303e-03 1.2146116899504769e-01
      1.0582217470957922e-01 -1.0553222066463294e-01
      1.7518818399783240e-02 2.4406045583251038e-01
      -1.9598004151071238e-01 -7.0197108437715539e-02
      -4.7824673597712281e-02 3.5540309759264914e-02
      -7.2834302751168445e-01 -2.9523401686202516e-01
      -3.5422154553326052e-01 -1.5801138906534545e-01
      -4.3705249213589703e-01 4.5670719443554647e-01
      -1.7024605969398315e-01 -2.5409362396401758e-01
      7.0212923758165610e-02 3.1157322020115874e-01
      3.1746401580769529e-01 -3.9539634225023002e-01
      -5.4484529628354550e-01 1.0201217299164528e-02
      -1.8733957408196741e-01 1.7321682247039688e-01
      -9.1125883303056687e-01 -2.5843438075172970e-01
      -1.0208111900130484e-01 -2.3183313132666844e-01
      -3.1816855816871042e-01 -4.6053471797049594e-01
      -6.5403298297978096e-01 -5.2438978730907262e-02
      -2.4058219877165046e-01 -2.5809423965915942e-02
      -5.2519518526523834e-01 1.1178898543794952e-01
      2.0692836741541912e-01 6.4701925331540178e-01
      6.8383361724415137e-01 -1.6798174086034565e-01
      1.4542393307684484e-01 3.1532786375256927e-01
      -4.9788642366150999e-02 4.4496170934691714e-01
      4.2057294845564763e-01 4.2602514006945097e-01
      2.9482980458239189e-01 1.0377859830276701e+00
      6.4359116933211180e-01 -3.8070170533051345e-01
      -2.9067156527873700e-01 4.1774600391561595e-01
      2.6279599326218167e-01 2.9505917382801483e-01
      -4.6592128122765875e-01 3.6739244718386027e-01
      2.2985954074898343e-01 4.1154300753109441e-02
      1.4095032655299161e-01 1.5782172897003582e-01
      7.9588678801359436e-01 8.4042711566227016e-02
      3.7893596007486424e-01 3.3742055576973634e-01
      1.9034568256662321e-01 4.5874508143343368e-01
      5.5869987400800947e-01 1.8836905312874028e-01
      1.8625151381310193e-01 1.1014197512442533e-01
      2.8075844411833956e-01 -1.9693898153226666e-01
      -9.0520223877451444e-01 -5.6255134104745752e-01
      -6.6823423809438320e-01 -7.9387038214427175e-01
      -2.2575000025364256e-01 -2.3485457869417814e-01
      -3.3469312893108133e-01 -1.0817235479813831e+00
      -6.3582531343730875e-01 -3.1341788114060548e-01
      -1.4117349966373413e-01 -7.0606957254840075e-01
      -3.2644625870673899e-01 -7.6778868925152979e-03
      -3.0860336422240414e-01 -5.2918419177822182e-02
      -5.3664257458683795e-01 -3.4713255590505759e-01
      3.5036680414691251e-01 2.7290883648655617e-01
      -7.1031491833272487e-01 -8.1586661818219164e-01
      -4.0207388920362391e-01 -4.9205909604940556e-01
      -1.3833351170881075e-01 -3.6632794310988520e-01
      -3.2234514415361870e-01 9.8141966731969676e-02
      -1.7693160471477212e-01 -3.1024629415894206e-01
      -5.5039224259883635e-01 -2.8202402351014744e-01
      -5.1992181542911720e-01 -4.4068124606417602e-01
      -3.5365348625878312e-01 4.4031224712195649e-01
      -1.3055319275945720e+00 2.3284328336580387e-01
      -8.0663738482174030e-01 -8.3611548429190594e-02
      -6.5585145216243279e-01 -1.0540087411403445e+00
      3.7207147900024579e-01 -8.9722275554133479e-01
      -6.0923003277986343e-01 -1.4267609181689336e-01
      -2.0494821136834906e-01 -1.6427527515083834e-01
      1.9337836618020729e-01 -5.3321597872618476e-01
      -5.3944487025618028e-02 -3.4338325746591639e-02
      -2.6428451624415927e-01 -1.7273368039041825e-01
      2.7868588582665077e-01 8.6957525524077672e-01
      -3.3487417020164739e-01 -5.0538175601944146e-01
      -1.7329425794008313e-01 7.0395048611765404e-02
      1.0957633966983158e+00 -3.2293915440800808e-01
      -1.4012517836176791e-01 -8.9015069240932096e-02
      -5.3914098298645707e-01 -1.6008639510097467e-01
      -7.3757880771328932e-01 -3.5692815032512293e-01
      -7.3098726951348569e-01 -3.6566260465226319e-01
      -1.7491862733321933e-01 1.1444098308019690e-01
      -3.7547016885892776e-01 -1.0121044012481978e-01
      6.4574578666992000e-01 -4.6278265530588858e-01
      7.7883602152908948e-01 2.5567538749250363e-01
      6.6486720016062295e-01 8.1201515308376282e-01
      3.2209107690702410e-01 -6.3655989831386664e-02
      7.7219730140044385e-01 7.3100059094093339e-01
      -7.8325191021682283e-01 2.4228028141161317e-01
      -9.3473937459472065e-02 1.6438058270341196e-01
      -1.8692148136694764e-01 8.9064071001669132e-02
      -4.7323887772468326e-01 -2.4122154573272481e-01
      3.5202200134170941e-01 3.9521935449135716e-02
      4.1349914125161941e-01 -5.5665732229671661e-01
      1.3026758731736838e+00 -6.9856641594957837e-03
      1.1265615420832906e-01 8.6008626404391375e-01
      4.5511944981059171e-01 1.4219729285457355e-01
      1.0307838400282030e+00 1.8289316544614137e-01
      -3.9062312165133850e-01 5.8451243031076883e-01
      3.0412199544785712e-01 2.6105155850498074e-01
      2.1578968429561013e-01 3.2805457696220519e-01
      5.2557098878274444e-01 -5.4365149836375903e-01
      2.8654021502635435e-01 3.2848224408676876e-03
      9.6789495511464291e-02 -1.2003984453880144e-01
      2.6126466041436153e-01 -4.0370008162507592e-01
      -2.8911666463862479e-01 2.1002678559684138e-01
      6.9829516714899331e-01 4.4227843781829257e-01
      5.4147926708205707e-01 2.3540803797059728e-01
      5.4699620927005232e-01 2.1073791500630903e-01
      -1.3179733212558209e-01 1.1508456553489970e+00
      3.8950445811928935e-01 -3.6570300878972573e-01
      -4.2260951234469657e-01 1.6800806592503595e-01
      -1.4366726722725816e+00 4.6744763511134796e-01
      2.1452825009027696e-01 -5.3980210888448799e-01
      6.7630732239599478e-01 -1.6145667835761349e-01
      -8.9574722909971616e-01 -3.0006225879574056e-01
      4.3378976488793369e-01 -1.5262065379143594e-01
      2.2842860669707099e-01 -6.7053220376033373e-01
      -6.0390456870057163e-01 -2.2245228332338579e-01
      -2.5810403110607005e-01 -2.3474944962259070e-01
      2.9413366715068445e-02 3.1151073741034302e-01
      -1.1290665116600973e+00 -2.8842441388224238e-01
      -2.1993746104161763e-01 -6.3801030959031346e-01
      -3.2010256624753713e-01 4.7390512484278097e-01
      -4.9483340952837246e-01 -8.8597814031990696e-01
      -6.8178715316251637e-01 -8.9410666798929872e-01
      7.5248175646299043e-02 4.6811286541370040e-02
      -4.5737703988337286e-01 -1.1171230618781762e+00
      -1.2322444853718442e+00 5.3914698885481704e-01
      -4.3841881882448730e-01 -1.3049077047106755e-01
      -4.1525533441012308e-01 2.9589523225134007e-01
      -4.2519860782297747e-02 -9.4384388735490887e-01
      -9.9128077755620758e-01 5.3861938441195408e-03
      -5.3114959823627128e-01 -8.3135534511747355e-01
      -1.8097568411540832e-01 -1.1926375084764994e-01
      -6.4522795132988031e-01 -7.8957148798860044e-01
      2.3108104441206367e-01 1.3834911726571478e-01
      -8.4811957007512248e-02 5.4932669304276283e-01
      -8.3810187929756225e-02 1.2735393367605952e-01
      2.1837277336976393e-01 -2.5313760837310922e-01
      -2.5903838196811446e-01 -2.0031732068415634e-01
      3.0833135057754313e-01 4.8451864392067856e-01
      5.0655304511797383e-01 6.5426682457429039e-02
      -1.2076964355947764e+00 4.2599561689799836e-02
      5.5445627841488251e-02 1.3255458121673724e-01
      -1.6006460923003202e-01 -2.2694470981140860e-01
      1.4859954060034497e-01 5.8876744831413946e-02
      3.0213113151212356e-01 5.8447342357086829e-01
      -1.0425279418957964e-01 1.5395391029072222e-01
      3.5791253364038778e-01 -8.0838619428059533e-02
      -4.1019407347736729e-02 1.2834814642788211e-02
      -1.0430031311927575e-01 3.4743166522783209e-01
      1.5166986909714048e-02 3.6758017426105821e-02
      1.8154721165278948e-01 6.2827817301348376e-01
      2.0417207243794775e+00 7.0956748742721731e-01
      1.7313620427240028e-01 1.1011874077246455e+00
      2.3239914400265743e-01 -3.5189227541770965e-02
      9.4108842102771173e-01 6.9445298019506452e-01
      6.1892475744953113e-01 7.7482028483051291e-01
      3.6190288437499413e-01 3.1460701280181427e-02
      7.1486127167804581e-01 1.7127591661362946e+00
      1.5993479121981748e+00 4.7817309795791946e-01
      2.2757448216234977e-01 5.3103809286339310e-01
      -2.3884990406583764e-01 7.0238450093020288e-01
      7.9940621023569025e-01 -1.1540766425860888e-01
      6.4958630476692292e-01 3.1580965748610712e-01
      -9.4448685914829245e-01 -1.3163938715113177e-02
      2.0642552730392677e-01 5.3634773977716077e-01
      4.2670649590240117e-01 4.2054000180923079e-01
      3.9626742221273553e-01 4.1027179616916359e-01
      3.6151942038288443e-01 6.0841541350948580e-01
      6.9281347782450020e-01 5.8154196865299812e-01
      -3.6211753329987972e-01 1.3459895502185545e-01
      9.6931461921326234e-02 1.1834819697780524e-01
      -2.3812259613879869e-01 -6.6477787412447711e-02
      -1.1343051547920535e-01 -1.5923966849535201e-01
      8.0991838826828755e-02 9.4597389735794346e-02
      4.0632630586545503e-02 4.8590787589322088e-02
      -1.1504917395313730e-01 1.3112619143511303e-01
      1.9586457030360541e-01 1.9460117488698880e-01
      -4.2767509015929250e-01 -1.9047425175346330e-01
      -2.5004800662743221e-01 -1.7375766653892098e-02
      -3.8480289338823803e-01 -1.1915091206958199e-01
      -1.3372455098082661e-01 -5.1334736808798176e-01
      1.1733839317815245e-01 3.1770050788310567e-01
      -8.2287839701483331e-02 -2.1133310520744142e-01
      -7.4669728790787718e-02 3.9153845979209928e-02
      2.7643516526168976e-02 -9.9946767956529819e-02
      1.4371766061698854e-01 -4.5070829237791599e-02
      -7.5022701281524190e-02 1.0356478882675636e-01
      -9.1650268709356511e-02 1.6159971164080766e-01
      2.0171047350496399e-01 -3.1234487808642331e-01
      3.7183378380504456e-01 4.7625628130787062e-01
      4.8221503458573600e-03 1.7576392902575147e-01
      1.3020930783899112e-01 4.4294791878123976e-02
      1.5307714212659201e-01 -2.3480647706900926e-01
      -1.0713209477340978e-01 1.4229043109765839e-02
      2.8087996517660463e-01 -8.9199930436618211e-02
      1.6079494925249779e-01 1.2717500495284512e-01
      2.5918242081913678e-01 -7.2527956967172763e-02
      2.1276199146498315e-01 2.0403591852626451e-01
      -9.2616715869592525e-02 1.5933400937469924e-01
      -2.9542656128973788e-01 1.1292975347893159e-02
      7.0153001513091701e-02 2.2027661900515881e-02
      2.4801703955301502e-01 -5.6551592112666450e-02
      3.8383093243468658e-01 -2.1966400216405693e-01
      1.2908535154317746e-01 3.2082306494842200e-01
      -3.6018946100343195e-03 4.3440478746599679e-03
      -1.8273752710693685e-02 -1.3008198186538084e-01
      1.0532979100447259e-02 -1.0872270449239545e-02
      -5.6404667196009999e-02 -3.8011791536341871e-01
      3.1546347637954508e-01 -2.0569203807353723e-01
      -6.2481009261767850e-01 -6.7242749972963478e-02
      -1.4542361396610842e-01 2.5628022241719295e-01
      3.3881125599477735e-03 -4.2824726365341043e-02
      -3.8105945399179270e-01 8.8739596376597007e-02
      -4.9512330818260464e-01 -1.0731269171435315e-01
      -1.8382988164243663e-01 -2.1473595875077439e-01
      -7.3148538324794357e-02 -3.2899230133028118e-02
      -8.7929055617487806e-01 6.2134409650090416e-01
      4.2272144757960306e-01 -1.8392776103768874e-01
      -1.9637121364167429e-01 7.6608571422244212e-02
      -2.7282140054923833e-02 1.5471394294689134e-01
      8.1608980607416531e-02 -3.1404810939669722e-02
      5.6946651620498029e-02 9.7764954495670076e-02
      -7.5506640502635713e-01 3.0573431406476193e-01
      2.1296558784484812e-01 2.6903077572273215e-01
      6.6907317588049287e-01 -1.3466088777631022e-01
      1.1313924086094776e-01 -4.3741637901431284e-02
      3.4309223037903808e-01 4.8530991811080143e-01
      3.2085714200756865e-01 3.7403151922755462e-01
      4.4323064742036028e-01 2.7134716086717092e-01
      9.9717560216024848e-02 -3.7725599146034750e-01
      1.2587702583054741e+00 -1.5129289839521537e-01
      2.9681219128172198e-01 1.8316529079081809e-01
      -2.6804118258774651e-01 5.5961404033411766e-01
      3.4474845562763623e-01 -2.9408465033191844e-01
      3.1565407798743644e-01 7.0293223805826499e-01
      4.4104468618726866e-01 5.6392742290784559e-01
      9.6079271156783497e-02 1.9675573199749302e-01
      4.4938687957357154e-01 6.7761240125445071e-02
      7.8411016099344177e-01 5.2601200828956418e-01
      4.4374726091785549e-01 1.2887694432326149e-01
      3.9300222744514013e-01 4.2075299379514397e-01
      5.3536658985573748e-01 1.5916097152332083e+00
      1.9192220615728861e+00 1.6992054414704498e+00
      1.3300356521754950e+00 1.3579293704416933e+00
      1.4301972700850367e+00 1.4269848151453877e+00
      1.6970605173881521e+00 1.3377457653359537e+00
      1.3764650914907459e+00 3.2468892383522245e+00
      2.6378785826169043e-01 1.9520707383642623e-02
      1.4321392019087256e+00 1.9096712329748895e+00
      1.3010602712972261e+00 4.6318361728871849e-01
      -2.3904627663604541e-01 8.0171949425777755e-01
      5.5691346497564786e-01 3.1288475882892880e-01
      2.0714371142295236e+00 1.9120705529898261e+00
      3.4106005576750413e+00 1.3855688055055186e+00
      1.4909103424485761e+00 1.0043934546821016e+00
      1.2271671982394696e+00 1.0210279291734330e+00
      2.6914107594634644e+00 1.3221078631146912e+00
      1.1332725337694920e+00 1.8418744899133130e+00
      1.9875064910451288e+00 1.2769695542561506e+00
      7.0291275794204811e-01 -2.8262928943566246e-02
      1.3387421291404356e+00 -2.1120348568932706e-01
      7.6154495218939622e-01 5.0463069649857861e-01
      -1.6754362309948828e-01 -3.1862822689812959e-01
      7.9419873601562507e-01 6.7924064840002474e-01
      5.9817083714721675e-01 8.6639791621827306e-02
      2.7272973736551714e-01 3.0724813728170641e-01
      1.6215990571189447e+00 8.8126701555542836e-02
      5.5980679191901006e-01 4.6927342744369793e-01
      -5.0479044409169982e-01 4.6549515569866107e-01
      1.0218950124682719e-01 -2.1072317973391563e-01
      3.8724361922122491e-01 1.1428604275678311e+00
      4.2930115145185251e-02 7.6459139805661736e-01
      1.3231306227501118e+00 9.1621201318313894e-01
      1.1527583022965837e+00 -3.2444277254838094e-01
      9.8008468133399274e-01 3.3440009106295798e-01
      5.2003102467017870e-01 -3.8256792236002723e-01
      6.9119133291547696e-01 1.5806983635065500e-01
      -5.6673008219557297e-01 8.4296503927213862e-01
      -7.8971174593186433e-01 -3.4690638482288072e-01
      3.6180624678742773e-01 -5.8840482214321399e-01
      -2.1687041458295003e-01 -1.7140363408358755e-01
      -5.6004303287090207e-01 5.3042791653298990e-02
      2.3637426676769521e-01 -4.3126447913858085e-01
      -1.2172267539897774e+00 -1.7882814110190026e+00
      6.5241592196476017e-01 -6.6493723674085714e-01
      -3.2773056521708099e-01 -5.8874678711883133e-01
      1.0292586548601715e-01 -5.3777946725476233e-01
      -1.9973333433005244e-01 -2.1946613936347892e-01
      -8.7962826148112017e-02 -8.3693639072018122e-01
      9.2261863522399234e-01 -3.3065478941252134e-02
      1.9099881004682015e-01 3.3471784640851576e-01
      7.2047684241060828e-01 -1.4045031641963587e-01
      1.9201811841060873e-01 -3.9654396153004012e-01
      -5.4726073097979266e-01 -9.8800089934392848e-02
      -1.8641425480939067e-01 2.6887776087897647e-01
      4.6240764670451479e-01 -5.5657112905135042e-01
      8.0470070110864739e-02 -1.8533913494375653e-01
      -4.5674754379998123e-01 8.8789025890864892e-01
      -2.0148204830842581e-01 1.7578198356319980e-01
      9.2165371136409169e-01 1.9667707903852744e-01
      1.6180525335068033e-01 -9.2391389976398630e-01
      3.4898078227774348e-01 1.7939768409086783e+00
      9.9185122797417447e-01 1.2748450964990965e-01
      9.4357457788263799e-01 2.1114075743900571e-01
      6.0996353029160089e-01 1.0290095130727976e+00
      7.9468317157806501e-01 -5.6075770255789903e-01
      2.2866895409100613e-01 -1.2985639782935821e-01
      6.6537740363638825e-02 4.1986987011549848e-01
      7.8492163915241636e-02 -2.6962320999064332e-01
      -1.7448146291057870e-01 -7.9307984590503838e-02
      4.9346841111457274e-01 1.6468748522560109e-01
      -4.8320334332061565e-02 2.5229171874439826e-01
      1.7948416605686213e-01 -2.8238372556558378e-01
      -1.0853421058912467e+00 -9.9851429737425046e-01
      -1.7064853995402325e+00 -8.1088003396902131e-01
      -1.7635827967543987e+00 -1.6689239713913218e+00
      -1.2522582350194786e+00 -7.8418370119989578e-01
      -2.1453183303909529e+00 -1.5414815795636863e+00
      -1.2807395116246705e+00 -1.9011198420597812e+00
      1.5866522185151705e-01 3.3866664006028814e-02
      -3.2434935059484480e+00 -7.5281577027620039e-01
      -1.5876533834691882e+00 -1.0922493055737442e-01
      9.1260385039450465e-01 -7.9744829188617705e-01
      -1.1696826850502076e+00 -7.5965465971821755e-01
      -1.5620936758680726e+00 -1.5091006408484025e+00
      -2.7288570936298595e+00 -1.3892405921883260e+00
      -2.1057958591167156e+00 -2.1097867190039556e+00
      -2.5023360194787037e+00 -5.7182906751582785e-01
      -3.4530963662088507e+00 -1.9860762123701594e+00
      -8.3028012142163565e-01 -7.5633334591135148e-01
      -2.6113890977376903e+00 -1.9411076467276291e+00
      -1.8166804185383547e+00 -1.4814657523719106e+00
      -1.9136970696044515e+00 -2.1323365775567460e+00
      -1.8426844915691698e+00 -1.2125470902878404e+00
      -2.0134700865508459e+00 -1.9530355481512764e+00
      -2.0945381188379515e+00 -1.3703619183635964e+00
      -1.9898451896913818e+00 -1.4256425889815858e+00
      -1.8106439712593387e+00 -2.1037728835194192e+00
      -3.4081953330134342e+00 -1.1404074833273610e+00
      -1.7408502916856141e+00 -8.1051060077254511e-01
      1.8981832204937948e-01 -1.9237689198076966e+00
      -1.9582346350975059e+00 -2.0657642403550197e-01
      -2.3496639034748110e+00 -1.6980192734884054e+00
      -5.4888109839413002e-01 -1.7726209759033298e+00
      -2.1766998519162031e+00 -1.3481101813877538e+00
      -1.9630701958300982e+00 -1.1032026880328316e+00
      -2.2052955513642249e+00 -1.8458289114387716e+00
      -1.7318058236304794e+00 -2.0425125754406417e+00
      -2.8053813016900988e+00 -1.0783548461928896e+00
      9.5129913196556104e-01 9.2572931961789384e-01
      8.0207138247170262e-01 1.0458467401333580e+00
      1.0255801376457172e+00 1.1098307396585494e+00
      9.1621053391030960e-01 9.6226940627754498e-01
      1.0801680928596040e+00 9.4994720966777657e-01
      1.0600716526350993e+00 1.0244391594463969e+00
      1.2911167554832699e+00 1.4897566242969817e+00
      1.3092832536612564e+00 4.6056582499042531e-01
      1.2252417050082389e+00 3.4979307104679325e-01
      -1.8438320218468768e-01 8.4064208539532637e-01
      1.0289733744241019e+00 1.0921328835515449e-01
      1.0501094668275259e+00 1.4001736388265249e+00
      -1.3269475353768203e+00 1.2124364445212641e+00
      1.5054516606273463e+00 7.0011741108086301e-01
      1.0497648210240433e-01 2.4727187691782634e-01
      9.1871056873869261e-01 9.6843257100753910e-01
      1.2272006762472860e+00 2.6365853021446733e-01
      1.1815442003641921e+00 1.0658917703628688e+00
      6.4218994097448426e-02 -1.6167820124405222e-01
      -3.8970970110222269e-02 1.5104588816194885e-03
      -2.2266403877953495e-01 -1.2218947437105711e-01
      -7.0347483508149400e-02 -3.9413373575724622e-02
      -2.4135160237409853e-01 -5.3586526528214502e-02
      -3.8209678342596372e-02 1.1913676063065083e-01
      -7.2560038923115883e-02 -8.8041534433689631e-02
      1.4563840767890543e-01 1.6246970269833824e-01
      -3.4152264892299572e-01 1.8917356656674897e-01
      2.5669817158952357e-01 -1.3597462925968673e-01
      -1.0377020163018193e-01 3.0510432905305043e-02
      -1.9443279523852698e-02 1.4045078081135226e-01
      -8.1630031711181994e-02 -5.2068335008671501e-02
      -2.9814399932012188e-02 -2.5397856851072050e-02
      -9.4842747773088931e-02 -9.5270334972063803e-02
      -2.5475680582578847e-01 -6.3768754283198240e-02
      4.7183258511461268e-02 9.0724021912589978e-02
      -6.9618750897823226e-02 -8.2895900914767090e-02
      3.3430418285796787e-01 -1.8727868057363536e-01
      1.0425777403596828e-01 -1.8913235181634741e-01
      1.1190711855069239e-01 2.8772612586375185e-01
      1.1377542478553698e-02 2.2826437234529431e-01
      5.5076790680904608e-01 1.2745748127474438e-01
      -1.1271354990285222e-01 -1.2042635290286875e-01
      -1.6487611771354892e-02 2.9945675128856697e-01
      6.0113535445608945e-01 -4.4922136220379001e-02
      4.3346251810019491e-02 -2.5247126059113034e-01
      2.4575342217004170e-01 2.1161988769941326e-01
      2.2383104205640392e-01 -1.9740618640838273e-01
      1.6900878878667699e-01 -9.9492409016990982e-02
      -2.0572458708567556e-01 1.2744266019833650e-01
      3.0665133808885592e-01 -1.0106627542542454e-01
      2.1546742040256719e-01 1.8587492917296530e-01
      4.6091655533250064e-01 1.9630656093770663e-01
      -9.3399692913594054e-02 1.7187446276721902e-01
      9.3404734195878192e-02 9.4816361520899908e-02
      -1.5806877401858166e+00 -1.6763250171699454e-01
      -1.3179654555132247e+00 -9.8958688286043872e-01
      -4.7602258053895324e-01 -3.7212729687579893e-01
      -9.9082253423598976e-01 -6.0765380227461996e-01
      -5.1187421197783223e-01 -1.3169098825225010e+00
      -1.9250825066063559e-01 -7.5879947566476535e-01
      -7.6938527442827354e-01 -1.3416642715394711e+00
      -7.7369479297794796e-01 -8.8487075438899088e-01
      -5.8671771950574581e-01 -2.4255142438443653e-01
      -5.2119940108597662e-02 -7.3217708318536923e-01
      -2.6058980274425519e-01 -8.7742049308483241e-02
      -5.6176308429007504e-01 -1.6565021381859115e+00
      8.8668010419591547e-01 -3.6157868826211265e-01
      -1.0417977809425978e+00 -6.0122636782672445e-01
      -3.7821059832467369e-01 -6.0839440409147838e-01
      -6.3110009541324708e-01 -5.2783055504551069e-01
      -4.6384887951563758e-01 -9.0607246489642224e-01
      -5.2988655333815271e-01 -7.5743305465501953e-01
      -5.4312385236614003e-01 -6.9591346311179214e-01
      -1.8670169734325908e+00 -3.1639753821119931e-01
      -1.1802536698108050e+00 -6.0691118460995908e-01
      -1.5073805579375978e+00 -8.8278080056909380e-01
      -8.3677896060970203e-01 -1.5468680417972862e+00
      -1.5343476144306110e+00 -2.4693727447652360e+00
      -1.5993455329794601e+00 -4.6138664702973252e-02
      1.2568570553795715e-02 -9.0901909576250028e-01
      -5.0885216288384938e-01 -1.7086082109107896e+00
      1.0787044961667975e+00 -2.5206408670070984e-01
      -7.7903444129631050e-01 -1.3113718194603639e+00
      -1.4279197149953804e+00 -1.3816087208008032e+00
      -1.4873081932485281e+00 -6.4910031772672322e-02
      -1.2470106884620660e+00 -1.7674612536976411e+00
      -1.2998557709079706e+00 -5.2867640991798770e-01
      -4.0702343851623879e-01 -6.1248589972344547e-01
      -1.0908078345330832e+00 -1.2779046802528991e+00
      -8.4057044717786722e-01 -7.8096861823255592e-01
      1.2900877533774127e+00 -2.2378088424515685e-01
      9.2015364851425849e-02 4.9188251837619412e-01
      2.9631807963543177e-01 -4.7421304783878176e-01
      4.1543424268639811e-01 -4.7588881181612608e-01
      -4.1926230023755340e-01 -1.0074288591406728e+00
      -3.0202751830269958e-01 -7.6036891896391656e-01
      5.9514721121992276e-01 4.5491803838359363e-01
      1.0654591097611927e+00 2.6433708193697181e-01
      -1.0664714287300152e-01 -6.8676390459883840e-01
      4.3675325951024663e-01 8.5373804142751669e-02
      1.2737719092001518e-01 -9.5794635530955818e-01
      -1.2814324894576409e-01 9.2403309213478224e-02
      -1.2700320339640059e+00 3.6624530417951712e-01
      5.3241644632334773e-01 -2.2742042402834711e-01
      -1.2017966425756019e-02 1.5302715196259659e-01
      3.7003542514288179e-01 8.3197458657954498e-02
      1.6208876355533941e-01 1.2728356575247249e-01
      1.1472385794086017e-01 -1.8596463995921281e-01
      -9.8319653749842650e-01 -8.7722668848308472e-01
      5.1051677979396880e-02 2.6461192309495912e-01
      -5.7585054711934103e-01 -5.4904287811635488e-01
      -2.1191424147718987e-01 -6.4261121330476323e-01
      -7.1352873885804802e-01 7.1056530601799761e-01
      -2.3843937136463225e-02 9.7512254479844263e-01
      7.6373562956219920e-01 -1.2739068074887558e+00
      -2.5381931985884099e+00 -9.9321276608861919e-02
      -1.2850508783993935e+00 5.8327116739525209e-01
      2.8127567442387669e-01 -1.2608723903733352e+00
      -1.2311932368305143e+00 8.0256573230843553e-01
      -2.9235527296530613e-02 7.8163436170976397e-01
      1.8084439353953327e-01 -3.3035985014146041e-01
      -1.7782613273690787e-01 -3.3987530897397283e-01
      -1.0899720953756649e+00 -6.7052402668621136e-01
      -1.9183100494792906e+00 -8.3997006122430606e-01
      -1.2208078003358502e+00 -1.1505305756028679e+00
      -1.2731618689940144e-01 3.4361686313332029e-01
      2.9611094734357981e+00 2.1249057983075899e+00
      2.6557048336987013e+00 1.0330944968928677e+00
      1.5948478410534963e+00 2.2042081142251226e+00
      2.2163233548575536e+00 2.7540630340321912e+00
      3.1504469519541645e+00 2.7511998660875889e+00
      2.1327871097980093e+00 2.5703735977903488e+00
      1.1347573840688763e+00 2.1193032374498491e+00
      2.7540046522586779e+00 2.1588287588263846e+00
      2.6290464017932038e+00 1.8549263665326410e+00
      -1.6676237022425946e+00 2.0685959589947212e+00
      2.3783103018386904e+00 1.2729094579057072e+00
      2.4012370160048579e+00 2.4928979517264933e+00
      2.0466098754578503e+00 1.0899741499440967e+00
      1.7763699539246256e+00 2.6893403195706780e+00
      2.5171649332521304e+00 2.6442094300972889e+00
      1.9372054613814969e+00 1.9244873180849702e+00
      2.4852460638708629e+00 2.9416414939556015e+00
      1.9892258704977959e+00 2.0381109060718861e+00
      -2.4687441138670610e-01 2.3170266871656259e-01
      2.3410318272414177e-01 2.1449714514186785e-01
      3.6855653217349144e-01 5.5523899576976399e-01
      9.0190359294740480e-02 5.7286194496760323e-01
      1.1172184434153765e+00 3.0644339231370032e-01
      5.0437122054150152e-01 1.6212056786397763e-01
      7.1905267842735765e-01 4.0069008545805934e-01
      1.2899687462998359e+00 1.0106065824211548e-01
      5.5857100059842868e-01 2.0933968720327642e-02
      -1.3813627259316894e-01 5.9881184473868365e-01
      3.8116636425599643e-01 -2.2622954462062178e-01
      6.7797887780406452e-01 3.4817691426124914e-01
      -1.5353785373423703e-01 4.4516717158931041e-01
      3.8226356836573072e-01 -1.4300323559267356e-01
      5.9744675939369984e-01 2.5292320999440643e-01
      8.8988522181747254e-01 2.8853310705335011e-01
      2.9136415856793657e-01 6.0974707961427199e-01
      5.5928748613413293e-01 1.6792943084592334e-02
      -8.1545157802411825e-02 -6.2249025143933889e-01
      -7.5098926978502248e-02 -1.8902045330739695e-01
      -1.5089955279885853e-01 -2.2816364022261108e-02
      6.4230218698855951e-02 4.0423495075649224e-01
      3.0152495438441790e-01 -6.0462398478826635e-03
      -6.7155782481269494e-02 3.0723379491806091e-01
      2.1816090957016843e-01 -1.6324688256116618e-02
      2.3508816970194310e-01 -8.5132530384381525e-02
      2.1900764189344951e-01 2.4243728059139655e-01
      2.7660697857900727e-03 6.7159044841645166e-04
      -1.5084986477568349e-01 -1.0064485213777459e-02
      -9.3007108081487128e-02 -6.7129902676158842e-02
      -3.0712695201494178e-01 -1.7913221575755142e-01
      -3.1889520001188082e-02 6.6191378114473703e-02
      -4.2640487553574069e-01 2.3657079514991353e-02
      -8.5417053785277197e-02 -3.4685729372248131e-01
      7.5307024208282322e-02 1.4497615045568241e-01
      -2.2206426078273966e-01 -2.1193835673588413e-01
      -9.3330973541833240e-01 -1.2793345986777287e+00
      -3.9794390976922556e-01 -1.2054650137511231e+00
      -9.3431836119848632e-01 -9.8298677041214533e-01
      -1.3159576671775461e+00 -1.3205594641609095e+00
      -1.3990431185847747e+00 -1.6711219146822260e+00
      -1.3818112072511006e+00 -1.5360952519123539e+00
      -8.0298765541834571e-01 -7.8361444329975971e-01
      -1.4642900902001859e+00 -9.8219876842793263e-01
      -3.3746210333547855e-01 -2.0682297207287548e-01
      1.5701872500432339e+00 -6.6664192887370255e-01
      -1.1394021169907220e+00 -7.1246236045405187e-01
      -9.5639679288853574e-01 -1.7304988640677599e+00
      -5.7117776853512636e-01 -7.1693222922374444e-01
      -1.0246141593074818e+00 -9.9104900638652405e-01
      -3.3523065326982249e-01 -1.0158249896070497e+00
      -1.6080586566480126e+00 -1.3048101220022916e+00
      -9.4584348779373195e-01 -6.0320522897251705e-01
      -4.3389590310718190e-01 -1.8872025919545801e+00
      4.5112574712953141e-01 4.8659717152497334e-01
      -3.5116442916450480e-01 -2.7885449703853427e-01
      1.7383713870390016e-01 6.4188300920271868e-01
      1.3408518816954221e-01 4.5749293766367632e-01
      8.6904868150258441e-01 -1.3534858411142028e-01
      1.9237915856862647e-01 3.8611049246496615e-01
      -6.8006917761142360e-01 1.5107417811847185e-01
      9.0684616069257029e-01 -1.2331237674664611e-01
      4.9968072541359998e-01 -5.4636467704120084e-01
      -1.6005348832115095e-02 7.4302902689697865e-03
      6.1543820355625267e-01 2.4726499512030850e-01
      9.2332739551569579e-02 2.3233863856968051e-01
      -1.9282997878427083e-01 3.4774811568335312e-01
      1.1952122115778721e-01 1.1622063313503689e-01
      4.8204839034654590e-01 -2.4041748714872158e-01
      1.3548727460275106e-01 7.4185283380523803e-01
      3.2550382141153184e-01 -2.8222314145845240e-01
      7.1685306938897020e-01 8.1722848743222354e-01
      -1.1449874982196264e+00 4.1659595071223759e-01
      2.0395232383023873e-01 -6.4228117776665983e-01
      -3.6775038430988582e-01 -6.4657317365894662e-01
      3.3976322311276824e-01 -1.0993426168472741e-01
      -2.9082380145165460e-01 -2.3918581388308596e-01
      -3.9264492397973239e-01 -1.8709832867461604e-01
      -7.9851322345852105e-01 -1.1296230430544751e-01
      -4.9560142657614104e-02 -4.9614455715022948e-01
      -6.4640747473830429e-01 -5.8673145334797561e-01
      5.5279838654620950e-01 -7.2609158605786794e-01
      -2.4182100908221457e-01 -2.4360926212878947e-01
      -2.0489657109811460e-01 -7.4909659981775845e-01
      -3.6287374783925957e-01 -4.1584675305698970e-01
      -9.1118059004261176e-02 -2.5541103576197183e-01
      -3.2370839949791973e-02 -6.3343341030986122e-01
      1.9535489744569548e-01 -3.7125985448731907e-01
      -2.3713968204084845e-01 -4.3461357312836163e-01
      7.0996095984720786e-02 -4.0879594895817611e-01
      -7.7908318876391713e-02 1.9937803101485607e-01
      -9.8919916433553870e-02 -3.2047732393492950e-01
      -2.9066828016881585e-01 -3.6853643533162317e-01
      6.1387017402799622e-02 -2.6550172747792766e-02
      2.8511264872211733e-01 5.5717679152390259e-02
      -5.6169328987699252e-01 -5.9407498535547176e-01
      -3.7787652946173983e-01 -2.1019955384002778e-01
      4.4507308406050788e-01 6.1671095810362092e-02
      -5.4652616245936050e-02 -6.9459339624260275e-01
      1.0683962364759088e-01 -2.8364823849672433e-01
      2.4282827374790211e-01 -2.1183670190362389e-01
      -1.4707775014135746e-01 9.5638035945264498e-03
      -1.8101807877082887e-01 -2.3387157105108750e-01
      9.8860589193144943e-02 -2.3867975212673864e-01
      -2.4710012890784355e-01 -7.8310969909848732e-02
      4.6232736870987348e-02 -1.3172346677875901e-01
      -1.3949523209569337e-01 7.5410438484604908e-02
      2.5524762297175901e-01 -2.2202597407097033e-01
      2.4110354219255381e-01 5.4639353612091979e-01
      -3.3643729158859553e-01 3.0214283148056376e-01
      6.3472860857061109e-01 1.1317695051544155e-01
      7.6177436989188427e-02 4.9382992672191356e-01
      7.7807434833928701e-01 7.8629374545327824e-01
      4.8100271494591634e-01 5.2537187565906140e-01
      1.4737760357267282e-01 -4.3765300022743470e-01
      5.7903009051814580e-01 5.8745885317009847e-02
      -1.1448974194542830e-02 -3.5831705515011275e-01
      -6.9603704512791620e-01 -1.2010483326170233e-01
      5.5957008724364232e-01 3.7717791033426346e-01
      3.5717743530531715e-01 5.6208466002770530e-01
      5.8619392169430462e-01 1.5891012232639240e-01
      4.4214662999397353e-01 4.9075402562220855e-01
      5.5741892946200733e-01 9.6765533708524837e-02
      5.6766531106748586e-01 7.4756147357069136e-01
      3.3929722724212774e-01 6.1587628480709367e-02
      4.3939586932990343e-01 1.4789238152070410e+00
      -9.9433954449242945e-01 -1.6768158130793770e-01
      -1.6777111422046109e+00 -1.3244256337369351e-01
      -8.6138710866823076e-01 -8.0842762014127878e-01
      -7.4485888518501420e-01 -1.2973547651156099e+00
      -8.2826551234949275e-01 -9.4908839927854960e-01
      -9.9050586295849197e-01 -1.2506018183645221e-01
      3.8466352847531117e-02 -5.6694234997964676e-01
      -6.9173902181130498e-01 -5.2352616256479678e-01
      -7.4958523408481592e-01 -1.1795670021207283e+00
      1.3073736675750363e-02 -1.3276773553782493e+00
      -7.5645977010230836e-01 8.4500322799483316e-02
      -1.0133202032283979e+00 -3.5323578222032892e-01
      -1.7983048287508876e+00 -6.9744098987660608e-01
      -4.4541961374127742e-01 -1.4290617332241360e+00
      -1.7516197094471850e+00 -2.2491816412087060e-01
      -1.2934854847677504e+00 -4.6319087338524184e-01
      -3.1861443051760874e-01 -1.1025332781623272e+00
      -1.1933613999948156e+00 -5.4556696048858822e-01
      6.9049891308075673e-01 9.8919508731463057e-01
      2.2961603263055541e-01 6.8472503511568117e-01
      5.3803794844990727e-01 2.2053572856998999e-01
      4.4245702634452688e-01 8.0095407460239509e-01
      1.5117450801223140e+00 1.3256110634355622e+00
      6.2011448905116084e-01 3.7165713461911527e-03
      6.4186809366274000e-01 8.6527318317582791e-01
      1.3297500188386027e+00 2.9306932633133209e-01
      -1.1653813815081496e-01 5.2598435339565146e-02
      -5.2206357621618416e-01 -1.2045794602517504e-01
      7.4041970197723728e-01 1.8356452440287138e-01
      5.2804999144544329e-01 4.1052521639168232e-01
      -9.5080766647006654e-02 3.9017240598160152e-01
      4.5008098270907204e-01 4.8997608590745201e-01
      2.5814633370509937e-01 4.5835135215048556e-01
      1.0264165775241327e+00 6.0612926577005755e-01
      7.7840117545286480e-01 4.1201296380350261e-01
      6.3132468066502956e-01 2.7776618838466821e-01
      2.4245907702764341e-03 2.3446572021793799e-01
      -4.7323857362113164e-01 2.4639934719150344e-01
      3.5725631571487648e-01 3.7531190898714886e-02
      -1.7738209107335964e-01 -3.3722620556137728e-01
      3.5282294980329677e-02 2.4524406402396148e-01
      -2.4951090375435178e-01 3.4705886063796876e-01
      4.6132614415088130e-01 2.2521907628818669e-01
      -1.2842244422287286e-01 5.3391978364712642e-02
      3.8020003489883619e-01 -3.7026071576861119e-01
      -9.3747597127299451e-02 -2.2835974857196081e-01
      2.3380404826338640e-02 9.3455876101620206e-03
      1.0110783619434387e-01 -2.5047483829759398e-01
      -7.5531739765956096e-01 -2.7142800285616814e-01
      1.7597175451309630e-01 -3.2585921846540417e-01
      -4.8495267721129454e-01 5.2913825165116135e-01
      -2.2312947407165890e-01 -1.7136293350288848e-01
      -2.0415597128436078e-01 1.2531632524611813e-01
      -2.0219236271280008e-01 -2.1217414454059014e-01
      5.8593369353774283e-01 -6.1504209426976014e-02
      1.8475512079789359e-02 3.1943628765693344e-01
      7.1160861643194950e-01 2.3693714267666222e-01
      3.4820773800686772e-01 4.0904028984661550e-01
      1.7842368751542279e-01 9.0932924803976445e-01
      4.7927298771747306e-01 4.0320057521615338e-01
      6.7883050365561426e-01 -6.1636291117292186e-01
      1.0546258961720791e+00 3.9999011599275602e-01
      -1.4022755815803364e-01 6.9203875110222079e-02
      1.0683959263630802e-01 4.9825683476291038e-01
      7.7269052032917118e-01 -3.9995671679752370e-01
      4.6803120341440951e-01 8.8299881839707406e-01
      5.3253732504469720e-01 9.9812222770683634e-02
      4.8880235146066003e-01 6.0444004653463290e-01
      5.5379820252366996e-01 -2.3323200262150487e-01
      1.0023432650996460e+00 6.0105314782742736e-01
      5.4429654919164350e-01 1.7432990763956427e-03
      5.0250763935589382e-01 1.0027028843450005e+00
      2.4758866442649428e-02 -1.0518725012574111e+00
      -9.3179239513032475e-01 -1.2704130247128753e-01
      -8.3846416570148630e-01 -4.6276814499705554e-01
      -5.1524362383148814e-01 -1.1815357528506492e+00
      -1.4098899384595525e+00 -1.3360873437929239e+00
      -4.6868351297580718e-01 -4.0337015671912441e-01
      -6.2137849290844749e-01 -7.3896622315851168e-01
      -1.3823671794092283e+00 -5.5581902276312534e-01
      -4.2854886754050536e-01 -6.6902599559371501e-01
      5.1854190133227029e-01 -5.9002137176704694e-01
      -1.1831149469734208e+00 -2.9501897589793991e-01
      -6.9782148426879731e-01 -4.8239759224751916e-01
      -1.0103106563506969e+00 1.7031211025592558e-01
      -6.1317049282949621e-01 -1.4522172503903474e+00
      -5.7811484546829883e-01 -5.1237785500731825e-01
      -8.3316340923603771e-01 -7.0839851772915852e-02
      -7.7860787116266394e-01 -9.4321808997267031e-01
      -3.8032427420450537e-01 -4.3237665199266473e-01
      -6.1621874191301433e-02 -8.1992848711242994e-01
      -5.8349396566490452e-01 7.0178862426388477e-01
      -7.4864225149711994e-01 -3.0233182168457790e-02
      -4.0181732637835665e-01 -4.9698820910144276e-01
      -1.0341003443101493e+00 -7.1998678842736952e-01
      -1.8158155006208568e-01 -4.7458612263157542e-02
      -7.1173910217622330e-02 -7.2913088098259082e-01
      -7.4048333950175305e-01 6.8810528235162982e-02
      -4.8332280493677543e-01 -7.0917177637035200e-01
      9.5255938856386502e-01 -7.2885326378539020e-02
      -3.8463073215817112e-01 -2.3349425380564873e-01
      -4.8488224702080474e-01 4.0732839280220423e-02
      1.4488632474314617e-01 -2.0662218621314932e-01
      -2.7290048004402367e-01 -2.5686518077381160e-01
      -1.0356465999765274e+00 -9.0158772776872176e-01
      2.1644061403759579e-01 -3.4612489625424803e-01
      -3.5849868181110195e-01 -5.6028476446276909e-01
      1.8483977561949000e-01 -4.2242766408455701e-02
      4.1432265093159171e-02 -4.1181280733906322e-01
      6.7378324270417222e-01 -1.8694641682265623e-01
      -2.9679551437728696e-01 1.0243048486280952e-01
      -7.5981545415331619e-01 -5.1754037729586554e-02
      -2.7440591374377998e-01 -1.3222598157748601e-02
      9.4295893546580078e-02 5.6715544264404727e-01
      1.2588297914523422e-01 -4.1565870577078262e-01
      -5.9766031252703422e-01 -2.1804203336112385e-01
      4.4733058734367748e-01 5.1447068431205611e-01
      4.1632508150142222e-01 -1.8121728931969114e-01
      -5.3304962966102998e-01 8.6055383663113980e-02
      1.0372144666814587e-01 -3.4488836727602218e-01
      -2.7133137378175312e-02 7.4996043900626350e-02
      -4.0393875301229488e-02 -2.9104919067667390e-01
      -2.8190048943141582e-01 -2.1365900778397329e-02
      -4.0686466511233232e-01 -1.8536192855854577e-01
      -1.1177053666695580e-01 2.3877095751986020e-02
      1.1803923242758742e-01 -1.1774565815547076e+00
      3.8545476778808818e-02 -3.2553896850647851e-01
      -4.8169223990482146e-01 -8.3613597510642554e-02
      -3.5328612317165126e-01 -9.1713691635138817e-02
      2.4623620107272884e-02 -1.9021581805794222e-02
      -1.4872612743571378e-01 1.2941468490657451e-01
      3.0685817508989172e-01 -2.4732390368226201e-01
      2.4255118319415325e-01 3.7174752792639806e-02
      -2.5318568979866032e-02 7.5225460186907886e-02
      -8.8756018911065104e-02 2.3021612438442149e-01
      4.9533444551234806e-01 5.4929044749954048e-01
      2.6697906166144991e-01 2.3316173414467262e-01
      7.0009480933319462e-02 -1.5909852750936515e-01
      7.9182276722516254e-01 -1.1623831036482628e-01
      6.6102177435764103e-02 4.5845326901335198e-01
      2.4442810305680426e-01 1.0855937937387558e-01
      -1.4842771048939946e-01 1.4417528012590519e-01
      -2.1810844871426199e-01 1.3467660419328129e-01
      1.1345613114499911e-01 3.6623133697779814e-01
      7.1350678930953881e-01 2.6271252616074769e-01
      8.1619182960326075e-01 -3.8017735821092725e-02
      3.2377574886820504e-01 1.9495117343411937e-02
      2.7389259775420605e-01 1.0025875844658823e+00
      4.5205385115621832e-01 5.7821884179840088e-01
      7.9952141297523496e-02 -1.1220012897616680e-01
      3.6316619514071537e-02 -1.2721619573325263e-01
      7.8504234489087679e-02 4.6551212782675391e-02
      1.5250416013292661e-01 5.7721710869274767e-01
      2.4607617633501833e-01 2.6719587577356491e-01
      1.8567711532563458e-01 7.5661929737683251e-02
      3.9371072101424393e-01 4.6864549926519568e-02
      5.3828089711208316e-01 -2.0855378449758946e-01
      2.3171563346040885e-01 5.2714901581067264e-01
      4.6973593692566817e-01 -9.4513090046672785e-02
      6.2469029015403943e-01 9.2664183202867567e-02
      1.0597787209633937e-01 2.3522819822607136e-02
      5.1653756159024022e-01 1.1035076706447008e-01
      4.5818707363433930e-01 -2.8725881015005034e-02
      2.1142729032850194e-01 3.1987595917143730e-01
      1.5254909148721404e-01 5.1787414848192914e-01
      1.0147598384735571e-01 1.9234741761824331e-01
      5.5128472224075187e-01 8.3513900353821047e-01
      5.6501195913450830e-01 3.3691546638319342e-01
      3.0541949157135156e-01 -2.6637924108337568e-01
      4.9603613297001925e-01 1.6208128932012159e-01
      5.3415530226757557e-01 6.6788561653657952e-01
      -2.4003400272202255e-01 1.7735291999644651e-01
      5.4341525326118323e-01 4.2970376258084897e-01
      3.0537018752519179e-01 6.4980118004103138e-01
      3.1248590567036838e-01 5.2051480324968261e-03
      4.0650054942857849e-01 6.3858087630054816e-01
      2.4498781122096089e-01 4.5845137571890854e-01
      2.0167983818732760e-01 4.0671092097883516e-01
      8.5603389072961014e-02 3.1602299343426801e-02
      5.3680700520041191e-01 5.6681012824509491e-01
      1.0758017346128168e+00 4.2787146335626736e-01
      6.6221377220241184e-01 -7.4313759005307667e-01
      6.9341709371335414e-01 4.6498246991445608e-01
      -2.7806042644786511e-01 1.1840517005643374e+00
      1.4963276076157086e+00 1.3047734416236675e-01
      1.6950874085098591e-01 3.1732880204424346e-01
      -2.6743848870196537e-02 8.0901703115556722e-01
      7.8448566490898020e-01 2.8648807104699670e-01
      3.6838641080631290e-01 1.2260225117566754e+00
      -7.8389831697041656e-01 9.1275501733630604e-01
      7.5313777710957519e-01 4.0192691341384373e-01
      9.8142732814621131e-02 4.0313356584711085e-01
      7.9106895028541369e-01 5.4983567431456082e-01
      2.4870199494970271e-01 8.4491712286134169e-01
      1.7721400611869518e+00 6.7990980454773164e-01
      2.0932935711671383e-01 2.3749472555650247e-01
      4.2948134469875116e-01 7.8598386640442253e-01
      1.8278144562797756e-02 3.6429180157282762e-02
      1.4157032973600156e-01 -2.6286622863612696e-01
      7.8032814516009186e-02 6.9783245128009624e-02
      2.0312461619394562e-01 1.1729978810697618e-01
      3.3814761937595597e-02 1.4131931845410356e-01
      6.6765513152651179e-01 1.3624373644261406e-01
      3.4121931279095774e-01 2.3908197762475292e-01
      1.9219402596120394e-01 2.4210890373721265e-02
      2.7305424623091301e-01 1.7589656865213557e-01
      6.4407479708951598e-01 7.8208229898931314e-01
      1.8397757121103311e-01 3.9627594530111920e-01
      -1.3302612048963755e-01 1.4905243239585844e-01
      2.7650452684345939e-01 -8.6695473585389177e-02
      3.6435527250813932e-01 2.6676867358108391e-01
      1.1968051179356955e-01 2.6912465213038711e-01
      5.5585147980853977e-01 3.6160326234392626e-01
      -1.8538628301314852e-01 1.4549296697685168e-01
      1.0339384518928270e-01 5.4206558617457046e-01
      4.5973124128626208e-01 -1.5171426405220995e-01
      6.2954969437685401e-02 3.1092043508731876e-02
      2.4185700788496756e-01 1.4198779423395985e-01
      1.6740831501806877e-01 7.5956650801273407e-01
      2.1760181300376183e-01 3.8511537799201317e-01
      7.0448445100109103e-01 -1.1934567280108593e-01
      2.0947539471047988e-01 -2.7367226818051249e-01
      -5.1052308529498747e-01 -1.4822881013755826e-01
      1.5415807807037446e-01 1.0206488532956974e-01
      1.3096630850410698e-01 -2.0903268573490832e-01
      2.6614148097936685e-01 -6.6110830875129922e-02
      4.0088905148029186e-01 4.5471682365345661e-01
      4.3758426808891676e-01 2.9161743593617423e-01
      1.0104590935392192e-01 4.3844297895048706e-01
      3.7955329995727283e-01 3.7057994389746335e-01
      -1.2226494213915753e-01 -6.6713956609427283e-01
      7.7760736592838375e-01 -2.1633275283863718e-02
      9.7194197087595816e-02 -3.9814995848347867e-01
      6.3835412545933456e-01 1.9275158442446066e-01
      -1.1692980519120957e-01 2.2012693412484033e-01
      5.7296939362386123e-01 2.4906022906424868e-01
      2.4029809811332600e-01 5.1407942752121549e-01
      8.1611558888474112e-01 9.5079510623039265e-02
      3.3546059111634702e-01 6.3891258507933901e-01
      3.1933753748667731e-01 9.6720174198172471e-01
      7.9481967698280342e-01 -2.8326770651319677e-01
      -5.4467371778892448e-01 5.9978388647531888e-01
      1.3773031966613447e-01 3.9407957724521664e-01
      -1.1694634513868934e-01 4.6318387981933723e-01
      3.8808309351188208e-01 3.6450696527985360e-01
      5.3201491682073310e-01 8.4870521594037251e-01
      4.4857078823764102e-01 2.1361864392282387e-01
      3.4992249831634076e-01 3.9565371112921283e-01
      4.4669353644476278e-01 4.3214948975458289e-01
      2.7411337823985547e-02 4.1039769518650948e-01
      2.0221026951062493e-01 3.2361790717259314e-01
      3.6032945001432976e-01 2.3553842457115970e-01
      3.7658034323921391e-01 -3.8295187681053847e-02
      1.2748176776545408e-01 1.2075033913835495e-01
      9.7321350672034020e-03 1.2889237391435818e-01
      -2.1347777953348193e-01 1.0256983542417564e-01
      -3.6415329979782823e-01 -8.0470809050908226e-02
      1.8097550916185889e-01 3.8982841636648069e-01
      -6.4347364028256734e-02 -2.4897123161778803e-01
      -1.9716996398500047e-01 -1.0205812487472388e-01
