<?xml version="1.0"?>
<opencv_storage>
<opencv_ml_ann_mlp>
  <format>3</format>
  <layer_sizes>
    144 36</layer_sizes>
  <activation_function>SIGMOID_SYM</activation_function>
  <f_param1>6.6666666666666663e-01</f_param1>
  <f_param2>1.7159000000000000e+00</f_param2>
  <min_val>-9.4999999999999996e-01</min_val>
  <max_val>9.4999999999999996e-01</max_val>
  <min_val1>-9.7999999999999998e-01</min_val1>
  <max_val1>9.7999999999999998e-01</max_val1>
  <training_params>
    <train_method>BACKPROP</train_method>
    <dw_scale>1.0000000000000001e-01</dw_scale>
    <moment_scale>1.0000000000000001e-01</moment_scale>
    <term_criteria>
      <iterations>1000</iterations></term_criteria></training_params>
  <input_scale>
    2.6393638552539535e-02 -6.0618024338131005e-01
    1.5196484384294259e-02 -1.1855845362162711e+00
    1.1977563697834408e-02 -1.3820544129991013e+00
    1.2194034828422852e-02 -1.6043329124803916e+00
    1.2918381561515419e-02 -1.8416866050674547e+00
    1.3490361416467872e-02 -2.0473666460954507e+00
    1.3875454002309932e-02 -2.2104804545198351e+00
    1.4169994550832784e-02 -2.3396046211225570e+00
    1.4450257901355273e-02 -2.3955928175047316e+00
    1.4379180922596815e-02 -2.3989462709451970e+00
    1.4771082247781429e-02 -2.4237896082731636e+00
    1.4502090998935836e-02 -2.2656275131839885e+00
    1.4302319180927081e-02 -2.1022621406065194e+00
    1.4157102029192348e-02 -1.9734166457060203e+00
    1.5353440912326781e-02 -1.9432252264311864e+00
    1.5611596831844691e-02 -1.7861799609973139e+00
    1.5641881417695052e-02 -1.7013084087406096e+00
    1.6716223510442493e-02 -1.7719196921069043e+00
    1.7580135176214397e-02 -1.8043409772053940e+00
    1.7841232666776265e-02 -1.7941289387477199e+00
    1.7926919342699580e-02 -1.7849609503034187e+00
    1.7987643701740455e-02 -1.7786572689351727e+00
    1.8010157522849346e-02 -1.7735293367994418e+00
    1.7993911881399267e-02 -1.7613473292535005e+00
    1.7999766450186895e-02 -1.7506871403270299e+00
    1.8198647602452444e-02 -1.7573914861599667e+00
    1.7710027792060989e-02 -1.6779343126424349e+00
    1.7537639877052699e-02 -1.6505005934820807e+00
    1.7441088005555123e-02 -1.6231566720169881e+00
    1.7328069597690423e-02 -1.5908313376049847e+00
    1.7183620273127472e-02 -1.5498682314895667e+00
    1.7019299761651809e-02 -1.5110908496430917e+00
    1.6934657648283603e-02 -1.4930634958561457e+00
    1.6985800081851250e-02 -1.5049786353771979e+00
    1.7139643844667929e-02 -1.5433267323361535e+00
    1.7300354419141968e-02 -1.5881434245039312e+00
    1.7443969365077229e-02 -1.6341008707534310e+00
    1.7608561047910563e-02 -1.6825085901957917e+00
    1.7744192232170414e-02 -1.7215627153382713e+00
    1.7870697150935221e-02 -1.7511464635369907e+00
    1.7928139034860045e-02 -1.7709244789232097e+00
    1.7897774259887582e-02 -1.7852348618887426e+00
    1.7803719943441144e-02 -1.8070419097561843e+00
    1.7512339437330701e-02 -1.8126211483296171e+00
    1.7284139196685339e-02 -1.8171031589215254e+00
    1.7172149215474931e-02 -1.8338307391945543e+00
    1.7090637288088718e-02 -1.8566375473536647e+00
    1.6944374928176020e-02 -1.8703731915159545e+00
    1.6931821011354816e-02 -1.9042749667586951e+00
    1.6848798127920873e-02 -1.9569035235609744e+00
    1.6228698278629772e-02 -1.9851156996160138e+00
    1.5722855071458923e-02 -2.0190621505520521e+00
    1.5479244078285664e-02 -2.0590476829371096e+00
    1.5745199286060531e-02 -2.1863603314881837e+00
    1.6014387663793272e-02 -2.3458473023053501e+00
    1.5616965891366999e-02 -2.3611532243530924e+00
    1.5543047903237465e-02 -2.3491940698376994e+00
    1.5214696169905425e-02 -2.2824519081238335e+00
    1.4889402559651217e-02 -2.1526252340422030e+00
    1.4460385626317440e-02 -1.9927187711845049e+00
    1.3961110253476869e-02 -1.8171649101838159e+00
    1.3409693817755405e-02 -1.6262004460452584e+00
    1.2874804367191340e-02 -1.4299280769130120e+00
    1.2472559450893914e-02 -1.2784583311964715e+00
    2.5326603263978297e-02 -5.1023668981950121e-01
    1.7532834613078800e-02 -1.6631691869952738e+00
    1.5388444791322427e-02 -1.9615211610246637e+00
    1.5360143574062686e-02 -2.1487794696488862e+00
    1.5504725693467102e-02 -2.2938347160079182e+00
    1.5712974464516322e-02 -2.4310791774074745e+00
    1.5949131237196990e-02 -2.5364505332861542e+00
    1.6844005324849271e-02 -2.5332668678218964e+00
    2.0696897705851491e-02 -2.6006547506245439e+00
    2.0151337758537630e-02 -2.2736836742174811e+00
    1.9301417359057365e-02 -2.1046076804588765e+00
    1.8680279022242539e-02 -2.0059783201238877e+00
    1.8425547251931306e-02 -1.9555492460749964e+00
    1.8622462898504059e-02 -1.9446051765482091e+00
    1.8959387923977795e-02 -1.9461591422613127e+00
    1.9135771261412103e-02 -1.9350174698550184e+00
    1.9004081097713694e-02 -1.9118463433583466e+00
    1.8863195240162143e-02 -1.8880093519231456e+00
    1.8774891432048236e-02 -1.8737319083208861e+00
    1.8644982697451018e-02 -1.8620555977330560e+00
    1.8569521616962528e-02 -1.8573888728015877e+00
    1.8495325532452415e-02 -1.8535821106985608e+00
    1.8434920605820342e-02 -1.8494693767864776e+00
    1.8387211207957301e-02 -1.8545034770825601e+00
    1.8378370772867969e-02 -1.8671658939784987e+00
    1.8724411190459860e-02 -1.9577062062217738e+00
    1.8440178928512817e-02 -1.9972937535131257e+00
    1.8053478826542426e-02 -2.0198993018977234e+00
    1.7086299718365221e-02 -2.0690482138043746e+00
    1.5571798353740460e-02 -1.9697114609436559e+00
    1.5306217017567850e-02 -1.9785511519556356e+00
    1.5447341304320567e-02 -2.0597172977712397e+00
    1.5562933366268652e-02 -2.0709600418613365e+00
    1.5266553279190753e-02 -2.0421327012976742e+00
    1.5396368839618358e-02 -2.0274951342081358e+00
    1.7096457024247832e-02 -2.1043142620401891e+00
    1.7765108861840549e-02 -2.0576245168578069e+00
    1.8209519196348369e-02 -2.0546327242928157e+00
    1.8599679007029333e-02 -2.0289664023986536e+00
    1.8634514662311578e-02 -2.0091284270690131e+00
    1.8176534105846548e-02 -1.9317584968230759e+00
    1.7823782174789048e-02 -1.8796263725947491e+00
    1.7742254390833361e-02 -1.8620232977004747e+00
    1.7448021894058554e-02 -1.8349775650593674e+00
    1.7352633134272533e-02 -1.8241601021390439e+00
    1.7568576454646753e-02 -1.8422186847659905e+00
    1.7797663819954509e-02 -1.8516586759450939e+00
    1.8527865102061367e-02 -1.8995107277081098e+00
    1.8747125130725222e-02 -1.9130750196100590e+00
    1.9049948170812268e-02 -1.9504017728694603e+00
    1.9410998534660485e-02 -2.0001035341480686e+00
    1.9432315792085101e-02 -2.0398762087424154e+00
    1.9079224435432487e-02 -2.0556366120849443e+00
    1.8718126702555255e-02 -2.0617896574872931e+00
    1.8364170800456662e-02 -2.0945043112182380e+00
    1.8351273413353759e-02 -2.1759868052151177e+00
    1.9013610820180955e-02 -2.4373445634113926e+00
    1.5865090445018864e-02 -2.4238889851736491e+00
    1.4846142264015698e-02 -2.3376654716477292e+00
    1.4792597228028271e-02 -2.2698766324703357e+00
    1.4778976520272812e-02 -2.1725557327817295e+00
    1.4720158861159380e-02 -2.0460784917029788e+00
    1.4845907385855598e-02 -1.8759398013751067e+00
    1.4420289438656324e-02 -1.5324827514078065e+00
    8.7480129358455637e-03 -1.4085646674855334e+00
    9.5929322776754818e-03 -1.1793895303845743e+00
    9.5314560354383474e-03 -1.1798476194021068e+00
    1.0554860498231847e-02 -1.9374664313023584e+00
    9.2735790181184691e-03 -1.7001323749139805e+00
    9.2386569047652328e-03 -6.3313226434271896e-01
    8.9129138603427638e-03 -6.6405778984610175e-01
    8.3972766477310185e-03 -1.2677088645857928e+00
    8.5533751283390757e-03 -1.4120087115710933e+00
    8.2864173163723596e-03 -9.1050728527821734e-01
    8.9211498561960409e-03 -7.5751999650714896e-01
    8.3091508295066487e-03 -1.3598031860062367e+00
    9.3411938395241839e-03 -1.6088410005149729e+00
    9.0407920031745845e-03 -8.4079365629523639e-01
    9.1052310443415236e-03 -8.6775186527201476e-01
    8.6571942859883528e-03 -1.2947167023706583e+00</input_scale>
  <output_scale>
    5.2631578947368418e-01 4.9999999999999994e-01 5.2631578947368418e-01
    4.9999999999999994e-01 5.2631578947368418e-01 4.9999999999999994e-01
    5.2631578947368418e-01 4.9999999999999994e-01 5.2631578947368418e-01
    4.9999999999999994e-01 5.2631578947368418e-01 4.9999999999999994e-01
    5.2631578947368418e-01 4.9999999999999994e-01 5.2631578947368418e-01
    4.9999999999999994e-01 5.2631578947368418e-01 4.9999999999999994e-01
    5.2631578947368418e-01 4.9999999999999994e-01 5.2631578947368418e-01
    4.9999999999999994e-01 5.2631578947368418e-01 4.9999999999999994e-01
    5.2631578947368418e-01 4.9999999999999994e-01 5.2631578947368418e-01
    4.9999999999999994e-01 5.2631578947368418e-01 4.9999999999999994e-01
    5.2631578947368418e-01 4.9999999999999994e-01 5.2631578947368418e-01
    4.9999999999999994e-01 5.2631578947368418e-01 4.9999999999999994e-01
    5.2631578947368418e-01 4.9999999999999994e-01 5.2631578947368418e-01
    4.9999999999999994e-01 5.2631578947368418e-01 4.9999999999999994e-01
    5.2631578947368418e-01 4.9999999999999994e-01 5.2631578947368418e-01
    4.9999999999999994e-01 5.2631578947368418e-01 4.9999999999999994e-01
    5.2631578947368418e-01 4.9999999999999994e-01 5.2631578947368418e-01
    4.9999999999999994e-01 5.2631578947368418e-01 4.9999999999999994e-01
    5.2631578947368418e-01 4.9999999999999994e-01 5.2631578947368418e-01
    4.9999999999999994e-01 5.2631578947368418e-01 4.9999999999999994e-01
    5.2631578947368418e-01 4.9999999999999994e-01 5.2631578947368418e-01
    4.9999999999999994e-01 5.2631578947368418e-01 4.9999999999999994e-01
    5.2631578947368418e-01 4.9999999999999994e-01 5.2631578947368418e-01
    4.9999999999999994e-01 5.2631578947368418e-01 4.9999999999999994e-01</output_scale>
  <inv_output_scale>
    1.8999999999999999e+00 -9.4999999999999996e-01
    1.8999999999999999e+00 -9.4999999999999996e-01
    1.8999999999999999e+00 -9.4999999999999996e-01
    1.8999999999999999e+00 -9.4999999999999996e-01
    1.8999999999999999e+00 -9.4999999999999996e-01
    1.8999999999999999e+00 -9.4999999999999996e-01
    1.8999999999999999e+00 -9.4999999999999996e-01
    1.8999999999999999e+00 -9.4999999999999996e-01
    1.8999999999999999e+00 -9.4999999999999996e-01
    1.8999999999999999e+00 -9.4999999999999996e-01
    1.8999999999999999e+00 -9.4999999999999996e-01
    1.8999999999999999e+00 -9.4999999999999996e-01
    1.8999999999999999e+00 -9.4999999999999996e-01
    1.8999999999999999e+00 -9.4999999999999996e-01
    1.8999999999999999e+00 -9.4999999999999996e-01
    1.8999999999999999e+00 -9.4999999999999996e-01
    1.8999999999999999e+00 -9.4999999999999996e-01
    1.8999999999999999e+00 -9.4999999999999996e-01
    1.8999999999999999e+00 -9.4999999999999996e-01
    1.8999999999999999e+00 -9.4999999999999996e-01
    1.8999999999999999e+00 -9.4999999999999996e-01
    1.8999999999999999e+00 -9.4999999999999996e-01
    1.8999999999999999e+00 -9.4999999999999996e-01
    1.8999999999999999e+00 -9.4999999999999996e-01
    1.8999999999999999e+00 -9.4999999999999996e-01
    1.8999999999999999e+00 -9.4999999999999996e-01
    1.8999999999999999e+00 -9.4999999999999996e-01
    1.8999999999999999e+00 -9.4999999999999996e-01
    1.8999999999999999e+00 -9.4999999999999996e-01
    1.8999999999999999e+00 -9.4999999999999996e-01
    1.8999999999999999e+00 -9.4999999999999996e-01
    1.8999999999999999e+00 -9.4999999999999996e-01
    1.8999999999999999e+00 -9.4999999999999996e-01
    1.8999999999999999e+00 -9.4999999999999996e-01
    1.8999999999999999e+00 -9.4999999999999996e-01
    1.8999999999999999e+00 -9.4999999999999996e-01</inv_output_scale>
  <weights>
    <_>
      -6.9286040291683934e-02 7.6927577910133393e-01
      -1.8939484983524690e-01 -1.0212137003192601e-01
      -1.5088989832548219e-01 -3.0897578441333885e-02
      -5.3012773192421189e-03 3.2700529173864144e-02
      4.4538410729122968e-01 6.0611222059606111e-02
      8.1325839757016127e-02 -1.6341111157080329e-01
      -3.1524369419030551e-01 -4.2003024680226722e-02
      -1.4338836399322688e-01 9.3350470277484221e-02
      1.0564876356830667e-02 1.2906246462550108e-01
      -4.7475192293656480e-02 -3.8796865112636625e-01
      2.8465216237859678e-02 -8.6285140179106135e-01
      -1.0832530598411290e-01 -2.4416729937430903e-01
      2.0612743711785961e-01 2.3696351676461189e-01
      -8.0339290520452883e-02 -3.1489911102597407e-01
      2.4641890440371038e-02 2.0883048140205984e+00
      -2.1316141636468988e-01 -5.3168254825593453e-02
      -8.4707472349280583e-02 -2.6882852448469835e-01
      -2.2361238820389745e-01 2.8360341566674879e-01
      -1.0870414955210924e-02 -1.1251533646759288e-02
      1.0891849635874303e-02 -1.2773174800192511e-01
      -1.8511967576932445e-01 -1.1811193771567575e-01
      -1.2082680686846449e-01 -2.3526265220918227e-01
      6.5395374006259263e-02 -2.9504256548959829e-01
      2.6845980075738385e-01 1.6315514711781456e-01
      -1.0402848902985103e-01 5.3409685419279823e-03
      -1.9083926598376927e-01 1.3244192306984587e-01
      6.2715004904711769e-02 2.3122196883665132e-02
      -1.2351487673760013e-02 2.7072218819287697e-01
      2.7098844315819282e-01 3.2824919118069723e-01
      -1.5460428384048905e-01 -3.0026610407868393e-01
      1.8791630711876386e-01 1.6478126721311623e-01
      -1.4071065766179799e-01 -2.0440772589778214e-01
      -1.8600987439794689e-01 4.7915003294785241e-01
      -4.6664510881851792e-02 3.1244539320625675e-01
      -8.2829950298505428e-02 5.1142940798950806e-02
      -2.5180844771842725e-01 3.5984163970848360e-02
      1.7355148243752677e-01 5.4245063345721967e-01
      1.2527557248295168e-01 -3.8253063756595629e-01
      6.4157365353325357e-01 4.2884548048813015e-01
      1.5221658822293230e-01 5.3751584205460734e-01
      8.3177177951798187e-01 7.7726110720603858e-01
      6.2058329899599962e-01 2.0259289901334188e-01
      4.3057609097690956e-02 1.0703455133741056e+00
      8.1865599097229902e-01 4.1133608200025701e-01
      6.7220888393071576e-01 1.5881065817254261e-01
      1.9809489589513130e-01 -7.4416149751828220e-01
      4.2425159983216715e-01 -2.4106688236231086e-01
      -3.2593867175520388e-02 5.2918349678929377e-01
      1.4916361157300115e-01 4.2828104830769148e-01
      6.1869874540889358e-01 3.3142857374231838e-01
      5.1818911863548967e-01 3.7964295869552731e+00
      1.3939095200062002e-02 7.2807373078054693e-01
      1.5653861003605188e-01 2.6249199675570917e-01
      6.3596561072352908e-01 4.4289587546190912e-01
      6.4035752714064298e-01 2.5827159651279863e+00
      1.3143805954918841e+00 2.3701333788116479e+00
      1.2458586016421140e+00 1.5007087392705204e-01
      2.3712287498040299e+00 1.2982285145395929e+00
      -5.9800839570320607e-01 1.8290369706047440e+00
      9.1958403578025683e-01 1.5129963709484511e+00
      1.4620435676081036e+00 1.4167727855060597e-01
      2.2156366842944948e+00 4.7628008066318800e-01
      6.5376741894540569e-01 3.6332081539233052e-01
      1.0035406665191964e+00 -2.5037691277237517e+00
      6.9218042833595905e-01 7.1645790703291179e-01
      1.0905507275983612e+00 2.0776258849652751e+00
      2.0778413035113088e+00 1.4825081990043134e+00
      9.0516666669558221e-01 1.4038681569868880e+00
      1.5589520437237567e+00 1.4151710843156551e+00
      1.2385007056994350e+00 1.5877467381557357e+00
      1.4683238491060497e+00 3.3467474590547580e-01
      1.0488019964863189e+00 1.1623902911844457e+00
      5.7165049242101851e-01 -3.6180942708247432e-01
      -4.9162458961868027e-01 2.1944163245245793e-01
      8.3368096508886019e-02 -4.2312886277207001e-01
      2.8095588731900495e-01 -2.6931320896364186e-01
      -3.7922495748548762e-01 -1.1256725656415421e+00
      3.0650124174904780e-01 2.5702175844977498e-01
      1.1634154412086066e-01 1.0949937635272751e+00
      -9.9280428175593982e-01 6.0180047106223411e-01
      5.9547049758728675e-02 5.6343218224861635e-01
      -1.0979044249032786e+00 7.5263676611774777e+00
      -1.0086228359876765e+00 -1.3311584830296139e+00
      8.7638357823569357e-01 2.5117102792037571e-01
      -1.4518251453571580e+00 6.0724288314255070e-01
      -8.1484762095004026e-01 5.4586897541728330e-01
      3.9759378212623986e-01 1.2444741493959892e+00
      4.3139319338795196e-01 -7.0857677836567401e-01
      -2.4154622160854450e-01 6.0326940060783030e-01
      1.1971747025039585e+00 7.3263745577145456e-01
      -8.8759563600582536e-01 -1.2231889129454936e+00
      1.8608017519817086e-01 -5.5590187079854658e-01
      -2.8496521680372672e-01 3.1456287916141479e-01
      -1.7298034173104930e+00 -1.4194294967724100e-01
      -3.7609783090804461e-01 -1.9358789954361384e+00
      -9.1185158505334485e-01 2.0156925792458605e-01
      -8.9951313304594616e-01 -3.7187279053481109e-01
      -7.0455932656724707e-01 -9.7154079528972301e-02
      -5.8916961515715749e-01 -6.4472912580838959e-01
      -6.6536266979505942e-01 1.3447075975445868e+00
      -6.5331638943785530e-01 -7.6388910204925531e-01
      -1.3910433053874911e+00 -9.0729312872121104e-01
      -1.3681540732152453e-01 5.0284847450845227e-01
      -8.2557671975705094e-01 -1.5373945837156604e+00
      -1.3085870197282028e+00 -1.9466141531882879e+00
      -6.2903293497667456e-01 -6.5551406928932343e-01
      -1.6390972399651768e-01 -1.0248394655020683e+00
      -1.4536874391664982e+00 -1.0232597802056649e+00
      -3.9881322145018044e-01 -9.0392406064099415e-02
      -7.4381147106915291e-01 -1.4897407866572474e+00
      -7.9861901228454246e-01 -3.0006822277758266e-01
      -2.5193447782091360e-01 -1.6391161258929665e+00
      -7.7231391602084642e-01 -1.4068199472993888e+00
      -8.0271248601084155e-01 -4.3144764052307349e-01
      -2.5172390881221940e+00 -7.8500947393324938e-01
      -9.4653474879063548e-01 -2.4517657889185976e-01
      1.4281893499940327e-02 -8.7787728738362547e-01
      8.8184985039568231e-01 -4.8498204630877071e+00
      -1.0829593041964432e+00 -7.5534989140293429e-01
      -1.1525260762709445e-01 -1.3235374139835017e+00
      -7.7889640882510391e-01 -9.0950868450389866e-01
      3.6121508293618410e-01 -2.6014841939661126e-01
      -5.1774233789564317e-01 -2.4294618867838054e+00
      -1.2559643233480804e+00 2.8269135676469692e-01
      -4.8024674325237732e-01 5.9642896481114864e-02
      -1.9221301292058162e+00 -9.8983727375686537e-01
      -5.4737299756544100e-01 -1.2202217939949267e+00
      -1.5820386817809531e-01 -8.8749198639115845e-01
      -8.6796990920212191e-01 1.0334758703258468e-01
      -1.1401024713535222e+00 4.0643207109066375e-02
      3.8699179629690617e-01 1.7987477676184680e+00
      -1.5125382578075394e-01 -6.5802478824553390e-01
      2.3405455655278020e+00 5.7211326379628236e-01
      -6.0428051224099744e-01 -9.3327723959772257e-01
      -2.8727198270790982e-01 6.4500152442731962e-01
      -1.0745541878207436e+00 5.9737704892696430e-01
      4.6279926059657533e-01 3.5056584703306765e-01
      3.3367353634506808e-01 -7.9538611559342276e-01
      -6.8427848172564865e-01 -2.4764257690868710e+00
      6.3586823787254676e-01 -4.9000555332603468e-01
      -1.0220556854280611e+00 -1.3561438618500814e+00
      -6.8712183888499667e-01 -1.7321003577519849e+00
      -6.4800256505277909e-01 4.7929160762934225e-03
      -8.1463830089632583e-01 -2.4252614889229418e-01
      -2.6784108863655298e-01 -2.4004500128037362e-01
      1.4620388742246915e-01 -1.1221052386581658e-01
      -1.3809938947667907e-01 7.6212340749708618e-02
      -1.8845967714631243e-01 9.6434249624827911e-02
      3.3212352515395061e-02 -2.8056644260377622e-01
      -1.3854166439746279e-01 3.7681776013176110e-01
      -4.5913300519434630e-01 3.4619360000944849e-01
      -5.7619566127079569e-01 4.5817903890046319e-01
      1.2678077242576849e-01 1.7210149479592357e-01
      6.4968512154098629e-02 -2.1349998973653403e-03
      -2.1919403051326616e-01 3.8879413489675663e-02
      -1.4026940312576863e-01 -2.0583344670534642e-01
      3.5117218614698331e-01 -1.5667248819057694e-01
      -4.4100698636778313e-01 -2.7996388177401860e-01
      -3.4523276940633030e-01 3.9528288023736913e-01
      -7.9057527166569566e-02 -2.2227957887400632e-01
      -1.0921114643644124e-01 4.1068337137842503e-01
      1.7598311871646330e-01 -2.6459901171893313e-01
      1.1250538817256493e-01 5.3809625364048175e-01
      -1.2022761690633235e-01 3.4855229559397410e-01
      3.1236697551992704e-01 7.4802296678129376e-02
      4.7389601335225945e-01 5.1682392677727274e-01
      6.6413740344408523e-01 3.3280440657500127e-01
      2.2459185461423883e-01 -1.7533735590476426e-01
      9.3979369039921268e-02 9.3705406726285967e-01
      6.4791309845393247e-02 2.8120505776722943e-01
      2.1521172733085023e-01 6.3138724494044696e-01
      -8.6491726529434154e-02 -1.0754765084569371e+00
      7.5268015775327957e-01 2.6525667557374544e-01
      -7.3964925232460776e-01 1.0500149188174472e+00
      1.0094994343219281e+00 8.5626607227899865e-01
      -8.0182626160688197e-01 1.0180798597698038e-02
      2.9202782325018228e-02 4.9965721504168875e-01
      -4.8397569996857726e-01 2.1515342901830323e-01
      -9.3665624127871147e-02 2.3928343438717717e-01
      9.9114911035400211e-01 9.6876806011065419e-01
      3.0515600919580693e-01 1.5684436328648135e-01
      1.0610359655545580e-01 -9.5136840897680902e-02
      -3.4857199049856052e-01 8.6117171666474410e-02
      -4.8028887272311735e-02 -2.6208967358102159e-01
      1.5020881192070704e-01 -9.1112051761772811e-02
      -1.2583058716056703e-01 -3.9785914264720321e-02
      6.2964082790169004e-02 2.2791364852371265e-02
      -5.6868892209207093e-02 -1.5562945081529611e-01
      -2.1127473916771114e-01 1.6311933597291602e-02
      -2.1373977396367322e-01 4.9725909325334228e-01
      -3.6169168881639385e-01 -2.6060907758371532e-01
      -3.2946800477770544e-01 -2.6126797038743738e-01
      -7.0297259002901080e-01 -3.3921850856163599e-01
      6.4449589480870387e-02 -2.8088972793147989e-02
      3.1001790570636657e-02 3.6321886099019801e-01
      1.8307238964143488e-01 -5.2805688451992705e-01
      -1.0597444276052460e-01 -3.0300992699773638e-01
      -1.3556410528848029e-01 -2.4421255490578564e-01
      -2.9631000797185908e-01 -1.2291749804512653e-01
      1.0997189425631634e-01 -8.4579500324303822e-02
      7.5469980393502376e-02 5.4869438363906883e-02
      -8.4895524590235028e-02 -2.2166345687899089e-02
      -1.9630567680013819e-01 -1.7445907465616289e-01
      -3.9628111969427282e-02 1.4357413247259032e-01
      -6.0162436020626139e-02 1.0089414398656821e-01
      -5.3022500869163325e-02 7.5771156210237653e-02
      -2.6811427344549171e-01 -2.6900245324950478e-01
      -9.1091363027022240e-02 -6.2729119399819747e-02
      5.0874011770233145e-02 -2.2155628033718444e-01
      -2.1621324162271166e-01 -2.0538345435328863e-02
      4.1356117426395850e-01 -1.0722044383808904e-01
      6.9200071166159158e-02 -1.8111319931711381e-01
      -1.3647700192374221e-01 -3.2397081233058600e-01
      3.0834886427369274e-01 -6.9597339357551549e-03
      -6.6814199666547114e-02 -7.5806451392783650e-02
      -3.7676813362624473e-01 -3.0849509193115626e-01
      -1.0910914960368828e-01 -8.4515052085970932e-02
      2.1374050818871099e-01 -1.1171814260476438e-01
      -2.8009492358916388e-01 -5.3182999508048341e-02
      -3.0810257911151040e-01 4.4870437345640043e-02
      -4.8288275709662032e-01 -1.2188961585927685e-01
      3.9587875475674404e-02 1.4260428983193471e-01
      -3.7704640055861427e-01 -8.7529184946369010e-01
      3.1375321939551185e-02 -1.2824646324472863e-01
      -3.2837219181553673e-01 -2.7898733092551969e-01
      -6.1895718868411949e-02 2.9928603933214448e-01
      2.6518994547999300e-03 2.2158197850670694e-01
      -1.2713729754401806e-01 -6.5811049293362867e-01
      9.0705739479231454e-02 -5.5166510742625699e-02
      3.1943562931047093e-01 1.0109997018172358e-01
      -2.2003506066808057e-01 -2.2451894988374702e-01
      8.0847758006533721e-01 -5.8099963005929067e-01
      1.0648866887714162e-01 1.0948899657382202e-02
      9.2162634590665413e-02 -4.2709540240696964e-01
      3.6082168728811675e-01 2.5613876496228083e-01
      3.9583839103190654e-01 3.1034942592517240e-01
      9.9389920028709677e-01 7.4995244430821351e-01
      3.5557118035145990e-01 4.8584375892680703e-01
      5.2955256681702767e-01 7.4700235461666153e-01
      6.5708096866311738e-01 7.3405795368262816e-01
      6.5470240734889712e-03 1.5301891964926090e-01
      7.5563894521788733e-01 5.4669456375974856e-01
      7.7783622206154690e-01 4.5989266263042261e-01
      6.9208650401418670e-01 -4.2491207925802160e-01
      4.3295526558332681e-01 1.0685993846208190e+00
      2.9495936369107156e-01 1.1065997046843390e+00
      1.2190518623354392e+00 1.1239776470092788e+00
      7.0399728809680995e-01 4.5330398349799650e-01
      4.7256464767634354e-01 2.0841457480712196e+00
      1.8460065168277123e-01 9.9373056588520092e-01
      4.3558444756561432e-01 6.7332325662573855e-01
      1.0322861620685746e-01 1.2007998452823532e+00
      -1.5303327899976468e-01 -1.7074472994021850e-01
      1.0204147409326471e-01 -4.1786117984727485e-02
      -2.1559743484219346e-01 -1.1509725928547616e-01
      -1.9282291353283312e-01 -1.3517049171856096e-01
      -3.6163230991181183e-01 -4.1373980223065328e-02
      -1.4636384507390413e-02 3.0937311642215293e-01
      1.5237688025750928e-01 -1.5901064292515790e-01
      -4.0880428337392022e-01 -2.1957502806211626e-02
      -5.3493207266707768e-02 1.6812630141644816e-02
      -1.9395131314463737e-01 -1.9660197044983094e-01
      -1.0469784471099791e-01 -2.3834154166980789e-01
      -1.4995566093892013e-01 -2.6251040077129661e-01
      -1.2078096354338183e-01 -1.3634152790979925e-01
      2.1326978254294995e-01 -9.7610377476243085e-02
      -1.4419180210079166e-01 -1.4506982753153019e+00
      5.9234983847664534e-02 -1.0660179697627140e-01
      -6.3894523301032444e-02 -1.8380832277866389e-02
      -1.3352092333286378e-01 -3.0342984062102391e-01
      3.1975949260654439e-02 6.2577758150808527e-01
      -6.9818142274192627e-02 1.6996512531432240e-01
      -8.4207267445132947e-02 1.8465907217414862e-01
      -5.6258519787947070e-01 -6.0913094815143620e-01
      -7.4425888138798437e-03 -6.1880066300540570e-01
      2.0527924798480494e-04 -1.1080068093341013e+00
      -4.6536673955907831e-01 -2.6669929591575537e-02
      8.1575962662684054e-01 -3.3779418727839694e-01
      1.9558156899065518e-01 -7.4061502696079007e-01
      -1.0628274574898164e-01 -4.7191876766338992e-01
      -1.3420461271143005e-02 -5.9436272581341887e-01
      -3.2308590845554341e-01 -2.4069307484557922e-01
      -3.0173537129327972e-02 4.2161223032944184e-01
      3.6469846229697239e-01 -7.1311273381187290e-01
      1.0396895650328133e-02 8.8883213991790966e-01
      1.3859423732434015e-01 5.0610202092202738e-01
      -3.5141269364844552e-01 3.4667430724023646e-01
      -1.1295396675775207e+00 -5.7200357405642444e-01
      5.2383752600756939e-01 3.6073462956987640e-01
      -3.5515743550439505e-01 4.8647357971177452e-01
      2.3073815930241889e-01 -1.0462773062861562e-01
      5.7488900547610211e-01 1.7649241251754011e-01
      1.6155146541997758e-02 3.8288547529228129e-01
      2.3640137454571006e-01 2.3146755679120753e-01
      5.0622445308998476e-01 3.8690429173488461e-01
      3.9869951937729781e-01 7.1135107533483144e-01
      -3.4007222264470621e-01 -1.3021686951892986e-01
      -8.3628812905495176e-01 1.8234372063871760e+00
      -1.8114285554716569e-01 4.1153748043205834e-01
      3.0075990864795987e-01 6.1237634220833603e-01
      -8.4460869534031036e-01 -2.2560858757334673e-01
      3.2567799177772905e-01 -1.6692872539329884e-01
      2.7827603633145059e-01 2.6475060321084787e-01
      3.1897503150708734e-01 -5.0998037254029641e-02
      2.7866118594144901e-01 3.9004811434512310e-01
      8.1289608882917405e-02 -4.8964142373286244e-02
      -6.4793883635419958e-01 2.3173673526864152e-01
      1.2009862126279219e-01 -2.0810401742142337e-01
      -2.8559562190145765e-01 -1.0448055028225255e-01
      -4.6282702870971631e-01 -4.2765166354497552e-01
      -4.2967461262799284e-01 -3.9676265336741040e-01
      -9.5725560394082240e-02 8.2081027348157518e-02
      -2.8495103753643813e-01 -2.6826170352523621e-01
      -5.3326639136049825e-01 -2.3077208368977947e-01
      -2.5609415730197682e-01 -3.7971753749867734e-02
      4.7760708317599175e-02 -5.6387434979574758e-01
      -3.0931148080415288e-01 -4.4887158705183755e-01
      -2.5403459283909663e-01 -6.8449354867427414e-01
      6.1421501689759306e-01 -3.5156578104063141e-02
      -3.5791702230002992e-03 -3.1262516661199496e-01
      -2.0305590429840795e-01 8.6466852907845360e-01
      -9.5223048362780574e-02 -2.4020787095141585e-01
      -1.7905052811020003e-01 -2.4563990408169947e-01
      -6.3965160206973293e-01 -5.8848514780361710e-02
      1.2524522249337347e-01 1.1713206941946024e+00
      1.3496728559354368e-01 1.1433885156130572e-02
      1.1954909527934658e+00 6.5194191475240837e-01
      6.9991301091368663e-01 5.8368814280945924e-01
      8.7443207175930637e-01 1.0220666957475635e+00
      7.1906937791020675e-01 6.2189531793854247e-01
      2.0335379230454570e-01 1.3488686590409367e+00
      1.3223589712917687e+00 3.1940276858449523e-01
      1.3521655153513112e+00 2.9375392297740244e-01
      3.3147406909376592e-01 -6.7902193761432750e-01
      6.1140970663613314e-01 6.6118668059899477e-01
      7.2871977253595321e-01 6.0042113166965327e-01
      -1.3313715062043316e-01 2.6386156868430871e-01
      1.3068025238360033e+00 6.6035340715029223e-01
      7.7066045252792514e-01 2.6255048232066974e-01
      4.0417431272042353e-01 5.1788038311262574e-01
      3.9791846415358123e-01 5.3406261042798542e-01
      1.0981833707026250e+00 1.6660310436825690e-01
      7.6376933498181213e-02 -9.8072225762099707e-01
      -1.6671406931839319e-01 -1.0273609565916975e+00
      -1.3247413907128904e+00 -8.8791321949955815e-01
      -1.4614557682327551e+00 3.1453583244947331e-01
      -1.0915050418090775e+00 -1.0099943639690585e+00
      -6.8532038042514798e-01 -1.2836416831468398e+00
      -1.9383957634211424e+00 -1.2572515608976855e+00
      -1.3529183638018865e+00 1.4664612797818444e-01
      -6.9086275624769511e-01 -4.2996600152980863e-01
      -1.0039333226228766e+00 2.2812805110547036e+00
      -1.0280656366437086e+00 -5.4885719401112210e-01
      -9.4483006561801264e-01 -1.2159420824654408e+00
      1.1062612280178730e+00 -1.5494421858560521e+00
      -2.3101786833259954e+00 -5.4784891049679518e-01
      -1.3329086136430139e+00 -1.4191857133227459e+00
      -4.8041202831053137e-01 -2.6289383770374705e-02
      -1.0925515133634620e+00 -7.8002487655947261e-01
      -8.2862101996779125e-01 -1.2244127918633805e+00
      3.1537641708610065e-01 1.3137374206814603e+00
      6.5967042198971759e-01 -4.3593712815066804e-01
      2.1763307499718723e-01 -2.8773556318807869e-01
      1.1229880839530100e+00 2.3022774836018423e+00
      -2.9672913683874957e-01 1.0474448792748539e+00
      -2.4734996849231763e-01 1.2166082547639401e+00
      -3.3973786275282060e-02 8.5471747193084635e-01
      -1.3314395850477617e-01 -1.0916096321606744e-01
      -6.4190342210894613e-01 8.9040171340298135e-01
      6.4387457712264473e-01 4.4029236769851171e-01
      -3.6568920683434808e-01 8.4911023619661485e-01
      2.4353140776582199e-01 3.9207053739780712e-01
      1.7316857389451774e+00 1.0111140187814651e+00
      -2.1347654001997391e-03 2.3184931943137019e-01
      5.0527669298979216e-01 2.9124183203383613e+00
      -7.5757933055427185e-01 4.5755399302888405e-01
      -2.5857508727450973e-01 9.5760036600358270e-02
      5.5060377741768907e-01 4.6696523699976511e-01
      -1.4484287193783556e+00 4.5090059030189933e-01
      4.5674226305772961e-02 -4.5085312027673724e-01
      -1.7062169604781655e-01 -1.0259575382238195e-01
      -1.0151575493353131e+00 9.4897996858476963e-01
      1.9243297413807980e-01 1.1022749746964913e+00
      8.8582665450409037e-01 1.7095199028824853e-01
      1.6484544230783098e+00 -1.0977760128614618e+00
      -4.1823875754454309e-01 -2.3181943889835718e-01
      -1.9791491478420217e-01 -8.0594022751290162e-01
      5.0062534906065602e-03 -1.4986024537084111e+00
      -1.5172754648058686e+00 1.4326291135434618e-01
      1.8105470715729149e-01 -2.3116419004139396e-01
      -2.2691680482179155e+00 -5.8987622397957251e-01
      1.0147925846203101e+00 4.3299264982727581e-01
      -6.4390693490508810e-01 3.7307931182993603e-01
      1.4616483164997487e+00 -1.0432793908550020e+00
      6.2562744040060925e-01 7.3755190911720780e-02
      5.5821831748148171e-02 -4.6814097887154171e-01
      -4.4862951595223749e-01 1.1481485003563796e+00
      7.9051239534100204e-01 8.3302643544304375e-02
      8.5650655505966944e-01 -1.4913029161899166e-01
      1.4499098110498583e+00 4.0755690514176257e-01
      2.6359540964278241e-02 2.9154598210167360e-01
      -1.6443447702870315e-01 1.6898732392778897e+00
      -5.2835246261143920e-01 9.7392276058521787e-01
      9.9541648883897771e-01 5.2917596612731051e-02
      4.1083570208356301e-01 -6.0062991340730132e-01
      9.4207319584994176e-01 -1.0487679327890556e+00
      7.2015529913191267e-01 9.2313555682897153e-01
      -5.3473623095956591e-01 1.3155003389275566e+00
      1.6608130269421264e+00 -1.4472600589023507e-02
      -7.3125808999071854e-02 6.0562588913806770e-01
      -2.5105421764296337e-01 -1.0249572419149509e+00
      -1.7625755377065574e-01 1.0293614964289926e+00
      6.1995242007464024e-01 5.5165547957948067e-03
      1.3038719030064210e-02 -2.8967255597717656e-01
      -3.4195489545076091e-01 -1.4995929566755442e+00
      -1.0045491126041439e+00 2.3627133422988075e-01
      -8.6206497230293291e-02 -2.4199277270725880e-01
      -9.9612190077011586e-01 -1.8696719129098347e+00
      -6.6136297475407291e-01 -1.4029047847568465e+00
      1.5942690014815100e-01 -1.2644309911306713e+00
      3.6761495770179831e-01 1.0925981462069598e-01
      -1.3141089674061099e+00 8.3573694084813754e-03
      -6.6468862327710887e-01 -9.5468851877100497e-02
      -9.4300989541809974e-02 -9.1187089783649722e-01
      -4.9060364266105189e-01 -8.5522274297591183e-01
      -3.8031094738604138e-01 5.7765551581582572e-02
      -2.4517493617348913e+00 -1.0646329402402981e+00
      -1.5440084325500876e-02 -7.3739221993313664e-01
      -1.1869179363116798e-02 -2.8429427394828619e+00
      -9.1858265394359018e-01 -1.7043581629527942e+00
      -1.3725731535432249e-02 -1.4180343884693336e+00
      6.0698323688158717e-01 1.1837580126536569e+00
      -1.0234889991988052e+00 -1.1352766617151671e+00
      -1.4791713894437011e+00 -1.1979355826826432e+00
      -1.6159454765195824e+00 -8.3304008633968518e-01
      -1.9629279701970870e+00 -3.1944528559744088e+00
      -1.3788186414547610e+00 -1.8445790872855818e+00
      -1.1036557223732300e+00 -1.7680202198115906e+00
      -6.9941789166367130e-01 -1.4525302592889324e+00
      -1.3990527615141208e+00 -1.0108287814658670e+00
      -1.6807468940339629e+00 -1.0821648561342265e+00
      -3.7896157733217045e-01 -2.3811095809941674e+00
      -1.0308146990825902e+00 -1.7376291906784374e+00
      -1.3912196135529549e+00 -2.1534329322370915e+00
      -1.0102643352033400e+00 -1.8376960140763410e+00
      -4.3081186320799342e-01 -2.1796033744087255e+00
      -7.6887198209291963e-01 -2.0932709544861865e+00
      -8.1246092414641502e-01 -2.0848815810507508e+00
      -1.2283163775120773e+00 -1.0596030755385342e+00
      -2.4488427515091078e+00 -1.5593478778543066e+00
      -4.7427873450027297e-01 2.9892885294656013e-01
      -3.2275175994663530e-01 -9.6421864630291920e-01
      -5.0375468723805750e-01 -6.3455625393080597e-02
      -5.6533282218647529e-01 -1.1105364718277488e+00
      -4.3166731302136552e-01 -5.2544198219780591e-01
      -1.4855185260560774e-01 -1.1152493843059568e+00
      -1.5440571326426842e+00 -3.3681351236531576e-01
      3.2870935822735786e-01 -3.4509051515061945e-01
      -7.1080924181803617e-02 -3.3932015329597731e-01
      3.3163729821041621e-01 -1.7076967055645431e-01
      -3.2723561763676678e-01 -1.1310791591161555e+00
      -4.0618379794712819e-02 -4.5998404777810609e-01
      -9.1313758996109262e-01 -2.9255514006410077e-02
      7.8488348884293874e-02 -4.0626844347664925e-01
      -3.5835632736001938e-01 -1.6194119401333509e+00
      1.8851257959472542e-01 -1.4505416265924540e+00
      -6.5132451197682617e-01 -4.2180901606540150e-01
      2.3919837445239944e-01 -7.9598599086136734e-01
      -7.8526092703326522e-01 1.4130869427941291e+00
      6.1259140310011495e-01 1.6494429281064547e+00
      1.8447318344306227e+00 8.8874703297968904e-01
      1.6318437328484716e+00 1.3511875951327748e+00
      1.4289376482810006e+00 5.3298763350470402e-01
      1.5283219714255203e+00 2.3748372152848902e+00
      3.3890035791430160e+00 1.8234407241232296e+00
      -3.7474760430905980e-02 5.2867939057290658e-01
      2.1239519266452684e+00 1.3535045554474079e+00
      -8.8843132512937106e-01 -1.8098640101657133e+00
      -9.5121110054826513e-02 2.3886703861578034e+00
      9.8303515154677579e-01 9.1484753863203283e-01
      1.1156433270448449e+00 1.5147217685050887e+00
      1.6488769870734539e+00 1.5174392122046008e+00
      1.6567375277197067e+00 2.1309413947902769e+00
      1.4514801496740437e+00 3.2855176303798123e-01
      1.2941113133198245e+00 1.3310754785199277e+00
      3.9145487046993872e+00 1.7702198681757226e+00
      -6.5471275567700671e-01 3.2759169611513361e-01
      1.3504787865193249e-01 -1.0012705452889910e+00
      3.9353454521062597e-01 5.5106190997182702e-01
      5.3259307277835621e-01 -7.3868634928619015e-01
      1.7361767763789171e-01 2.5239337908611648e-01
      9.8273866764039530e-01 2.1829146677460187e+00
      2.3561281765084074e+00 3.2124755571252850e-01
      -1.0218058630591687e-01 1.0737650744540550e+00
      -3.1098628558152669e-01 8.6338995051769962e-01
      2.7882919898963292e-02 -1.6648765979231206e+00
      -8.4573155194146921e-01 1.1287625295997977e-01
      5.4157500312053219e-01 1.3349092671328513e+00
      3.4767356264347049e-01 -3.8058916452609476e-01
      -3.7971170780314734e-01 -3.2625697774964946e-01
      9.1256579796540416e-01 1.8482587348635768e+00
      -9.1100554330597339e-01 1.5181497765654917e+00
      3.8245463491962101e-01 1.2595909652565656e+00
      -1.2828027649745082e+00 1.0976690287757515e-01
      1.0011536530790526e+00 6.8822037391019575e-01
      5.4648475821504872e-01 -1.3842251432030286e-01
      -8.4102586923134592e-01 -4.7148132998388170e-01
      -7.7657390247209890e-01 7.0936236068678465e-02
      -3.0822922984015760e-01 -1.1164493035629827e-01
      -3.6252145701828337e-01 -4.8264118744056089e-01
      -1.1738150576428414e+00 1.6776112596505607e-01
      6.0015213519271471e-01 -2.6533092342276736e-02
      3.4887778954254939e-01 -5.6031093798483511e-01
      3.8545794058875466e-03 4.6252904988569093e-01
      -8.1852007530869408e-01 -5.4977408473567979e-01
      -8.4864881410955284e-01 -1.2210000388142024e+00
      -1.2849146305161604e-01 -4.0101419629491247e-01
      1.0688847075048462e+00 -7.4883417165340904e-01
      -4.4841055752155135e-01 -4.7510554864507493e-01
      1.3752133329189961e-01 -9.0604167338596131e-01
      -5.9688705490340488e-01 -5.9832363101443558e-04
      1.5801444889470198e+00 -3.4376607598841818e-01
      5.9535890859404939e-01 7.6747240003351314e-01
      8.6337525874260657e-01 1.0195478808826823e+00
      1.0190560263218835e+00 2.8360512845896507e-01
      6.7112970048769849e-01 5.9525940961273605e-01
      -5.9006638328981775e-01 2.5854251386348986e-01
      -8.4179630183143991e-03 -4.8663694441179006e-01
      3.2275561918125162e-01 1.1110108213456733e+00
      1.9577166339911978e-01 1.7878282883263721e-01
      1.0195946645214600e+00 6.2616571273042410e-01
      -1.1574587773315066e-01 1.0193203701678941e+00
      2.7247291145953112e-01 1.9242750483393165e-01
      1.1594692334509211e+00 3.1848877825570931e-01
      -4.7933106556209926e-01 6.6920796938590299e-01
      -5.6982757217325197e-01 5.7286599187111209e-01
      6.4170260813916816e-02 -4.5304629103153038e-01
      7.5551595658474890e-01 -1.3414600664784948e+00
      8.5270476430079012e-01 5.6037059289564886e-02
      2.1354426324513245e+00 -1.1051907570586195e+00
      7.0888738856806119e-02 2.7433441489873384e-01
      2.3444063806292892e-01 1.5967647008499170e-01
      -8.8894198645173406e-01 -8.6484236703650319e-01
      -3.7685540604306683e-01 5.0408980987012386e-01
      -1.0346207229920869e-01 4.4890748786382739e-01
      -2.9944842014038142e-01 -9.3747348931388585e-01
      7.3419827155893680e-02 2.6752294231303347e-02
      -6.3827187215996883e-01 6.0405326882394672e-01
      -3.6969476880433993e-01 -6.5349037174283486e-01
      -1.9417842469599786e-01 -8.9214711894927953e-02
      5.5907392818449053e-01 -8.4079633833164114e-01
      -1.0644127626428972e+00 -4.3088565416408620e-01
      -1.3407910604175961e+00 -1.5262819077856200e+00
      -4.4260043100478352e-01 -1.0411518906871442e+00
      -1.0317711235590641e+00 1.4072745302376330e+00
      -1.6510672306875201e-01 -7.5937567913728055e-01
      7.3010496161529381e-02 -8.3070853653844301e-01
      -1.5118012326138844e-01 -1.0888014253017997e+00
      -9.7513335220013642e-01 -1.3595365595484785e+00
      -1.4020489184032028e+00 -5.7955077650899811e-01
      -1.1854819279856117e+00 -5.8674883664790145e-01
      -9.3680614445340638e-01 -2.9792015491088719e-01
      -1.0759812488319038e+00 -4.5017932973902747e-01
      -5.4652949638234483e-01 -8.3236541826117016e-01
      -9.4184746652701035e-01 -1.9560988952032461e+00
      -1.1057761814645770e+00 -6.8840558369807880e-01
      -1.7421335878248863e+00 -8.2812301301845803e-01
      -1.0783549215956563e+00 -5.9341098699866945e-01
      -2.5895241274564307e-01 -8.4442890978136154e-01
      -1.9574355999296264e-01 3.8614212375137658e-01
      -9.6648121187882541e-01 -5.0206281643384965e-01
      -1.5170737797008618e+00 -4.2535840432044325e-01
      -1.3915492916387675e+00 1.6243316033262005e+00
      -9.6377639191422892e-01 -2.7148956347883052e-01
      -7.8484844779969254e-01 -2.0416087016231623e+00
      -4.2256597942738550e+00 -3.7488582902132112e-01
      -7.4217648940942793e-01 8.0024728066239703e-01
      -1.8268120040789435e-01 1.0100597868625859e-01
      1.0442298992570962e+00 7.5637037381790417e-01
      5.2484885672056603e-01 -1.3021387116654407e-01
      4.6822841301994389e-01 -2.2441945339597716e-01
      4.6368898465763564e-01 1.5677734720385222e-01
      -1.3306416238774676e+00 4.9777327706935444e-02
      1.2877830680492781e+00 -3.1160172774757897e-02
      6.1034306453977782e-01 -3.7432039540118361e-01
      6.6310049316033048e-01 2.1248476834065344e+00
      8.4890396238956689e-01 -4.9508082323009278e-01
      -6.3011739375826392e-01 9.2819503857544949e-01
      2.6436469815874886e+00 7.2786113233016503e-01
      1.6338257424040141e+00 9.9888852295810224e-02
      1.1114009269342633e+00 4.8510145556052747e-01
      2.4249014913921724e-01 5.2660709063084210e-01
      -2.0127378606881000e-01 1.9517836503594221e-01
      9.3838877072338212e-01 7.8540811557504131e-01
      6.5975115407515217e-01 2.0175670783341522e+00
      -1.1219729721032977e-01 2.4992773669893467e-01
      -6.7720374265645555e-01 3.0441123768174799e-01
      -5.1438049645014128e-01 8.7270873241380303e-02
      -8.4672224806965415e-02 1.0672647160456976e-02
      8.1364221907749487e-02 -1.6808390219555067e+00
      -7.6577443105956866e-01 2.2585328215532344e-01
      -4.7198176234266503e-01 -5.0822672286534830e-02
      3.0421807772821852e-01 1.0389452871463743e-01
      -5.4323087008899218e-01 -8.2210417596372698e-01
      1.8264525755498038e+00 -7.3354261448861735e-01
      1.3820178665579624e-01 -9.5722610920087747e-01
      -8.6781985085105351e-01 -8.9738096593489314e-01
      -1.6060687948196872e-01 -1.1625126882616375e+00
      -1.2559959659289927e-01 -2.8134112962682738e+00
      -7.0080512001845141e-01 -3.1579147647579906e+00
      -6.0943448914810638e-01 -7.0326340645750729e-01
      2.4851735902064820e+00 -1.4405936761696783e-01
      -1.1399318591685368e+00 -6.5571058599811227e-01
      -6.8364445680012631e-01 -2.9122605457456369e-01
      -4.3693768668957600e-01 -9.1050101437442055e-01
      -2.9452695736397583e-01 -8.4695521198032908e-01
      5.8919426623776128e-01 3.4612560049490193e-01
      -2.8630433865367588e-01 -1.3214681683944467e+00
      1.0810437686340753e+00 1.3127036252685620e-01
      -5.2376868936573162e-01 6.8426707305187642e-02
      -1.7702146665299021e+00 5.4444406948385804e-01
      -7.8205120400146111e-01 1.4813028623494793e+00
      -4.3136671453705278e-01 -8.8396332156488633e-01
      -1.9370707040171184e-01 -6.3638543102431055e-01
      1.4242872580946439e-01 -7.2047777716496542e-01
      -1.3879188096536581e+00 -5.6629573565438995e-01
      -2.7367640199002952e-01 -2.6282746313541341e+00
      1.3190549999560156e-01 -3.3613352911298089e-01
      -6.3004751479670451e-01 -1.4564797654965542e-01
      -2.6250037641294335e+00 -6.5211538270292546e-01
      -1.4523463931510421e+00 -9.9837626932271772e-01
      -4.9895219858965789e-01 -3.0626491195302458e-01
      -4.1859080427945122e-01 -4.9918932494030760e-01
      3.3036807782609298e-02 4.0486417835592270e-01
      -4.3665467051080065e-01 -2.1037086582587239e-02
      5.0975682125679611e-01 -2.8945424530106245e-01
      1.3353937514487771e-01 -7.0236809657809740e-01
      2.0662098267702850e-01 -8.7414586536082006e-01
      -3.6877620334956229e-02 -7.1143416584598440e-01
      4.7536049960697202e-01 1.5341626365010361e+00
      8.4375952098748402e-02 -3.5414181878464540e-02
      -3.7348923188004568e-01 1.4017913959487935e-02
      2.0213589077861444e-01 5.9064090830015603e-01
      5.4184766997090006e-01 5.6639238989285567e-01
      8.9027048663307823e-02 -1.8035108533937688e-01
      2.1276687433144573e-01 2.0982736598821523e+00
      -9.3840376110740392e-02 -4.7643339602823281e-01
      -3.6451241100076484e+00 5.0426979501367331e-01
      5.7194099552085853e-01 1.1047414913846552e-01
      -3.1952747281250193e-01 -9.2407265575351907e-02
      -1.2273793491379410e-01 -3.9804971364584296e-01
      -4.8424491993611940e-01 -1.5040404606172508e+00
      -8.1893636760550159e-01 -7.8724367584454613e-01
      -4.6640544368097248e-01 -2.0597243328411871e-01
      -4.1990969932081157e-01 -8.0167576995091050e-01
      -1.9771061420362057e-01 -4.6141827473326236e-01
      -1.1128003709729442e-01 -1.0986794112619922e+00
      -5.3243838459046156e-01 -1.8099532768012655e-01
      -9.0569864179076776e-01 -5.5140339705508502e-02
      -6.8886744970202107e-01 1.2595732696971701e-01
      -8.3410326153689596e-01 -7.8538791340400671e-01
      -7.8423270928047839e-01 2.6205036461064946e-01
      -1.0178864950884485e+00 1.7528195662767171e-01
      1.2737536261766311e-01 1.5837291123470001e+00
      4.7764091509312506e-01 -9.4353477097144145e-01
      -1.9538585603962006e+00 4.5539718132459661e-01
      4.1950276383768970e-02 1.6492973713970741e-02
      1.1815721766109213e+00 -1.1807943920426593e+00
      2.1139461178084484e-01 -2.4802549539709470e-01
      1.5055171728386429e-01 4.4750238479604748e-01
      -9.6021573756353662e-01 2.6253050653796062e-02
      -3.5193634126816697e-01 7.4922646821883143e-01
      -6.7245805718258866e-01 2.7383222891842401e-01
      1.4754908670729916e-01 5.4514807136427992e-02
      -1.1598895328887477e+00 -2.7917035528828421e-01
      3.4068937059157067e-01 6.2879721995404381e-01
      -1.0494934057302039e+00 5.8746667551621209e-02
      -2.7755234984815025e-02 -8.9989932849224541e-01
      7.7790763535845886e-01 -8.1954081514906973e-01
      -6.9228821787863304e-01 8.0731931421280145e-01
      -1.6898249077650038e-01 -3.5133848806966861e+00
      8.4207835422442223e-01 -1.3375642171159763e+00
      2.1507773138519479e-01 -1.5105600902158725e-01
      1.2855956456161817e+00 -9.8177380491134247e-01
      -6.2343959691084949e-01 1.9803014133668453e-01
      -3.5250298536860647e-01 -9.4585564491104224e-01
      1.2288743236209509e-01 1.0705781630209743e-01
      -5.8040293792063835e-01 -9.4630245499820587e-01
      -5.5985777590034203e-01 -1.5034154812313683e+00
      -2.0469295446410385e-01 1.9446691699065385e-01
      -2.5676791715284639e+00 -7.6563205995135986e-01
      -1.0787035040800746e-01 -8.3101579778411305e-01
      1.0159428566903788e+00 -5.1443018303469534e-01
      1.0376155785933701e-01 -4.3592699537105553e+00
      -1.2708788402412263e+00 -6.9059281415633236e-02
      -8.0057388045931654e-01 -9.0240180855889396e-01
      -1.0219044639153076e+00 5.9888218440919405e-01
      3.7082359369137813e-01 -6.8512852667896362e-01
      -9.4784125548939224e-02 -2.4509176970151629e+00
      -3.5048420742162509e-02 -6.3662870977837516e-06
      -6.7663297230155350e-01 -2.7930373088128368e-01
      1.2594552818960412e+00 -9.0515945792241637e-01
      1.3385109627002838e+00 -1.7232786708316680e-01
      5.1172885999763384e-01 3.2798319720320079e-01
      7.2500447553221326e-02 -4.1084497672915632e-01
      5.1947074865660803e-01 4.3611840277763581e-01
      -2.0674503659922111e-01 -5.3511036635745801e-02
      1.0831371219260884e-01 1.1024970663158291e+00
      -1.3251312541767921e-01 2.2530435576944483e-01
      -3.3316394661148790e-01 8.7861682835732513e-01
      7.7983907108232786e-01 5.4974355041867928e-01
      1.0160516547383390e-01 1.8502867897766513e+00
      3.3458748873773858e-01 4.0229522204556073e-01
      3.3223641510634777e-01 1.0188351312669739e+00
      1.4244662389420673e+00 6.7473274367292235e-01
      -8.2596331259326417e-01 -2.3779957622794279e-01
      1.4203892032092591e-01 -4.0673415287932291e-01
      -2.6235788946569599e-01 2.9138880639920905e-01
      3.6703771207712238e-01 7.2368322421588838e-01
      -2.1954100317459616e-01 1.8121156824988474e+00
      -2.8903470531176390e-01 -8.9217620825148702e-01
      2.4435280217721125e-01 2.4633085486856768e-01
      -2.3421615394702880e-01 4.4005916430269229e-02
      -5.0137999869088690e-01 7.0090018737229332e-01
      -7.4564339688060047e-02 7.8233199627425765e-01
      -1.9657152312354040e-01 -1.2227136595921646e+00
      -2.4769785880537817e-01 4.7528632805108401e-01
      -3.1775287575643602e-02 -3.2414143691129815e-01
      -2.4754673940338554e-01 8.7552359114174383e-01
      -9.9619880575473507e-01 4.1727232719366025e+00
      1.4987530565210538e-01 8.9123710512498733e-01
      -5.4509739871722107e-01 -2.2365359259761192e-01
      3.5884004977044186e-02 -6.7389028055599798e-01
      -6.9133796075383142e-02 2.0920906398954431e-01
      5.2395166285779093e-01 1.8694862095382343e+00
      -6.5629497721956831e-01 4.2648328004240094e-01
      6.8756113028597063e-02 -7.3628984609132725e-02
      -1.5946854455559787e+00 -1.8968195335511386e+00
      2.9596711405818727e-02 -1.3388762782010173e+00
      -7.9909005010441558e-01 2.1624026410152658e-01
      3.7995083925292483e-01 -4.9477401016376343e-01
      1.0239533079112310e-01 1.4047374916887201e-01
      1.8531153643379039e-01 -2.1658496416727976e-01
      2.5418174083266537e-01 -1.0618155647803764e+00
      6.9212817877420951e-01 1.1379254193077690e+00
      -7.1601579090624146e-02 2.5494679315598495e-01
      -2.5719153415647100e-01 4.2970566437341690e-01
      -2.7926201757732311e-01 1.1943350186079345e+00
      4.5120715356044372e-01 2.5133988968342064e-01
      4.6087923477835024e-01 -3.1433692406374231e-01
      -1.6046180434402864e+00 3.5258695509334809e-01
      -2.4830630544075022e-01 1.8085524878190748e-01
      -2.0365940398752996e-01 1.8747289251410466e+00
      -4.1977332723688768e-02 6.2988043448109232e-01
      3.0861398995684786e-01 -4.1396750237641250e-01
      -4.6615996009678229e-01 8.1350712050439689e-01
      -5.1228833141755847e-01 1.2078564266894452e+00
      2.8498803952857532e-01 -1.7181876420028169e-01
      -1.4139804797192940e-01 7.9954945007602793e-02
      -4.7072754231514247e-02 8.0456446756809758e-03
      2.8453755673404874e-01 2.2702263944792611e-01
      -6.1486049670953623e-03 3.1823266326452326e-01
      -1.2407851130355656e+00 -1.3474479000462181e+00
      9.6078058781918323e-03 1.7945303804143808e-01
      -4.4267698883015449e-01 5.0450032651187182e-01
      5.2873383141496817e-02 1.8450238156404850e+00
      3.8790569942706227e-01 9.3038356566927927e-01
      -2.4320865097306765e-01 1.5785115862565737e+00
      3.1459283709337695e+00 1.2144544487055160e+00
      -6.5962359424283490e-01 -7.1072920661545413e-02
      7.2260401151714548e-01 1.4970464080227126e+00
      -7.3595334548735999e-02 -1.0867982489707109e+00
      4.1878098110829842e-01 -4.1621328756531205e-02
      1.7630781296096858e+00 7.8744583094396681e-01
      -4.1471761258288620e-01 4.7060718555334735e-01
      -1.0553204402689613e+00 -6.6944078546392161e-01
      -5.5465188491238726e-01 2.5200213558440443e-01
      -7.1354275410949097e-01 -1.4447438642646315e+00
      -6.2378494424173647e-01 -6.3837530773034190e-01
      -6.5022615854365015e-02 -1.3582294702134026e+00
      2.3219145287329931e-01 4.8868972438394925e-01
      -1.1891706999389042e+00 1.6273221948198430e-01
      -4.4481001968893452e-01 -2.5121897736132776e-01
      -7.1214189512743098e-01 -1.6454648122673317e+00
      -6.6742768928846286e-02 -1.3555930659166950e+00
      1.6521454773774305e-01 -2.0642438769262306e+00
      -9.0297305445830556e-01 -9.9647020728778679e-01
      -2.4886990046403026e-01 -5.7248788943876538e-01
      -5.9202498989386754e-01 -2.9288458494532632e+00
      -5.5870145948232544e-02 -3.4370568735718815e-01
      -1.1324683577316534e+00 -7.2181479888045819e-01
      1.2779725632374663e+00 -2.4930054888224507e-01
      -8.7740596088437905e-01 1.7970774945845895e+00
      -4.0613704891809044e-01 -2.6324844476680731e-01
      -6.3988545545592146e-01 -3.6792176621689299e-01
      4.0910895588707430e-01 -9.7434702766573689e-01
      -2.1674855346493491e-01 -4.1430793919862763e-01
      -2.8607314019269953e-01 -1.5123076081399907e+00
      -2.8618252151872380e-02 5.9744516509371093e-01
      9.3652043082522896e-01 -1.0208958733650830e+00
      -6.2470187525692833e-01 -8.2723668484656310e-01
      -1.4309630122341757e+00 -1.6348526029887794e-01
      -9.8823659437950651e-01 -2.3134419367147578e+00
      -7.6636173287266995e-01 -6.7616275331975062e-01
      -1.6772567802086440e+00 -7.8647100789576721e-02
      2.6629159543784731e-01 4.6051133792889254e-01
      -5.9310573100955732e-01 -5.0221603927278986e+00
      2.3674782979088341e-01 -4.4204748377628594e-01
      1.7101677514337368e-01 3.1368319088651037e-01
      -1.2033303149023309e+00 -1.6533145979093087e+00
      -6.4246553861983613e-01 1.6476678426274398e+00
      6.0730927898595743e-01 -6.9632235182847660e-03
      -4.5399049755630860e-01 1.7818800414606115e-01
      -1.0114563458393206e+00 1.2791893725391285e-01
      -2.5038888054250402e-01 -9.2572839119975125e-01
      -2.6780177655345294e-01 2.5653695425907630e-01
      8.0094385790947265e-01 -1.5137283456582269e+00
      -4.6378626446333970e-01 -7.2476114457848539e-01
      -1.4633657454175489e-01 -1.4195607415059918e-02
      -5.3741609468148732e-01 -1.9498878213744997e+00
      -1.2307210008627234e-01 -1.1136825670906798e+00
      -2.3922695872828273e-01 -1.6113789020526614e-01
      1.2014924334578794e+00 1.5930660875164011e+00
      6.7228246474978437e-02 -4.4915680604691022e-01
      5.9596173508251915e-01 9.5833595803744298e-01
      -3.8220837125439300e-01 -1.9885456096045312e-01
      -5.2045827513882215e-01 -4.3916067147060350e-01
      -3.9126992383674242e-01 -1.2350396915167541e-01
      4.9586726392714209e-01 1.1713596611448855e+00
      8.0969735002155818e-01 1.1968106143692405e+00
      9.1092248196970005e-01 1.5249536713626117e+00
      6.9364651409332267e-01 5.3592592626248048e-01
      1.2673471227075690e+00 1.7967449951369547e+00
      1.0823644101434347e+00 2.2164234906758260e+00
      1.3848842213396773e+00 7.7569662459994804e-01
      5.9717605137466068e-01 9.8246637203475595e-01
      1.1594873233420471e+00 8.6087261752103617e-01
      1.2995783813607380e+00 -1.3292338156176350e-01
      1.2504935243149846e+00 1.4038629997542491e+00
      9.3157021174304955e-01 1.7202688492025635e+00
      6.7913662779479056e-01 1.8616158204933292e-01
      5.8526063832799313e-01 3.1957897711043887e-01
      2.1127822944173541e-01 1.1964661915556352e+00
      -2.9167346872176458e-01 1.1274182417906917e+00
      6.7320001171345523e-01 8.6983443875800870e-01
      5.1049778393052414e-02 1.6940278084297811e+00
      -3.1619405060670058e-01 -3.9594111801181231e-01
      -1.5183631268794126e-01 -4.6515809339299607e-01
      -6.3634490581013636e-01 -8.3612241838269719e-01
      -7.2474568549913110e-01 -9.4469724077214057e-01
      -1.0445554744608649e+00 -6.9514261102665598e-01
      -9.3912867693905622e-01 2.6818295174404544e-01
      -1.2195759519586593e+00 -5.4200705695460416e-01
      -4.0775082691972456e-02 3.5384185753441960e-02
      1.8948604682501737e-02 -5.0096787336548387e-01
      -6.9538360044772851e-01 2.9409419326057655e+00
      -5.6247862695068407e-01 -5.0322868264780729e-01
      -3.2492425834004374e-01 -1.2519028886294641e+00
      2.3497815531016600e-01 -3.2716858498779700e-01
      6.8597724020018591e-01 -1.0534621849400796e+00
      -1.5725228093330615e-01 9.7762259759328407e-01
      -5.0021888513001789e-01 8.7118409801918673e-01
      -1.0904946594567473e+00 6.2885239132586179e-01
      -1.7233525001359411e+00 -9.5719911652761946e-01
      1.3935930141813013e+00 1.3393163068057530e+00
      -1.3151191986449923e-01 9.3596115396353008e-01
      1.4205539434232978e-01 -7.8412800767874696e-03
      1.7526696968475293e+00 4.4531719961891297e-01
      6.1110060230565610e-01 1.3936493071444358e+00
      7.2113981782806935e-01 -5.5208233637722443e-04
      4.6735522590746142e-01 1.1563900258927857e+00
      1.9650893166047224e-02 6.7257382555799994e-02
      6.7841302058910458e-01 7.0141141967587173e-01
      6.0111294569911788e-01 -1.1677321015003885e+00
      6.7263760792308347e-01 7.5558988885712441e-01
      7.2415924125718045e-01 7.9907698610846445e-01
      4.1145661437963327e-01 -4.3331901688817365e-01
      1.9548769644609204e-01 1.3395708634336916e+00
      2.4220482110296596e-02 6.2843829562455356e-01
      4.0152079062049695e-01 1.7353998912788757e-01
      6.4818283357899586e-03 3.1795410789901013e-01
      1.5704928933157765e+00 2.5300266210576337e+00
      -5.3780095583552574e-03 -2.9066688247892275e-01
      -4.4119067144897406e-01 -8.7397331538235007e-02
      -4.8926324922637432e-01 2.7462430969500764e-02
      -1.0832306093495558e+00 -5.8929888609302217e-01
      -6.3661267307947389e-01 -8.5073420295862090e-01
      -7.3067657367182615e-01 -1.7985146447657427e-01
      7.4003185928491533e-01 -5.4700765460283562e-01
      -6.7211558855212816e-01 -4.7218410473527950e-01
      -1.8183004669577796e-01 -4.3731122916483828e-01
      -4.7706651612714601e-01 -1.6428818609049911e-01
      -8.2342058315417532e-01 -1.2933952598133935e-01
      -2.9035466982680125e-01 5.0742402751680737e-01
      -2.3782224663420299e+00 3.3008476218682575e-01
      -2.8472650236166286e-01 -1.2786193895790310e+00
      -7.1541183913526207e-01 -7.9144851814152872e-01
      -7.7529874520608533e-01 -3.2976117308299718e-03
      -4.0430995744893017e-01 -1.4767367609508911e-01
      -1.5626559121333636e+00 -9.1988000200265230e-01
      -1.6211222458239030e+00 5.1889731315720777e-01
      7.7603617217486009e-01 -4.5804605454892966e-01
      1.0185254496287528e+00 3.5649524568256785e-01
      7.9703610563422722e-01 6.7641000464410606e-01
      6.0464792473884188e-01 1.1201172479727526e+00
      5.2847773560319145e-01 1.4474336916424280e+00
      2.8140128650846269e-01 5.7333147776224080e-01
      5.9241022676784028e-01 6.3827008689219789e-01
      2.0193986060700711e-01 8.1841879966367070e-01
      5.0709983280666282e-01 -2.2440638218499482e+00
      -1.6128504147629713e-01 3.7222362950547383e-01
      5.0664185061313449e-01 -1.8033376669127635e-01
      1.9819516489361313e+00 2.0882370606306391e-01
      1.2111048594395244e+00 1.7321034948853560e+00
      1.0083805195129576e+00 1.0597864276049780e+00
      9.9700431230561970e-01 3.6067886665204341e-01
      6.8765651146887308e-01 9.6936032483441892e-01
      1.4669219962086855e+00 6.5971718195892259e-01
      5.7556784322989396e-01 -7.1331757737245860e-01
      1.2418500280438964e-01 2.4228764926992805e-01
      -3.6071307207725312e-01 -3.0036027102770740e-02
      -8.0369249790553854e-01 -6.2087950047582607e-01
      -7.0667854258401963e-01 -8.1056914412009018e-01
      -5.1721265484877066e-01 -4.5302005415921970e-01
      2.3581788038486665e-01 -7.4295786323760316e-01
      -7.1815496437377169e-02 -1.6938792401395369e-01
      -1.2561205325750868e-01 -3.1995896467397233e-01
      -4.0888834398794739e-02 -2.7276735059963331e-01
      -9.8619822971643858e-02 -2.6713153144163476e-01
      -4.3290921202775157e-01 1.8096889426824320e-01
      -1.0328783123074707e+00 -4.6662683103078908e-03
      -6.0918699645252627e-01 -9.7442366317184492e-01
      -6.4926174423623428e-01 -2.9684227500183549e+00
      -9.3505330225160288e-01 -2.2307924379208602e-01
      9.3009617811206952e-02 -8.3468557045264802e-01
      -2.1037807601629814e+00 -7.3967312423474429e-01
      2.0283778200872464e+00 9.5646370182913210e-01
      5.2594298302967346e-01 5.1678341661540284e-01
      8.3817996414186136e-01 4.8260239061012189e-01
      1.0174655943883919e+00 9.5135896141107923e-01
      5.9034751513020356e-01 1.1481663293080597e+00
      7.0354193957865740e-01 8.0712829135682140e-01
      8.6601762582785691e-01 1.9991805733702257e+00
      5.1851726360212069e-01 7.0335484432291395e-01
      9.0630481638053395e-01 7.9481437653036080e-01
      4.5755621780614808e-01 9.0414391241078074e-01
      8.4702622974035879e-01 6.6474631227158321e-01
      7.6776949510844117e-01 1.0563602776249861e+00
      -7.7721627999957854e-01 2.6810552581755132e-01
      8.9782232548820326e-02 8.6852430387479307e-01
      2.3875430430604785e-01 2.7982165273029844e+00
      -4.1445201979469654e-01 1.4607425877654272e+00
      6.2320845644636669e-01 6.1359501569544495e-01
      7.8224150427611006e-01 7.8857054307260188e-01
      -3.4944127251590357e-01 -4.2634706776888737e-01
      -1.4408378313993195e-02 -2.0499120156916331e-01
      -1.8494522339904462e-01 -5.1004509414245301e-02
      1.5785562436020653e-02 -2.5569057975000703e-01
      7.5079155873889455e-02 9.5188729228490067e-03
      7.4739999835395116e-02 -3.2293052362719551e-02
      -7.2697323379680184e-02 -1.8966234048450789e-01
      2.4989223904131330e-03 5.3960718841057458e-02
      -1.5152482987579710e-01 -2.0628530170785161e-01
      -1.0346851027515407e-01 3.6378539650143360e-01
      -4.8836623410804865e-02 -6.8767072490462109e-03
      2.6036965464434816e-03 -1.6038327980270903e-01
      3.1975657198710489e-01 8.6802075973151135e-02
      2.0380796564673059e-01 1.4434478524017576e-02
      6.6265163656213863e-02 -2.2012203489739812e-01
      2.7757359309521767e-01 -4.6332803279453473e-02
      -2.0075945237343365e-02 1.9308268436442032e-02
      -4.2195872865178757e-01 3.7162241460044515e-02
      8.3565166414792502e-02 3.2001702623464842e-02
      6.5051563332219047e-03 3.8736545962414541e-02
      -3.9551158323718427e-01 -2.0466009115194134e-01
      -1.4441838285783898e-01 -3.3801512163458958e-01
      -2.2606617067674856e-01 -1.8089660389646808e-01
      -3.2982186447273472e-02 -3.2356963816762890e-01
      -1.0817649860930112e-01 -9.0188375275518720e-02
      -1.2967959859840580e-01 -1.7106996767886512e-01
      -2.7597950175027297e-01 -2.0223932578905307e-01
      -2.3660975818225194e-01 4.9411291572431022e-02
      -2.8626774819512607e-01 -1.4449828640856466e-01
      -1.8330578013163931e-01 -4.2181349060303219e-01
      -6.5849728599291479e-01 -1.3509273727112803e-01
      -1.6257644900516139e-02 -2.1702060574166676e-01
      1.0756556032729573e-02 -7.9418381034544450e-01
      6.9817981720667566e-01 -1.0106891967886820e+00
      3.2943058484542639e-02 8.6187273488583030e-02
      8.5556892914868218e-02 -2.7372145711939933e-01
      -4.1123387825158075e-01 -5.8241628204499407e-01
      1.7307341538486101e-01 -6.6583541442636496e-01
      7.6353525943908720e-02 -3.0098846360393144e-01
      -5.6538744376949446e-01 -1.9741179482143981e-01
      -2.6416761236729785e-01 -5.1770902463760149e-01
      -2.6492771974441581e-01 -3.9976916903271910e-02
      -2.4845402573706474e-01 -3.9681677002969797e-02
      -2.2668591745497010e-01 1.0418360120598427e-02
      -1.1027049240327128e-01 1.7807541966256515e-01
      -1.7658863964549285e-01 -1.3492904966559245e+00
      -6.1105551938088221e-01 -1.2814353928036870e-01
      -6.7193041377552798e-01 3.8077137933593380e-01
      -6.9394203063745985e-01 -8.0315365710081632e-01
      1.8914464256647370e-01 -2.6647555198377249e-02
      -6.8880558843452781e-03 -1.9237594355193359e+00
      1.5872075261519174e-02 -9.1554136665749020e-01
      -3.0407894885085268e-01 -1.1004976606267933e-01
      2.5080909159275827e-01 -4.5719128420342148e-01
      4.1842654604445570e-02 3.3410116185833894e-01
      3.2860740128122951e-01 1.4719213405765705e-01
      2.8075208944501329e-01 2.2894423093685687e-01
      3.5152075142146899e-01 8.7573197363412320e-02
      -1.2342901519598695e-01 1.8376708920773213e-01
      1.2832085742148822e-01 -2.7379581700203004e-01
      8.5003554981365054e-02 6.4801976650132029e-02
      3.5681895026400701e-01 -9.3224563607925998e-02
      4.9608406664582644e-01 2.4420924941513930e-01
      2.3338826146762984e-02 -1.0020283894409570e+00
      4.1341582190895648e-01 4.7650203020057083e-02
      9.6300903031315867e-03 1.3403208594077232e-01
      2.2721216884825560e-01 1.7379826462023060e-01
      1.3453768548118297e-01 5.1173719970936093e-01
      -1.6861944886216490e-01 -2.0452070767293402e+00
      -1.8860154546184663e-01 -4.4342013507849298e-01
      -8.9143255016701631e-02 2.3194529148806192e-01
      6.3279163340264233e-01 1.5939402248975826e-01
      -6.9491696485553978e-01 -1.7840986329691395e+00
      -3.0769815300365294e-01 -3.7487194907139787e-01
      -1.8581702985958598e-01 -1.2986274108692151e+00
      6.0701895059484134e-01 6.1530131711767445e-02
      -1.1395015280797314e+00 -2.9101329980552937e-01
      -2.5565027514563210e-01 1.0563947196013270e+00
      -2.3769708119523858e+00 -1.4093422900117543e+00
      -4.6313132726819406e-01 2.0677699706737188e-01
      -1.5132749817212314e+00 -6.9536330243330391e-01
      4.6855882418356976e-02 1.4090713845363250e+00
      -1.2417284410161580e+00 -2.4889955793837456e-02
      -1.8562912104253765e-01 -1.8073333501875374e-01
      2.9880440283850720e+00 -2.1262808891532170e-01
      -6.4854897846996773e-01 5.2276082884256461e-02
      1.5895111385136057e-01 3.0664665953988584e+00
      6.7618409937771529e-01 -1.2870594426572324e+00
      -6.4320061988865573e-01 -1.7650925124657779e-01
      1.2989479581983150e+00 3.9401572186381112e-01
      1.2007238311421986e+00 -3.4572520778235466e-01
      5.6808157861944275e-01 3.0638884705704511e-01
      -3.2552548212001609e-01 1.5276958812069896e-01
      -4.3543544442556376e-01 -4.6357115762824047e-01
      2.8424818257131840e-01 -2.5471081163296649e-01
      -1.0368260278997427e-01 -1.3759936897741798e+00
      -8.8362399128803937e-01 6.0284666836288947e-01
      8.5010616714182530e-01 -1.6972506552609953e-01
      8.7364103096893297e-01 1.5758371077963562e-01
      -8.0891185846836633e-01 -1.0500621912922714e+00
      8.0371263266663651e-01 -1.1557590972471004e-02
      -8.2443232821329065e-02 -1.4819194590099316e-01
      -7.3819085384506611e-01 2.3654821785260038e-01
      2.3851187325749881e-01 -7.2070189619131042e-01
      3.2150208274616932e-01 1.2215507972228705e+00
      -1.7501001985485165e-01 4.3131319775883864e-01
      2.4991292216210984e-01 -4.5526033915297820e-01
      -1.6110008122035042e+00 -7.2980700956227662e-01
      -2.1127237580341740e+00 1.7780683833583559e+00
      -7.8455876814345826e-01 2.9201554878825103e-01
      -4.1638863702087575e-01 6.4653944486605897e-01
      -9.2930166839011474e-01 -1.4359996912599898e-01
      3.6351929558909601e-01 1.0872294585087162e-01
      8.8269226631534692e-02 -3.6449433655618152e-01
      6.3257379849759532e-01 -5.6191088382709786e-01
      -2.3691739800515338e-01 -4.6950170678140357e-01
      5.9187780196817405e-02 -4.2790810681343022e-01
      -2.1004045762918397e-01 -1.0410215183677867e+00
      -4.0145908210339594e-02 -7.8831768413942682e-01
      -2.5574453690652771e-01 -6.7212319707768753e-01
      1.0627170522602978e+00 2.0893294577982321e-02
      5.9912164193545357e-02 1.9697523047257673e-01
      -5.9395314117965237e-01 -6.0752615766029339e-01
      -2.3560469940546672e-01 3.9797927098003533e-01
      -1.8000225687451166e-01 6.7755233216480415e-01
      -2.0085370618868499e+00 -7.0460665195038880e-02
      9.1060490189826626e-01 -5.3489227496680246e-02
      -3.8690400521183652e-02 -8.3815413939461472e-02
      4.7333181818256476e-01 7.5645184778349528e-01
      -8.8238654394213717e-02 -5.4462936241336646e-01
      7.0498070819291669e-01 3.0038575189091410e-01
      5.4033330635826993e-01 1.3059088198311453e-01
      -4.4983418094400185e-01 7.9421227086652724e-01
      7.5052227254556003e-01 3.6520136863624397e-01
      9.3760406891151749e-01 2.0451150787740760e-01
      7.7270300758946175e-01 2.0527229797193645e+00
      3.3242865186456760e-01 3.0873464661551375e-01
      1.9226410385083667e-01 6.1119141401027255e-01
      2.0743767168848945e-01 8.2139328095384567e-01
      -4.1776285269359233e-02 1.8424670055046868e-01
      -2.1904397871828854e-01 -3.0945143164029378e-02
      -2.1360462694681153e-03 1.2024517402943025e-01
      -2.9288404177391414e-01 -4.0678645475379478e-02
      1.5118189528616055e+00 9.2297752755080054e-01
      1.0604866686286367e+00 1.7793440792469348e-01
      8.1576567462547123e-01 3.5765161840030235e-01
      -3.1638304589904298e-01 -4.9956099221416861e-01
      1.6656483364051611e-01 1.1255903569083709e+00
      -1.0828293787288743e+00 -8.4381499216955747e-01
      -1.4742676594043866e-01 5.8989867922169448e-01
      -2.1018270135550768e-01 8.3967557806604275e-03
      -8.7491583278199991e-01 -1.6738891388869245e-02
      -3.0482791683593707e-01 7.7263342266025870e-01
      -1.7347695000914232e-01 1.7383120396811705e-01
      -3.5600936422938745e-01 -4.5156603191960526e-01
      4.7703088832219659e-02 6.6788298358772735e-01
      -2.1279873376275993e+00 -3.7217649310826578e-02
      -5.5818771901732656e-01 -5.8608345460455036e-01
      8.0994498265323928e-02 -2.6559013567414986e+00
      -1.2004700382487812e+00 1.9552748823182539e-01
      3.7890395117564118e-01 -5.9145048951005941e-01
      -7.8096027276643964e-01 -6.7608589323728721e-02
      -2.8180889808063774e+00 -8.1167690459563180e-01
      -9.3072679388778479e-01 -1.4256765882125029e+00
      -1.1781337149832236e+00 -1.1425174989306182e+00
      -3.1205498121511899e-01 -1.9062883940697097e+00
      -6.2361505503713177e-01 2.4261850104407401e-02
      -8.0385666836202019e-01 -5.8806494646750895e-01
      -2.2797045452093403e-01 -2.0865564150326579e+00
      -7.0566494148214731e-01 -7.1729214707200861e-01
      -1.5478065079240362e+00 -1.1238457357786169e+00
      -9.4468513668111065e-01 -3.1325728828101050e-02
      -1.5167384116837914e+00 -6.5451607020028069e-01
      -5.5632930981151507e-01 -1.6882727185816306e+00
      1.3862262057575183e+00 -9.5312472290756189e-01
      -1.2706763259631351e-01 2.2426334436421311e-01
      -3.9366013956213725e-01 -5.0234332119087366e-01
      7.5809580350744743e-01 -1.1872872042112252e+00
      -1.0749745028645468e+00 1.4344111824642874e-01
      -1.5096176249863344e+00 -4.9070303252810132e-01
      1.2276946111970608e+00 1.2941413117147496e+00
      9.5356693449599150e-01 5.7707193601959561e-01
      1.2597573852955275e+00 1.1573468378984011e+00
      2.7076136818761198e-01 9.7570780027250315e-01
      9.9922280335953539e-01 4.4435778344316201e-01
      7.7250414144839141e-01 5.0184173042013724e-01
      1.5833064288796543e+00 1.6016765434433697e+00
      4.0214932686537308e-01 7.5599140471575332e-01
      9.9399968248726478e-01 1.0839856469790188e+00
      4.8204997208774991e-01 -2.3675779727006203e+00
      5.7531548051040771e-01 1.3195055170332612e-01
      3.9125066269381670e-01 1.5527816159406953e+00
      -1.6955079408619274e+00 7.6677537713710575e-01
      3.8615048919736786e-02 2.4217245771088569e-01
      1.9332239198940915e-01 -2.2322520679948418e-01
      -6.3369196127951921e-01 6.6679899955913480e-01
      8.8242158970758577e-01 -1.5125458912097128e-01
      7.3446967658601359e-01 2.4447883222420369e-01
      -1.1972190954466740e-01 1.0112171028021701e+00
      -1.6262411611219229e-03 5.5562639673970973e-02
      -6.5453386629552815e-02 -2.5810008706713289e-01
      7.2879061641062337e-02 -1.5730981210988854e-01
      -4.3361327918717996e-01 -5.4743611798853190e-02
      -4.2586083879122361e-01 -1.4017350956940261e-01
      1.3554661096101195e-01 3.3431823141984146e-01
      -8.5433581378566312e-02 -9.8470166628003633e-02
      -1.8871619057862088e-01 -2.3749308618947865e-02
      -7.2367436266256968e-02 5.1614059986156324e-01
      1.9604389603912864e-02 -1.9769174060143352e-01
      -1.8743070538136086e-01 -6.2627918326344745e-01
      -6.3067031762289283e-02 -1.7934861379347983e-01
      -1.0214060061575282e-01 1.0197606997838064e-01
      7.5659886338178078e-02 -6.7821328663365021e-01
      -4.6930451913971982e-01 2.8052133863901103e-02
      -1.0315320921306395e-01 1.5479035193553828e-01
      1.1843139808692980e-01 -5.6958918091483526e-02
      -3.5500148982117402e-01 4.6920041535590373e-01
      -6.0020163054299205e-02 -2.0314431071852382e-01
      4.7154313043624979e-01 2.6627164402255676e-01
      -1.7842063510736469e-02 -1.5731848479068211e-01
      2.1595655200243730e-01 2.3063350244771502e-01
      1.5299904423335675e-03 1.0940166226958487e-01
      4.1226600472752584e-01 -4.0066470972409986e-02
      2.9813433110106102e-01 -1.8090849114863911e-01
      3.3358359591829129e-01 -6.4954466102212158e-02
      1.0965530654983849e-01 -7.1771756941578124e-01
      -2.2535819990007105e-01 -5.7973164674394695e-01
      2.7077483146490272e-01 1.8628054679513237e-01
      2.4556027595141902e-01 -7.6938474820811717e-02
      4.5943995595896694e-02 1.4313771103197645e-01
      1.8704428820719970e-01 1.9128017786858980e+00
      1.8638084099458238e-01 5.0438893842536558e-01
      -1.3472469543737464e-01 1.6033592027612175e-03
      -6.7614370188573514e-01 -3.1507238060591131e-01
      1.3799463144432825e-01 -9.6681501242628171e-02
      -4.8031116180797434e-01 2.8432257688289834e-02
      -4.4662117995826206e-01 1.7314258708734870e-01
      -3.0691753169823138e-01 1.7026768915932927e-01
      -9.0797066936846624e-02 -6.5941781967097213e-01
      1.5042934270613101e-01 -1.0703512937481043e+00
      -5.6889419609556857e-01 -6.1144026269713891e-01
      -1.5263858948721890e-01 4.8552107150350736e-02
      1.9071585634798241e-01 -1.1147985681309835e-01
      -6.1966490998276902e-01 -5.5344736772610148e-01
      5.5798886619282240e-01 -1.2257618636994165e+00
      -2.0393130843645535e-01 -2.1620998311229531e-01
      6.5858483684124924e-01 -7.8133995443807425e-01
      -7.9457573305178231e-01 -7.8882068151257714e-02
      -3.1224370227693976e-01 -3.7511535286748576e+00
      1.2429375255565034e-01 1.4872723753851367e+00
      1.0978465693069103e-01 -7.5889979901052851e-01
      -1.4334885017814250e+00 4.1661146143567962e-01
      6.1567317253589016e-01 3.1292921369905985e-01
      -1.7686946839257733e+00 9.2477061684195572e-01
      -4.6361022661660911e-01 -1.7500084150011694e-01
      2.8642297486295437e-01 -8.7381396743202955e-01
      -3.7398527294718886e-01 -8.8442752931114241e-02
      -6.4434927802290454e-01 -9.9256888613821403e-01
      -1.4011011213119493e+00 -2.8795450082029250e-01
      -1.6232760073171720e-01 5.9924058064400343e-01
      -8.1992323907914688e-01 -9.3480127218957809e-01
      9.6197165373077664e-01 9.4013762467811179e-01
      -2.8380945585741102e-01 -1.2030708756361078e-01
      -3.7052935317110486e-03 2.7392830944954205e-01
      -2.4022555368213105e-01 4.3407735664665958e-01
      -9.9505974906112449e-01 3.0537280913731868e-01
      -8.1179586400168779e-01 -8.8470087616234281e+00
      2.6062685365657184e-01 -1.4110598972603257e+00
      -3.2160649466536662e-01 -5.6491594515975185e-01
      2.2798979770256640e+00 1.5532982149884931e+00
      7.0401758352820754e-01 -1.5924403460396890e+00
      -3.1955770223509711e-01 -3.9853567085910335e-01
      6.9333469971492234e-03 -5.7620844804204119e-01
      6.0689717666002743e-02 -5.9942681384031615e-01
      -6.8710718865079967e-01 -4.9344701983521666e-01
      -3.0036468039110914e-01 -6.2056714571969408e-02
      -3.5739604880032283e-03 -1.1564504039758168e-01
      -1.5011964678614695e-01 -8.9764594398871367e-01
      -8.0160446288855519e-02 -2.1585602432111373e-01
      4.7915600751898224e-01 5.2055752068504224e-01
      -9.1610263584353380e-01 9.0857347477567130e-01
      -3.7667278875316657e-01 2.9864266660108890e-01
      -1.9253659894203710e+00 5.3663124671307605e-01
      3.0754233454705027e-01 -5.2821252870355030e-02
      -1.7915300057553257e-01 -7.7851455933804714e-01
      2.1726061276869882e-01 -1.3992270814729688e+00
      -4.0579361900658889e-01 1.8443015983293515e-01
      1.2432704500366232e+00 1.4967003442961746e-01
      -4.7565031213505293e-01 -2.1533644751447378e-01
      2.1278402055071699e+00 -1.1878988185445682e-01
      -1.1659553197759417e-01 2.0166166430332078e-01
      7.7662246741457761e-02 1.2726169703211976e+00
      1.9433567497856416e-01 8.6447117752353952e-01
      4.6455581345594965e-01 8.3779173472055468e-01
      1.5855698445235615e+00 3.3056133827107947e-01
      -9.5776626870375761e-02 1.1429283583235093e-01
      -3.5378995056553098e-01 6.4006575175895064e-01
      -5.1604508229495283e-01 -3.9486572891623689e-01
      -1.9427877116494399e-01 6.5045273867303166e-01
      6.8478153214609466e-03 -2.3988283137024735e-01
      8.6558552025218838e-01 -4.1930691400227793e-01
      9.8017407700628201e-01 -2.7605888232082526e-01
      6.6076164966840512e-01 5.8964642294975844e+00
      -1.3007672331682378e+00 -1.1988386758708449e+00
      4.2617343715854816e-01 4.7549474096781186e-01
      6.3370441953966872e-01 -1.9726964119806696e+00
      -2.1770278189359840e-01 2.8160061398397756e-02
      3.5817188649777804e-01 5.9988461247107626e-02
      3.0021174199286843e-01 4.6090627621042096e-01
      -1.1775235820996488e-01 1.4770174541681163e+00
      5.1928700131451322e-01 3.8380784327651907e-01
      1.6500055140261063e-01 7.3705654411834742e-01
      5.0919465451321810e-01 -2.0609805729671182e-01
      2.6149491120620816e-01 1.5494886301425767e-02
      5.9588024370012016e-01 -1.4969465109888069e-01
      -1.4153178503834923e-01 -1.1914748516050520e-01
      4.5231806903288224e-01 1.0604478225229850e+00
      7.9146333617221079e-02 5.1058974817515923e-01
      -1.9865478023095023e-01 -2.1196615692812240e-01
      4.9179421649629390e-01 5.5724196091668357e-02
      2.4219889900978853e-01 2.7338179915752909e+00
      4.5198379313593168e-01 1.1955475422271888e+00
      4.4845565078453475e-01 2.1139752737905498e-01
      -1.1193236012938441e+00 -5.2523134045563147e-01
      2.5664656800470614e-01 4.8986853404471375e-01
      2.6525952746566189e-01 -1.7199963773286389e-01
      4.1247100639229933e-01 5.1178896053286538e-01
      -3.0743062432835455e-01 1.3844635469730732e-01
      8.1346006702506368e-01 5.1384578031450079e-01
      1.3223537370592969e-01 4.0423166061859211e-01
      2.6188504266581197e-01 2.1114129478853383e-01
      4.6105638298173890e-01 -8.8255481266234954e-03
      7.9648324656423164e-01 2.2114747808467888e-01
      2.5838868348807009e-01 -5.6688970831222107e-01
      3.8094922280975679e-01 3.3099023473931860e-01
      1.5168449596013467e-01 4.9919627886358516e-02
      6.6500339918694210e-02 -4.3017815996418490e-02
      5.9490020599922300e-01 4.6077841767373878e-01
      5.4071277328451328e-01 -3.0292274444288408e-01
      2.5170214910730956e-02 6.1584354842936551e-01
      2.3366822611526245e-01 3.7294490327844043e-01
      -2.5706758459863915e-01 1.1135279894299753e-01
      2.5580596470973871e-01 -4.6676469989471094e-02
      2.3156853736022756e-01 -7.3338386719693435e-02
      2.4314535310117991e-01 2.5214623202026981e-01
      5.5919480740872857e-02 4.4327110078594056e-01
      5.4632946032553487e-01 1.1910989630635944e-01
      -7.5322783995804596e-02 4.6033347967824312e-01
      2.2879132106680654e-02 -7.8323082313634954e-02
      2.8240238544853341e-01 2.4486274128783583e-01
      2.7572811665045804e-01 1.8104617540077669e-01
      2.1772147467778163e-01 2.2122022953415688e-01
      2.9496660879418679e-01 9.8265831458014208e-02
      5.0501482614135944e-02 6.2712655829696662e-01
      1.4255823899438635e-01 8.5182232528690394e-02
      2.6578405018388573e-01 5.5414094897981485e-02
      3.5275831623791021e-01 2.9568581360410151e-01
      8.1539637634884449e-02 1.0590091716014777e-01
      3.8491037645537052e-01 5.5116420981158910e-02
      1.5659379119568317e-01 2.4319380012607184e-01
      -8.3505958364584765e-01 -1.3972707941477314e+00
      -1.1677129292260096e+00 -1.7792984387328368e+00
      -1.3633875759735405e+00 -9.3714593041711014e-01
      -1.2790960093335686e+00 -2.1595982881228917e+00
      -1.7747418307077341e+00 -2.1752840211686011e+00
      -1.1614523477518994e+00 -1.2968180225988684e+00
      -1.4823427279952821e+00 -6.3142833667211518e-01
      -1.4860654406699612e+00 -1.0756338604510156e+00
      -1.9334071370252521e+00 -8.9280656265245217e-01
      -1.0649035091701726e+00 -7.7244077762552943e-01
      -1.3119071326653666e+00 -1.9649544661165994e+00
      -1.2163178978366613e+00 -2.1621874469754783e+00
      -4.3171900719523765e-01 -9.2156385901115523e-01
      -7.3519893556472571e-01 -1.2008671880098976e+00
      1.5537634711562815e-02 -2.7034816122524421e+00
      -2.0865120479119046e+00 -5.8068367679586530e-01
      -1.2219485787345237e+00 -2.3993916055344444e-01
      -2.1459415255184306e+00 -1.6962273856817356e+00
      4.9760703181649873e-01 9.5609997880726638e-01
      5.0741400574404616e-01 1.5183054300567100e-01
      -1.8036293551492910e-01 3.4732646464089939e-01
      -6.2151696407010723e-02 -1.2133363768795354e-01
      5.5966283087213764e-01 8.9643260479802855e-01
      1.1294813997423038e-01 -5.9129891686515251e-02
      1.5942824928317537e-01 -1.8191205735389332e-01
      4.8327730865350854e-01 2.1909873527104228e-02
      9.4282841394227579e-01 -2.0934833511141826e-01
      3.3180609465440680e-01 1.5175538269883297e+00
      7.5807826591016159e-01 -2.2511474257040331e-01
      3.4574322039245364e-01 9.5904939219055829e-01
      -8.0933249658496598e-01 2.5314849714184873e-01
      -3.5214576167923228e-01 -5.2763029344208900e-01
      -6.1960902412278251e-01 -8.6078104595694516e-01
      1.2236285043636495e-01 8.2133042326300010e-01
      8.7451041465075569e-02 -4.3466226012891668e-01
      -9.6835186240264515e-01 2.9360622671324157e-03
      8.8300907790409566e-01 1.3646614726356197e+00
      1.1719817376443056e+00 8.2236515591996096e-01
      8.7775781562250854e-01 1.3391231946393838e+00
      1.1882450260516446e+00 1.3116299582534181e+00
      1.2860168231635012e+00 1.3931346042693933e+00
      1.0726728655658611e+00 5.7830848481161379e-01
      1.8349854268291863e+00 -1.5310578472204506e-01
      8.5285097279507160e-01 1.1250590557649787e+00
      1.1734840516776193e+00 1.9117353190722750e+00
      9.8339285154074774e-01 1.0280390125043992e+00
      9.1307500410698983e-01 8.1520750323258118e-01
      1.0736288488529426e+00 1.7807981911145301e+00
      1.3320518243407102e+00 2.1590073083071619e+00
      5.6636051166645174e-01 8.0434884019703567e-01
      1.1791095317253719e+00 2.3457611106766003e+00
      1.7235072989549194e-01 -1.2136536244005036e+00
      1.0249554826133838e+00 8.5174448697088634e-01
      3.8528970677407872e+00 1.5308834078066564e+00
      -8.6672288764002306e-02 -2.4435880308809044e-01
      -6.6391323087180931e-02 -3.8989546007961018e-01
      1.3268273512943177e-01 -7.2163765891712625e-02
      -4.2448844114679607e-01 3.0493165305736364e-01
      -5.1875786590876438e-01 2.0339511805542332e-01
      -3.2016867265578858e-01 -2.3990345684020811e-01
      -5.5932645962336325e-01 -3.2778570342206426e-01
      -2.8367486627012278e-01 3.1056648594018719e-02
      -3.5123059123382816e-01 -6.9306199051983555e-02
      -1.0315140985420831e-01 -1.5448189574213550e-01
      -2.7058342693610066e-01 -1.0397145952792619e+00
      -7.8914550206983340e-03 -6.5102988932766936e-01
      3.3714139892934503e-01 -4.1915553146321977e-01
      -4.3600867452813580e-01 -6.6024305643961251e-02
      -4.2912753701210699e-01 2.2041756307542850e+00
      -1.4182094729805386e-01 4.4488081291486276e-01
      -1.9827433338666084e-01 -2.6848467683642480e-01
      -1.6030657948927503e+00 -1.0644789038419578e+00
      1.4184473037349672e+00 -1.3252705995655796e+00
      -5.7362052769052974e-01 7.8603152511854357e-01
      3.2537632288994539e-01 4.8950741755382464e-02
      5.9902288984513363e-01 -3.8850600517785841e-02
      3.1180961145482122e-01 -2.2265904429360278e-01
      3.5016522265427519e-01 1.2220650619923255e+00
      2.4896889885362702e-02 -6.4579766379085013e-01
      -8.8663348630667049e-01 1.1376481304895207e+00
      -8.5105332133221773e-02 4.2448352535730793e-01
      4.6007884046064434e-01 -1.0143663436719469e-01
      2.4106794828565184e-01 9.5160808765258453e-01
      3.6356760919712666e-01 1.2171464788742097e+00
      -1.6962798765808942e-01 -3.3440360472921443e-01
      -1.9393726427935301e-01 -6.7935067718375253e-01
      4.4970164842156851e-02 2.4141814265348591e+00
      -4.5232713521162810e-01 1.4607021855056572e+00
      5.5021761456695284e-01 -6.9997365062446693e-01
      2.3937706410736018e-01 1.9612177865963982e+00
      -4.5412253985453160e-01 1.3705254961766884e+00
      4.8651697101225894e-01 1.0952329549460720e-01
      1.2561116498393138e-01 -1.0648076934996144e-01
      2.0383515767664274e-02 5.3200403284601350e-01
      -2.2719128554201581e-01 1.9363384230618313e-01
      -1.4988730382739981e-01 -4.9229584380938268e-01
      -6.1995199920924157e-02 6.6049608102574886e-01
      5.4355447762401643e-01 -3.0978480060597263e-01
      4.0498730813172436e-03 -8.5627512015051838e-02
      -3.2744567192899532e-02 2.1434618228115968e-01
      5.0154773456469093e-01 -6.2555670598218283e-01
      2.3821343466084213e-01 -5.3885710843377077e-01
      6.0330536002142165e-01 1.8394634039466350e-02
      1.1043411072011432e-01 2.4129500198785425e-01
      5.7586793991626958e-02 -6.4265762315051911e-01
      4.1452102060950624e-01 -5.6379766305671997e-01
      -1.1452458472217261e-02 2.6057375064209332e-01
      5.0873487271658982e-02 -7.1870702849122270e-01
      -7.2580693139540864e-01 -1.5271023744297041e+00
      -1.3300181318868454e+00 1.6702083380269475e-01
      -2.1635344896563943e-01 4.3176802455722148e-02
      -4.6731642791139411e-01 -1.4521113200519351e+00
      3.8250287808394007e-01 3.8394817368706669e-01
      -1.2998376593192490e-01 -1.4298043394050981e+00
      4.7688070469364285e-01 -2.6903417529578666e-01
      -1.0264815324250387e-01 -6.6627531733714040e-01
      -3.1120837249245081e-01 -4.1263982592436699e-01
      -9.0713682983905308e-02 4.7973893889047281e-01
      2.9518924698573926e-02 7.0659821453845717e-01
      -6.4510232753191482e-02 -5.1192904763031222e-01
      -5.6009778604116534e-01 5.6519005294893743e-01
      7.2973681943664725e-01 -3.3427782201765094e-01
      -5.4690645136219063e-01 4.2491351913043260e+00
      -4.6240493446978842e-01 -2.0212639330677035e-01
      -4.8652449186764718e-01 1.9461652534543328e-01
      -3.0852959323595647e-01 2.3734477059958953e-01
      -7.8683397128656374e-01 -2.3118712009973089e-01
      -1.1726118919968462e+00 1.8695504540862448e-01
      2.8956939267248200e-01 -6.8851515422297704e-01
      1.9114448029894424e-01 -4.2479231588523608e-01
      -4.2865614524479423e-01 -2.3806613576229260e-01
      -4.7944288960656162e-01 -6.1707376152419424e-01
      1.7451698991867587e-01 -6.9021813693982081e-01
      5.1701048596880128e-02 -8.7379962694412472e-01
      -6.0806557255425397e-01 -4.7536020388115785e-01
      -1.4027025040405208e-01 -1.8616827250662864e-02
      -2.8917934860647126e-01 9.3522663482970991e-01
      -1.0463091156254591e-01 -2.6532266383698772e-01
      1.4684994836327634e+00 9.2502860175942270e-01
      -3.5553883310713125e-01 7.2921917261059432e-01
      -1.4708751684027416e-01 2.1730510615593124e+00
      4.5506712728480136e-01 -1.6054274361820664e+00
      -3.3261339168514248e-01 -3.3321458311077279e-01
      1.2362379247877642e+00 -4.4020537668298293e-01
      -6.5987087976780678e-01 -1.3514628133025632e+00
      -9.7315599875548831e-01 -4.7513220055232869e-02
      -5.5907678321968435e-01 -2.5761019672195518e-01
      -1.0024222944888270e+00 4.5752035238898542e-01
      -4.6694883915539626e-01 2.2573260962555355e-01
      -3.2568363819075313e-01 -1.1088493260647738e+00
      1.2825129198292512e-01 -1.0711605924738128e+00
      3.0389857260979569e-01 -9.8411096520136854e-01
      -6.8453392858243445e-01 -1.7391074055993976e+00
      -1.4409854524580232e-01 -3.8011648454719174e+00
      -1.5381773368741217e-01 5.3025818739934361e-01
      -8.4631896820298214e-01 -7.8215268555692441e-02
      -2.5352386751471458e+00 -1.5542095352126322e+00
      -3.6389110088961657e-01 -5.1501655821791814e-01
      -8.3501612891186927e-01 1.8458911785277883e+00
      -3.5442726185531175e-02 1.7498319760849879e+00
      -3.1163596174086478e-01 -1.0288858234197253e+00
      -4.4458306738869071e+00 -1.1607356799673922e+00
      5.1785933940739404e-01 -3.8773082654343632e-01
      8.9953587561098358e-01 5.0233294821787655e-01
      9.4056326838751411e-02 4.3571215856052953e-01
      -5.5436693440310036e-01 8.1651408795351055e-01
      -1.9070553674644868e-02 4.5890712357167951e-01
      2.6678099286784418e-01 1.1474042251516785e+00
      4.1817266467215264e-01 -2.1355532006829245e-01
      -6.2807041555946297e-01 1.1727074580515139e-01
      3.8540172268583472e-01 3.7616063067677458e-01
      6.1158945870036907e-01 9.4871333813591707e-01
      4.0689982051310764e-01 7.9597423848181248e-01
      -3.4677894920896929e-02 3.7745596781577473e-01
      1.6480520953859876e-01 7.0627564497363748e-01
      -8.3801590530227191e-02 -6.9219094829950290e-01
      -6.5479211079157562e-01 -3.2456461127716492e+00
      -4.5264481798064865e-01 -2.2386128409773415e-01
      8.2145045634118952e-02 5.6803480966318942e-01
      1.1680518525326160e+00 -4.6274561149144550e-01
      4.6106789984593793e-01 -8.2552357031191681e-02
      5.3712432433563641e-02 -4.7429576061235246e-01
      8.8369155839728472e-02 1.8728395295538983e-01
      7.2826561013926727e-01 2.9590451184149762e-02
      3.2776099309270834e-01 -1.6582358381800530e-01
      -1.3531558428844470e-01 1.3789606550825624e+00
      -7.7725578476575385e-01 -8.3216316582807766e-03
      6.8755177885939800e-01 2.2760051600077300e-01
      1.7664345508301232e-02 5.3673683528806963e-02
      1.2894103642958701e-01 2.4878495902982816e+00
      -5.7873636544195040e-01 4.6223602844839964e-02
      1.7482038522439385e-02 5.4349409787005787e-01
      6.3181531808018321e-01 6.6071171531904771e-01
      4.9770984790355693e-01 4.1560004895235941e-01
      1.2011692961204576e-01 -9.0542630888528897e-01
      6.0141914407782116e-01 7.5582858057111779e-01
      2.3922482758807248e-02 -3.2439659756192223e-03
      1.0735273766758353e+00 1.4510439433096101e+00
      -3.4192171608847244e-01 -4.6949050364804834e-01
      -2.4636430206384747e-02 -3.4187758746360042e-01
      -8.7179928842104093e-01 -6.9674599898953027e-01
      -8.0362009764487752e-01 -5.5970230927597686e-01
      3.2337920630316382e-02 -4.2732742699202686e-01
      -4.8320228656040576e-01 1.1499371199870391e-01
      7.1205166440642820e-01 1.4524039326302371e-01
      -1.6401821308970645e+00 -1.6958091859255339e-01
      1.0977595911724766e-01 -3.9824669675512285e-02
      -2.1363307166940193e-01 -8.0859861826794957e-02
      -6.2535592652234206e-01 -4.2320736138754333e-01
      -1.0601649572102628e-01 -4.2332250807713551e-01
      -1.0328355258089332e+00 -2.7241796752045150e-01
      -7.9193599402958925e-01 -1.5326479027828026e+00
      -9.3609366244247483e-01 -1.0639639111102643e+00
      -6.4263372093823434e-01 -1.1240334479444909e+00
      -5.2470098409079746e-01 4.4630907379872280e-03
      1.3388344419142911e-01 -1.1621633300088314e+00
      9.9896226285056211e-01 1.2781744067527476e+00
      -6.7106850819942249e-02 7.2870410345551218e-01
      -9.7475148399495451e-04 -1.8946095450607456e-01
      6.3725542377040534e-01 6.5756798374355752e-01
      6.2818233072757995e-02 6.6461547724204512e-02
      4.6353331128286129e-02 -7.1633396351064227e-01
      -1.0207570202491028e+00 8.2703068907017896e-01
      9.0155912623049139e-01 6.5572004027896724e-01
      -2.6877637494000889e-01 -7.4814177442065772e-03
      4.0285622945636362e-01 -5.7901151725056832e-01
      4.0929397931832140e-01 3.4424437362636728e-01
      3.9720846255186321e-01 -3.1759251186176374e-01
      3.6726847516156341e-01 -8.0738911096914567e-01
      4.5350806688370077e-01 9.6739421966279360e-01
      4.6026188348672642e-01 -7.7878178546699028e-01
      1.2698460617201771e-01 3.4648488311347164e-01
      1.8272941674587842e-01 -1.0469579650125549e-02
      8.7096676020074559e-01 1.2896997839457234e+00
      2.7877808009121563e-01 5.7775179070952232e-01
      -1.2780397120847827e-02 -9.0010188570974048e-01
      -9.1357544187462814e-01 -9.9591322246772154e-02
      -9.5177431003452906e-01 -4.0904990575163835e-01
      -3.5675444018140473e-01 1.4691579161713580e-01
      -5.7473964496114616e-01 -8.6040393650679592e-01
      -8.1023839758747751e-01 -6.2386772379985223e-01
      -3.3376354955846671e-01 -6.4268263602173659e-01
      -2.6631282460762640e-01 -2.0939220675143913e-01
      -7.6753663997914789e-01 4.1826197105787912e+00
      -3.0564323575471419e-01 -9.6854538347600583e-01
      -2.6267885317083700e-01 -1.3058416458713376e+00
      -6.5556252446498986e-01 -1.2899799601753363e+00
      -5.6863778067291126e-01 -1.7762660721893436e-01
      2.1641475649606479e-01 -1.7282873492784054e+00
      3.0357200054168826e-01 -1.3493710430192529e-01
      -3.4800244224301335e-01 -2.9467749464602355e-01
      -1.0776518414402454e+00 -9.8206159972162566e-01
      2.0287409236706580e-01 1.4385454690496586e+00
      7.8810243938640910e-03 -3.6910026566227766e-01
      6.5601604983741901e-02 -2.0840275093740002e-01
      -9.9014176696371214e-01 1.8495190157879732e-01
      2.5641940287661541e-01 -2.3140681816259417e-01
      8.5756098962959271e-02 1.5930338802594757e-01
      7.8533926654177300e-01 6.0246855548718781e-01
      -1.5940266846178477e-01 2.4447119588594884e-01
      -5.8465210074838925e-01 3.1144749506472430e-01
      -3.7851214296574071e-01 -1.9728168413731721e+00
      -4.9800216524967073e-01 -6.4405103931933816e-01
      8.5142126895240339e-02 -3.9388476784120385e-01
      -1.2063573103753391e+00 -8.6157634781569803e-01
      -1.6672608523322302e-01 1.4887596175299819e-01
      1.3588267346022614e-01 -1.1291049881369926e+00
      1.9455263248071605e-01 -3.5480908699803698e-01
      1.2476741083778137e-01 -3.8702245299353294e-01
      1.0042308351997891e+00 -4.8588980712538743e-01
      2.2085694387705690e-01 8.9896161337729663e-01
      -1.4270639333570319e+00 -1.0027969875395637e+00
      -2.4030949065721474e-01 -3.1459259848198423e-01
      -1.3382178391997888e+00 -1.2166757790509946e+00
      6.2597108383073286e-01 -1.6001947071154872e+00
      -5.4329747221903368e-01 -9.8453731945032952e-01
      -1.3720291382304874e+00 -1.8068670419050839e-01
      -6.8030886001961688e-01 -3.3924601847474101e-01
      -1.9341984398126394e-01 8.0633588897211328e-01
      -4.4324607363359642e-01 -3.3516593746141692e+00
      3.3216156899409932e-01 -8.4020539198593847e-01
      1.3364167629640683e-01 -1.5029598434030176e+00
      7.4374968233024297e-01 2.2706447736749089e-01
      -4.0185781671998227e-01 4.6716113769680201e-01
      1.9591241774066264e+00 2.5503418614617962e-01
      -1.7621431027523973e-01 -1.9987026953587670e+00
      -6.7640738755365237e-01 -3.6990694812136848e-01
      2.8081692948005577e+00 1.2136085788590356e+00
      -2.1467616979776779e-02 3.7727615062808595e-01
      5.9669118476370353e-01 -1.2849733020867687e-01
      7.1455514895064992e-02 -5.3295792044753720e-01
      1.0863857275545248e+00 5.7758882802738409e-01
      4.5396162240372234e-01 7.5228354644643580e-01
      3.4428153691721691e-01 5.5553358162038580e-01
      7.7342093108261833e-01 4.4519030215492783e-01
      1.3710305874863674e-01 -1.9443126425884119e-01
      -2.9079621279146306e-01 1.0362668936053782e-01
      3.3012887448046208e-01 2.6249293129478981e+00
      -4.2228594224301935e-01 -2.3111540124408611e-01
      3.6023560036873226e-01 2.1672282188026706e-01
      -4.0483673776819146e-01 6.2408372476314411e-01
      2.8318757459265625e-01 4.0949920797419775e-01
      3.2755925171225786e-01 7.1974609786090749e-01
      1.2148727883368673e+00 4.7686682141796005e-01
      2.7836187880567242e-01 5.2665738774001547e-01
      5.7758323730302863e-01 2.2040394518211071e-01
      2.8748287674367562e-01 2.2182634720703098e-01
      -6.7468613006218581e-01 -2.0310459118281202e-01
      -5.5889307917556322e-02 9.6930037517948797e-01
      -5.6458555738902350e-01 -1.0679252968331503e+00
      4.0370422818965024e-01 -6.8325647242296583e-01
      2.7723381278960024e-02 -8.5264268130859833e-01
      -3.8763908968364735e-01 1.6005072766879871e-01
      1.6546107168470475e-01 -2.6088027690989601e-01
      2.6375420070124450e-01 -1.3206323974891060e-01
      -6.0484044852285122e-03 -1.7649726785183728e+00
      2.3465940249906600e-01 4.1471455270023452e-02
      -4.0453206010518322e-01 -3.3814273482065565e-01
      -3.9236974817034212e-02 7.4866101711674071e-01
      2.6594497866731182e-02 -3.7826957087002944e-01
      -7.1032078363713125e-01 1.1757964599702908e+00
      -1.1155442865930523e+00 -2.2561053741650866e-01
      -4.7878814261300418e-01 -3.7683102567993221e-01
      5.6703263160195427e-01 2.9478523935980733e-01
      -4.4824312513833858e-01 7.0029210625540539e-01
      1.2805900312287228e+00 3.6405992471515725e-01
      1.1521568949040013e+00 6.9497797296955710e-01
      1.5814545116060355e+00 1.6869245166722184e+00
      1.3970566507741442e+00 8.7069524088993222e-01
      7.6617253942256114e-01 2.8710516617989295e+00
      1.0812169365750697e+00 -2.3724738636650960e-01
      3.4353250345918590e-01 1.1266658296987100e+00
      2.2284630550442674e-01 6.9407876059050300e-02
      6.4951038003468808e-01 1.7166023363666780e+00
      4.2809293873352611e-01 1.1255600082346109e+00
      9.1155552491454517e-01 1.8421151473233133e+00
      1.0331254348287937e+00 4.9560711570046773e-01
      6.2412432695974851e-01 8.1876142207034808e-01
      8.9671818696670980e-01 -1.1766583432425533e+00
      1.7241430171872789e+00 1.6506938938912774e+00
      8.8363556216606243e-01 4.8228731006593967e-01
      9.2457901918762486e-01 4.0823981583663022e-01
      7.2340819491327202e-01 2.3070524626173247e-01
      -2.3904789748782526e-01 2.6375675723406561e-01
      -4.8088326309008406e-01 -1.8530608590008077e-01
      1.1395538872554383e-02 -2.3926000795734098e-01
      -4.6755424932550457e-02 -9.5353834803055121e-02
      -1.9057559811700453e-01 -3.9895284634267170e-01
      -2.3129529680582078e-01 6.0846118966852776e-02
