<?xml version="1.0"?>
<opencv_storage>
<opencv_ml_ann_mlp>
  <format>3</format>
  <layer_sizes>
    144 72 36</layer_sizes>
  <activation_function>SIGMOID_SYM</activation_function>
  <f_param1>6.6666666666666663e-01</f_param1>
  <f_param2>1.7159000000000000e+00</f_param2>
  <min_val>-9.4999999999999996e-01</min_val>
  <max_val>9.4999999999999996e-01</max_val>
  <min_val1>-9.7999999999999998e-01</min_val1>
  <max_val1>9.7999999999999998e-01</max_val1>
  <training_params>
    <train_method>BACKPROP</train_method>
    <dw_scale>1.0000000000000001e-01</dw_scale>
    <moment_scale>1.0000000000000001e-01</moment_scale>
    <term_criteria>
      <iterations>1000</iterations></term_criteria></training_params>
  <input_scale>
    2.2260486742440450e-01 -2.1549685142531594e-01
    1.3723110813564600e-02 -8.4027663135364783e-01
    1.0487786847433496e-02 -1.0589630989103405e+00
    1.0476668654096402e-02 -1.2195597842357691e+00
    1.0911148874187463e-02 -1.3706667399087158e+00
    1.1349599183705357e-02 -1.5236786885858808e+00
    1.1721185065662580e-02 -1.6619724705526284e+00
    1.2026625628590672e-02 -1.7799858856119117e+00
    1.2370395189250745e-02 -1.8426110033589913e+00
    1.2417943895446372e-02 -1.8648095004693162e+00
    1.2831939222059668e-02 -1.8917640628160191e+00
    1.2945223556076654e-02 -1.8083730468018542e+00
    1.3631122157658753e-02 -1.7428263468448617e+00
    1.4011526363269107e-02 -1.6233554600597957e+00
    1.5001875722059434e-02 -1.5930369217770648e+00
    1.6078201856284925e-02 -1.5900523554280954e+00
    1.8732573517652579e-02 -1.6816875179011390e+00
    2.2404140752952776e-02 -1.8224969636931325e+00
    2.5107939908037537e-02 -1.9262205929344449e+00
    2.5742547815448231e-02 -1.9285788771070933e+00
    2.5844155064609374e-02 -1.9344702109639043e+00
    2.5850909723334071e-02 -1.9327304228656901e+00
    2.5842107019318449e-02 -1.9310348815653537e+00
    2.5780523464282341e-02 -1.9165464244031318e+00
    2.5708351782463747e-02 -1.9002818491460340e+00
    2.5617214485235556e-02 -1.8918261580811031e+00
    2.4883320968344620e-02 -1.9003011397058043e+00
    2.1046571675504916e-02 -1.7016608534129090e+00
    2.0356799745853447e-02 -1.6480574728861961e+00
    2.0403528451010199e-02 -1.6298094926848101e+00
    2.0548343860763776e-02 -1.6085393405879866e+00
    2.0545096610125432e-02 -1.5781539813204286e+00
    2.0500519572764858e-02 -1.5572033685828104e+00
    2.0537030337816304e-02 -1.5702740107138580e+00
    2.0579291131384920e-02 -1.6066217957657323e+00
    2.0582807544880413e-02 -1.6464283412428495e+00
    2.1195763578693023e-02 -1.7175947953288579e+00
    2.4193826480311081e-02 -1.9000344405383889e+00
    2.5853010266587626e-02 -1.9641379165648338e+00
    2.5536273471439257e-02 -1.9620451964252854e+00
    2.4910673436263599e-02 -1.9660848811948597e+00
    2.1980894836921269e-02 -1.8224337012525971e+00
    2.0534331065971689e-02 -1.7677409987463786e+00
    2.0035384676686353e-02 -1.8042128792259240e+00
    1.8834361446131164e-02 -1.7907478451790591e+00
    1.7746935362743192e-02 -1.7467470901832685e+00
    1.7049781796745440e-02 -1.7216761731048904e+00
    1.6654616344116628e-02 -1.7240196925190214e+00
    1.6679892553335421e-02 -1.7712555660857203e+00
    1.6666030913345505e-02 -1.8204553954608023e+00
    1.6885161319286180e-02 -1.8966588931417308e+00
    1.6867671479069871e-02 -1.9041702135252250e+00
    1.6360288590614312e-02 -1.8751132399001849e+00
    1.6132510058346969e-02 -1.9301546466278876e+00
    1.5677391072201823e-02 -1.9706172808461804e+00
    1.4718600165257882e-02 -1.8683027994144787e+00
    1.4557146088561396e-02 -1.8112513229664762e+00
    1.4106264201067220e-02 -1.7209591461368592e+00
    1.3884959711415472e-02 -1.5961423171527558e+00
    1.3639520743081505e-02 -1.4571849746310717e+00
    1.3284425264740066e-02 -1.2956982277735818e+00
    1.2872171730755061e-02 -1.1328037149313066e+00
    1.2573540025804679e-02 -9.7424029674702972e-01
    1.2290342447692091e-02 -8.2711641145573978e-01
    2.2278008531213928e-01 -4.9540899980970715e-01
    1.7255512907089619e-02 -1.4926433460615862e+00
    1.5987605890460270e-02 -1.9388424593935865e+00
    1.6454417505140019e-02 -2.2171081640696819e+00
    1.6521361348814077e-02 -2.3518290262739954e+00
    1.6439869082831352e-02 -2.4376663763616917e+00
    1.6391775060493930e-02 -2.5088846366989555e+00
    1.7438749839746418e-02 -2.5865899939588686e+00
    2.6803525315826273e-02 -3.0276095985679916e+00
    2.6830204720283628e-02 -2.5812989534832842e+00
    2.5433090334199406e-02 -2.3284585194244567e+00
    2.4458972829088963e-02 -2.1778735852175726e+00
    2.4947569107535698e-02 -2.1759107856273912e+00
    2.5878141803180366e-02 -2.2089420104808490e+00
    2.6786957472033295e-02 -2.2470050393022700e+00
    2.7770822845658783e-02 -2.2995264920252669e+00
    2.8716741950329226e-02 -2.3454168885832432e+00
    2.9574127556017262e-02 -2.3686127295129045e+00
    2.9845575498061085e-02 -2.3665544490512049e+00
    2.9680590560240548e-02 -2.3544104679386328e+00
    2.9731838135171686e-02 -2.3582624565988373e+00
    2.9668774244311139e-02 -2.3503969061410084e+00
    2.9754725173169853e-02 -2.3601719805328663e+00
    2.9782903284626728e-02 -2.3656550533176675e+00
    2.9752048075260190e-02 -2.3784032781118745e+00
    3.0387988458512375e-02 -2.5252698426545637e+00
    2.8129258951472568e-02 -2.4303285293341808e+00
    2.5851139987717150e-02 -2.3201315282758235e+00
    2.1858981016679720e-02 -2.1492536568490244e+00
    1.8406219170855064e-02 -1.9342067751109753e+00
    1.6995806034872930e-02 -1.8671615661249750e+00
    1.7115474843792843e-02 -1.9388637560806872e+00
    1.7237435608421257e-02 -1.9589192262982535e+00
    1.6486338759018372e-02 -1.9027923205100679e+00
    1.6431394766673407e-02 -1.8766456590434488e+00
    1.9620652642195629e-02 -2.0643457769554061e+00
    2.2864421520198755e-02 -2.2008590466766220e+00
    2.4840791107342809e-02 -2.2657190027503118e+00
    2.7094907022475127e-02 -2.3591750480029607e+00
    2.8963412977539522e-02 -2.4681492637319189e+00
    2.8380452343966141e-02 -2.3505620727827941e+00
    2.6981407044231902e-02 -2.2173960252578393e+00
    2.6345512467213870e-02 -2.1790177036900262e+00
    2.1854643513473680e-02 -1.8779337931762810e+00
    2.1277475802678362e-02 -1.8377183653252782e+00
    2.1212565198271534e-02 -1.8447019503666271e+00
    2.1171073654731108e-02 -1.8379681164555874e+00
    2.2719091149111772e-02 -1.9292222083187576e+00
    2.3153069731861271e-02 -1.9456370473230920e+00
    2.7405696396610668e-02 -2.2496662009414097e+00
    2.8773879098881371e-02 -2.3047577430296697e+00
    2.7721964481572346e-02 -2.2676889036058374e+00
    2.7625633027207691e-02 -2.2869774049139164e+00
    2.8031885450918639e-02 -2.3516427133589830e+00
    2.8192666207715898e-02 -2.4393738321642298e+00
    2.7253615431111468e-02 -2.4868247108070012e+00
    2.4198275170755443e-02 -2.4857261291821855e+00
    1.5189680487551441e-02 -2.0541079167747682e+00
    1.4262277015848998e-02 -1.9860620728300140e+00
    1.4601761921862936e-02 -1.9773909576844353e+00
    1.5063332398829697e-02 -1.9577890366617414e+00
    1.5654481130657823e-02 -1.9216057470876382e+00
    1.6173808572948426e-02 -1.7903822900040940e+00
    1.6161881531646070e-02 -1.4042460562425187e+00
    8.9082243313785107e-03 -1.3979059720009357e+00
    9.9364141907158712e-03 -1.1383308964794729e+00
    9.9991088502343044e-03 -1.3359322198725865e+00
    9.5807850511247083e-03 -1.4972556084511506e+00
    8.3303759936326528e-03 -1.3397380591605828e+00
    9.8950024407346501e-03 -5.0751213800516715e-01
    1.0099599426233995e-02 -5.0443614672721027e-01
    8.2346549229759553e-03 -9.2728548782650000e-01
    8.0910938287672204e-03 -1.1856149490420234e+00
    9.3291078703756185e-03 -6.3636476070667325e-01
    1.0036103072256670e-02 -5.7123439999475278e-01
    8.0265581025984242e-03 -1.0466014338241991e+00
    8.7666643664488057e-03 -1.2768983829131395e+00
    1.0945596613523123e-02 -6.7413648886365496e-01
    1.0512291032182691e-02 -7.2478203478041126e-01
    8.6431668001361438e-03 -1.0338113971608995e+00</input_scale>
  <output_scale>
    5.2631578947368418e-01 4.9999999999999994e-01 5.2631578947368418e-01
    4.9999999999999994e-01 5.2631578947368418e-01 4.9999999999999994e-01
    5.2631578947368418e-01 4.9999999999999994e-01 5.2631578947368418e-01
    4.9999999999999994e-01 5.2631578947368418e-01 4.9999999999999994e-01
    5.2631578947368418e-01 4.9999999999999994e-01 5.2631578947368418e-01
    4.9999999999999994e-01 5.2631578947368418e-01 4.9999999999999994e-01
    5.2631578947368418e-01 4.9999999999999994e-01 5.2631578947368418e-01
    4.9999999999999994e-01 5.2631578947368418e-01 4.9999999999999994e-01
    5.2631578947368418e-01 4.9999999999999994e-01 5.2631578947368418e-01
    4.9999999999999994e-01 5.2631578947368418e-01 4.9999999999999994e-01
    5.2631578947368418e-01 4.9999999999999994e-01 5.2631578947368418e-01
    4.9999999999999994e-01 5.2631578947368418e-01 4.9999999999999994e-01
    5.2631578947368418e-01 4.9999999999999994e-01 5.2631578947368418e-01
    4.9999999999999994e-01 5.2631578947368418e-01 4.9999999999999994e-01
    5.2631578947368418e-01 4.9999999999999994e-01 5.2631578947368418e-01
    4.9999999999999994e-01 5.2631578947368418e-01 4.9999999999999994e-01
    5.2631578947368418e-01 4.9999999999999994e-01 5.2631578947368418e-01
    4.9999999999999994e-01 5.2631578947368418e-01 4.9999999999999994e-01
    5.2631578947368418e-01 4.9999999999999994e-01 5.2631578947368418e-01
    4.9999999999999994e-01 5.2631578947368418e-01 4.9999999999999994e-01
    5.2631578947368418e-01 4.9999999999999994e-01 5.2631578947368418e-01
    4.9999999999999994e-01 5.2631578947368418e-01 4.9999999999999994e-01
    5.2631578947368418e-01 4.9999999999999994e-01 5.2631578947368418e-01
    4.9999999999999994e-01 5.2631578947368418e-01 4.9999999999999994e-01</output_scale>
  <inv_output_scale>
    1.8999999999999999e+00 -9.4999999999999996e-01
    1.8999999999999999e+00 -9.4999999999999996e-01
    1.8999999999999999e+00 -9.4999999999999996e-01
    1.8999999999999999e+00 -9.4999999999999996e-01
    1.8999999999999999e+00 -9.4999999999999996e-01
    1.8999999999999999e+00 -9.4999999999999996e-01
    1.8999999999999999e+00 -9.4999999999999996e-01
    1.8999999999999999e+00 -9.4999999999999996e-01
    1.8999999999999999e+00 -9.4999999999999996e-01
    1.8999999999999999e+00 -9.4999999999999996e-01
    1.8999999999999999e+00 -9.4999999999999996e-01
    1.8999999999999999e+00 -9.4999999999999996e-01
    1.8999999999999999e+00 -9.4999999999999996e-01
    1.8999999999999999e+00 -9.4999999999999996e-01
    1.8999999999999999e+00 -9.4999999999999996e-01
    1.8999999999999999e+00 -9.4999999999999996e-01
    1.8999999999999999e+00 -9.4999999999999996e-01
    1.8999999999999999e+00 -9.4999999999999996e-01
    1.8999999999999999e+00 -9.4999999999999996e-01
    1.8999999999999999e+00 -9.4999999999999996e-01
    1.8999999999999999e+00 -9.4999999999999996e-01
    1.8999999999999999e+00 -9.4999999999999996e-01
    1.8999999999999999e+00 -9.4999999999999996e-01
    1.8999999999999999e+00 -9.4999999999999996e-01
    1.8999999999999999e+00 -9.4999999999999996e-01
    1.8999999999999999e+00 -9.4999999999999996e-01
    1.8999999999999999e+00 -9.4999999999999996e-01
    1.8999999999999999e+00 -9.4999999999999996e-01
    1.8999999999999999e+00 -9.4999999999999996e-01
    1.8999999999999999e+00 -9.4999999999999996e-01
    1.8999999999999999e+00 -9.4999999999999996e-01
    1.8999999999999999e+00 -9.4999999999999996e-01
    1.8999999999999999e+00 -9.4999999999999996e-01
    1.8999999999999999e+00 -9.4999999999999996e-01
    1.8999999999999999e+00 -9.4999999999999996e-01
    1.8999999999999999e+00 -9.4999999999999996e-01</inv_output_scale>
  <weights>
    <_>
      2.6360414971781915e-01 -1.0788031120478005e-01
      2.5727103574802429e-01 -1.8450695592849206e-01
      5.5551557405647267e-01 3.4963543632799077e-01
      -2.2868845904012711e-01 -2.3757077669710375e-01
      1.3735016422429785e-01 3.3033399424576775e-02
      -2.0920089446840057e-02 -1.8385006029485332e-01
      2.3322353239938307e-01 3.5400259303246634e-01
      3.5216815670118896e-02 3.1265452745203258e-03
      2.4000200631930113e-01 -1.6003908506272457e-01
      1.4604465705505476e-03 2.7356680822624845e-02
      -9.0344670638342603e-02 1.2734532221020237e-01
      -1.4533241804246566e-01 -1.6479493826862784e-01
      6.0311418342956814e-02 4.4447022740850045e-01
      -5.7133028535663793e-02 1.5157200385238399e-02
      3.7128398909781418e-01 2.1901965687384742e-01
      -7.9232079299328295e-02 -1.1568986345042348e-01
      -1.6009921521989236e-02 -1.0911777009441150e-01
      -1.2005256043894198e-01 2.2142048464150760e-02
      -2.6130890214632444e-02 5.7559277011879087e-02
      5.8044214822914511e-02 -2.2492134959523274e-01
      1.6776747353996332e-01 1.8284128888986687e-01
      1.6836233306872586e-01 -2.4253171821722921e-01
      -1.1344620069100008e-02 1.3529822797965878e-02
      1.8366424521152605e-01 4.0657338512404700e-01
      -1.9181751844315117e-01 -2.3921756420691546e-02
      2.1149633694185896e-01 -3.3448653419624808e-01
      1.9228874446000033e-01 -2.3726202821583636e-01
      3.2477183768006804e-02 3.5289638458292832e-01
      -2.9369029387478758e-03 7.2577970269001632e-02
      -4.0212202189436823e-02 7.2915509636270158e-03
      -1.0079022902237647e-01 2.0053988262612382e-02
      -1.3224596509572092e-01 2.4215720736995572e-01
      -2.6602617171579593e-02 2.3503420820192752e-01
      2.0053521817707018e-01 1.7983657975543157e-01
      -2.3086399674081517e-01 -5.3093646750173383e-02
      -3.5883444595674518e-01 1.2724522919596043e-01
      4.1512371432440898e-01 -5.0261096856052645e-01
      2.0938705664892407e-02 7.3349262976455765e-01
      -2.2248139700517031e-01 -1.4972462604398665e-01
      1.0555582262461927e+00 2.3932851504748956e-01
      8.5380500398579329e-01 3.8894422326200945e-01
      -2.4590046407450664e-01 5.8677607650177835e-02
      2.8792473876607610e-01 9.7657421151716228e-01
      3.0138160398946412e-01 -4.1395973119367135e-01
      4.9566888154380989e-01 1.2143421663369212e-01
      -1.2571300232525520e-01 -7.2450065961764865e-01
      -8.1416696987538795e-01 1.8837109846743258e-01
      1.2849368067044412e-01 7.1723351215904518e-01
      8.3868542633633392e-01 2.3006459876119928e-01
      -8.5294654129191194e-01 -5.9874592144915029e-01
      -3.3144480756299172e-01 -7.9233968108254937e-01
      3.7876511366212928e-01 5.9224819602741496e-01
      3.7759376496414560e-01 -1.1402174283316954e-01
      -1.7025152277753186e-01 9.6180198492647317e-01
      4.5341600569677792e-01 8.1782837194371252e-02
      -2.8255759951668381e-02 -8.0825726660630159e-01
      1.0593929071630526e+00 3.4939449371118342e-01
      1.9219667925664916e-01 3.4117169537219927e-01
      4.7655793846141359e-01 7.5369093560501399e-01
      -5.9061142923392235e-02 4.4185617762591478e-01
      8.1204693483309665e-01 1.2076124793725641e-01
      9.0973126731353360e-01 -2.8377112374739771e-01
      -6.8640882467062203e-01 -1.8088209137108788e-01
      -1.1751816766224706e-01 -6.8991527867362767e-01
      -6.8941690948087753e-01 2.3365091818363160e-01
      -2.9846314339107560e-01 -3.9305289421258932e-01
      1.8126130833151215e-02 -5.6259145194644411e-01
      5.5630507191280584e-02 9.2140509622620559e-01
      -6.9178063970751580e-01 -6.8811695048384036e-01
      1.1398382718095039e+00 2.5872753671179383e-01
      5.1235616535406414e-01 -3.8414808113848298e-01
      -9.9481558945661530e-01 -9.5318527233031622e-02
      6.5366726280515164e-01 -5.2220625636874862e-01
      3.7512055304909903e-01 8.5643516568328548e-01
      -1.5188661767853368e-01 -2.3660579299754830e-01
      7.9889524679428481e-01 3.3519656749964516e-01
      1.1012994332220061e+00 5.5641271420392635e-01
      -1.4314719378090629e-01 1.8238039733193781e-01
      2.3910703619919360e-01 8.2672110882878125e-01
      2.6230951964359644e-01 -9.1898944841111233e-02
      3.2563161652209666e-01 3.5705602603969838e-01
      -2.6696805457856010e-01 -6.8591475232980192e-01
      -9.6071942885928263e-01 3.6278689964241528e-01
      1.2495328228892996e-01 9.1185299551267829e-01
      9.4119032705027239e-01 1.9709737393240501e-01
      -1.0140394338643959e+00 -7.6567625070717693e-01
      -3.3030986397802431e-01 -1.0200230705626068e+00
      6.0991545216497378e-01 6.8874740544172519e-01
      4.7596160975879265e-01 1.0120209632825329e-01
      -3.8203389533232573e-01 9.4056414790234577e-01
      4.6010084438806448e-01 4.0360762717395793e-01
      2.3090530425898001e-01 -9.4628434804646744e-01
      1.2360376925780625e+00 5.0581464673937870e-01
      1.7553553965141963e-01 5.9786662166264859e-01
      6.7946066574798480e-01 6.5372349999535895e-01
      -3.0938885186541037e-01 7.5582604924041419e-01
      6.9871053575658926e-01 -1.2748181420083479e-01
      8.0952074757454651e-01 -5.0459892280503160e-01
      -5.8930825441003853e-01 -2.0301926838152695e-01
      9.5261248759329689e-02 -1.2047976920377579e+00
      -6.6812464076345079e-01 3.2048287403463616e-01
      -7.2888441542666479e-02 -2.5607351902438730e-01
      3.5644140558141901e-01 -7.8811724967479413e-01
      -6.7457674451958174e-02 1.0265421335141567e+00
      -9.8254203471527679e-01 -8.2893715119826783e-01
      1.1878746452313445e+00 3.3788771484509245e-01
      5.8283963397628447e-01 -4.5885676179112128e-01
      -1.1174288986075052e+00 -3.0918711505938057e-01
      7.3472163016593206e-01 -5.6632909423598721e-01
      3.9578197051454128e-01 6.4918385694995517e-01
      -8.3459405530888472e-02 -2.5773759299933258e-01
      7.4085108422851609e-01 3.6586361367459858e-01
      1.1011753850016086e+00 5.0244125653203098e-01
      -3.3231681428931785e-02 2.3021572501964857e-01
      2.1397852414475521e-01 6.7112741251476637e-01
      1.8604209599558355e-01 1.0090983398807843e-01
      2.4295257571975493e-01 2.3636699995514904e-01
      -3.2511768904818056e-01 -7.9608012844932075e-01
      -8.9718942386757461e-01 3.6664612373918676e-01
      2.4219357174023098e-01 8.6824983691164215e-01
      9.1399256792952277e-01 1.3423710392024263e-01
      -9.7143563173163716e-01 -8.3782879804684596e-01
      -1.6564422526856068e-01 -1.0335087943530579e+00
      5.7437927965740609e-01 7.2477957090787948e-01
      6.1287953003094675e-01 1.4270741996174191e-01
      -3.5936330253291315e-01 9.0197283186310695e-01
      5.1755207060061370e-01 4.1593480210199690e-01
      3.1108183162819897e-01 -8.7125496692164339e-01
      1.1455938253383378e+00 6.2816703448029676e-01
      9.2185670644052670e-02 7.7318043653152591e-01
      6.7286225658472876e-01 7.2952633793250377e-01
      -2.8796040988786431e-01 7.7563711962607851e-01
      5.9417686380779056e-01 -1.9430706079640564e-01
      9.1005076413631369e-01 -2.7571808260048264e-01
      -5.2179106745957304e-01 -1.4491083163987589e-01
      2.2276681611220953e-01 -1.3101691643869828e+00
      -7.1589127244278017e-01 4.1450808062063521e-01
      1.2590220230764775e-02 -1.9669754836961562e-01
      4.2258317907678145e-01 -9.0533592684368525e-01
      -5.2857668746318413e-02 9.5932341476945238e-01
      -1.0243598385421897e+00 -8.4600759121123659e-01
      1.0946177583276830e+00 3.3821117086643493e-01
      5.8829970464725034e-01 -4.3847164443822251e-01
      -1.1267301471521576e+00 -3.1748795945730263e-01
      7.9766554835644121e-01 -5.8133277953740625e-01
      2.8622918692684141e-01 5.4239440640850578e-01
      -1.0809171962779332e-01 -2.3694544879437948e-01
      7.3348822773583799e-01 3.5779792310196751e-01
      1.0048643822452110e+00 4.8960194758339687e-01
      -1.6536240633626211e-02 2.7061258818922695e-01
      2.1933896686590332e-01 6.6029247853702489e-01
      1.9359198843218706e-01 1.5520045996222492e-01
      2.1439962653297848e-01 1.6310430123649625e-01
      -3.7669535436903084e-01 -8.1500093353981817e-01
      -8.4417035629405490e-01 3.2840296096234323e-01
      3.7350789977561111e-01 8.7562976119884528e-01
      8.6384754768253724e-01 9.4588942966139830e-02
      -9.1083834450747037e-01 -8.5742147786365797e-01
      -4.8729547291089415e-02 -1.0351559115584890e+00
      5.1579144333787585e-01 7.4963021742258118e-01
      6.7851040983835442e-01 1.3321999993388736e-01
      -3.7819490499060909e-01 9.4623747283036397e-01
      5.6599620393033345e-01 2.8515410731060026e-01
      3.2494762538868954e-01 -8.9926567915583555e-01
      1.0437599290973685e+00 7.1770210204606733e-01
      1.2226534223686919e-01 8.7846783762295799e-01
      7.1665662082836279e-01 7.5856644017363262e-01
      -2.9551644709837527e-01 8.2199740750121209e-01
      5.3451653036599822e-01 -2.1114759111773812e-01
      9.5777380860781547e-01 -2.0738844852616947e-01
      -4.0938811886626009e-01 -1.6582089753297691e-01
      2.5011878329392584e-01 -1.2340577211770394e+00
      -7.4703680673085104e-01 4.3284094014496038e-01
      -6.4428213288746594e-02 -2.1787199710882615e-01
      3.3371693311038547e-01 -8.8926805200716741e-01
      -1.0950997127998692e-02 8.7836077461047013e-01
      -1.0180139369972383e+00 -8.1909775782632832e-01
      1.0007105280086850e+00 2.7570356629407183e-01
      5.9328927694096845e-01 -4.8799617764180020e-01
      -1.0654585437316142e+00 -3.6364032196494300e-01
      8.2758544768648190e-01 -6.0471627682305296e-01
      2.4127112000044024e-01 3.7978789152711723e-01
      -3.3811758791092723e-02 -1.9461875489589847e-01
      7.2268376541671453e-01 3.6226290327792982e-01
      8.8691003759100806e-01 3.8323009862497365e-01
      -3.0556225252237900e-02 2.3368512384411153e-01
      1.5450526004301582e-01 6.3819865710295043e-01
      1.8075502872567048e-01 9.3730728241265909e-02
      2.0062143598924892e-01 4.3514224301934745e-02
      -4.0371022784498711e-01 -8.0276555909417557e-01
      -7.6111917370176230e-01 3.6333205249433420e-01
      4.4774143855181880e-01 8.1922213165965607e-01
      8.7138997650635075e-01 7.7776766749563755e-02
      -8.2743055774770913e-01 -8.4881080171536027e-01
      2.5144097301938506e-02 -9.6173469951658341e-01
      5.2105407294966566e-01 7.8661900199067580e-01
      6.3314681336363865e-01 6.8079591311782595e-02
      -3.6855029537049000e-01 9.2939342604475716e-01
      5.7946629529485449e-01 1.6530297400428143e-01
      3.6777885133551386e-01 -9.5760942937971838e-01
      9.2893429214425594e-01 8.0225251795496466e-01
      9.9420083177775953e-02 9.1685461334896967e-01
      7.1676688789826948e-01 7.3970543478370543e-01
      -2.7568569552861044e-01 8.4204347010403091e-01
      4.6307421454423303e-01 -2.0015601200876873e-01
      1.0251804700337912e+00 -1.2426036121083493e-01
      -3.3721311139202770e-01 -1.8185478307881595e-01
      2.6196214374124582e-01 -1.1417594916171698e+00
      -6.9825881440417092e-01 4.3891488778667076e-01
      -9.7653360064476238e-02 -2.4902350024882447e-01
      2.6222203918763437e-01 -7.5459025727886864e-01
      7.0360117454369665e-03 8.1407004258758509e-01
      -9.8718029583025635e-01 -7.8822574764251130e-01
      9.2276989716208946e-01 2.5682956857585865e-01
      5.2702114729973570e-01 -4.5864075048240688e-01
      -9.6116336866289509e-01 -3.4147283463801520e-01
      8.4478618735655953e-01 -6.0642585513334180e-01
      1.7944695467861219e-01 2.1952111992111231e-01
      3.9793350616145959e-03 -2.4580245801916939e-01
      7.5999079753902044e-01 3.7730468131914929e-01
      7.6830279812563240e-01 2.4897133736212315e-01
      -4.7534698841395447e-02 1.8390523536569262e-01
      6.5589321218764429e-02 6.0504294796178026e-01
      1.3540497814813163e-01 -4.7456322005382613e-02
      2.0170750872716425e-01 -6.6379169546086372e-02
      -4.2919957428243216e-01 -7.6873058880091238e-01
      -6.9789227070566284e-01 4.2086596808852750e-01
      5.8948544263000091e-01 7.9321604498843035e-01
      8.5910129182231054e-01 4.0068983484453660e-02
      -7.4217553399169689e-01 -8.1339580695389280e-01
      8.9180094275558897e-02 -8.7188782288359390e-01
      5.6436174979248588e-01 7.9991818249074276e-01
      5.9684730157194521e-01 4.1451489572160584e-02
      -3.4057634221124683e-01 8.8614415655293244e-01
      5.3894864874238202e-01 4.3232375505408670e-02
      3.8487377022718711e-01 -1.0655747164172913e+00
      7.9715871126647109e-01 8.5238658279012536e-01
      7.9943787531193494e-02 9.0758636612898014e-01
      6.7546637523205399e-01 6.8178737885490992e-01
      -2.2557631747416446e-01 8.3853797491556925e-01
      4.0751904275011902e-01 -1.8621704050942603e-01
      1.0708389859026812e+00 -5.8814579895313489e-02
      -1.6251467414217369e-01 -1.7970459325514104e-01
      2.2225120146675853e-01 -9.9505546348028928e-01
      -6.5832731522365262e-01 4.3241577537833392e-01
      -1.1354415556949653e-01 -3.0441624945155316e-01
      2.2212499478294181e-01 -6.5783898825270437e-01
      2.5856683990418024e-03 7.4830148821307185e-01
      -9.1829322961042237e-01 -7.7419633705535396e-01
      8.3655136728620161e-01 2.5871294691854740e-01
      4.5220321672466357e-01 -4.5653903910022486e-01
      -8.5667151465508928e-01 -2.7521893908418715e-01
      8.5625028304030060e-01 -6.6430676177948600e-01
      2.2126057714449210e-01 9.1521783722440062e-02
      -4.1198224201740727e-02 -3.2999679462124110e-01
      7.0711207404844634e-01 4.0569568161936609e-01
      6.9766577059315482e-01 1.2676081664218036e-01
      -6.0891240027352606e-02 7.7679036535060780e-02
      3.9579055662116218e-02 6.0221252234195155e-01
      1.3631684102775779e-01 -1.4141525190722604e-01
      1.7893629067828415e-01 -1.5585683310305745e-01
      -4.6137302217782733e-01 -7.8302247664646385e-01
      -6.4017689059801020e-01 4.4003498315200623e-01
      6.8522638925861878e-01 7.5608270460987126e-01
      8.3975763260550917e-01 7.1491146844617562e-02
      -6.6503540236912595e-01 -7.9420590224578247e-01
      1.0168239693785164e-01 -8.3595806681218732e-01
      5.9402848970415822e-01 8.2185771294055399e-01
      5.8771975920912856e-01 3.0256680779892344e-03
      -3.6322972666769082e-01 8.5747479469380061e-01
      5.2056969723751245e-01 -5.9615137587371227e-02
      4.2126547416634530e-01 -1.1032480974702725e+00
      7.3289265003674953e-01 8.8271351623300309e-01
      2.6412791380060505e-02 8.2473051315154966e-01
      6.4437331020000743e-01 6.1592466374416421e-01
      -1.3681472898054517e-01 7.6418671046878583e-01
      3.7053863530280784e-01 -1.8412965075114943e-01
      1.0901248176220006e+00 3.9896620814690191e-02
      -5.3284010125528622e-02 -1.8409388083682532e-01
      2.3026850347765218e-01 -9.1550860903591313e-01
      -5.9263306263871041e-01 4.0317717347336079e-01
      -1.1653360523593179e-01 -3.3947240749129981e-01
      2.0902931948986322e-01 -5.3508431348839747e-01
      -5.8300532697835800e-03 6.6477391872203340e-01
      -8.9167828819794526e-01 -7.8968458101282657e-01
      7.6328752495380559e-01 2.2366733926746221e-01
      4.1596631806716461e-01 -4.8904901474483664e-01
      -7.7995834726870472e-01 -2.4542804344162916e-01
      9.3554408250610988e-01 -7.7274376274139556e-01
      5.0215407326943318e-01 -3.8862666941848013e-02
      -6.9331787648724927e-02 -4.4316275127580573e-01
      3.4966924922121989e-01 -1.2616299569122410e-02
      4.9749132343625280e-01 -2.5428850264213476e-01
      2.8963853088757794e-02 -1.7347968484776308e-01
      -1.7013636686506852e-03 5.1116895236619597e-01
      5.0546901912187539e-02 3.3840251531443072e-02
      1.6673414464716142e-02 -3.5625991437666599e-01
      -1.4899451380740991e-01 -4.7206071670566907e-01
      -5.3140859857495781e-01 2.3245419888956573e-01
      6.2794396804953445e-01 7.2101659266162832e-01
      7.1922234504894100e-01 1.8816981290449036e-01
      -5.6263621473159153e-01 -6.3218706885885967e-01
      1.5915457082520221e-01 -7.9822034857973767e-01
      6.0057432857142712e-01 8.1342514834689417e-01
      5.6197965549300444e-01 3.7195349657111534e-02
      -7.0701248207177703e-01 4.4460379016935964e-01
      3.0210682227308727e-01 -1.1067912061337899e-01
      4.2166258520619476e-01 -7.6435505167863216e-01
      5.8847169712109282e-01 8.3150927138359065e-01
      -1.3165071219053628e-01 7.1041399123979321e-01
      6.3083255689575812e-01 1.3774882291932544e-01
      -1.3730318751111423e-01 6.7960984960111237e-01
      5.0452712230924246e-01 -6.2688873249067009e-02
      1.1481931666791603e+00 6.5639308584319322e-02
      2.7517257607112511e-01 -1.3359732056861995e-01
      6.1587813594154150e-01 -7.2690114408674511e-01
      1.2842969514886640e-01 3.1128771890080087e-01
      1.8479765358501224e-01 -3.1694677374487071e-02
      4.6087044874001343e-01 -3.6615186863715227e-01
      4.4257780063707834e-02 5.6454536787637355e-01
      -7.9749381660374430e-01 -7.2376077398222016e-01
      5.7129063439821814e-01 1.2905892532751265e-01
      2.4851024022411011e-01 -5.2893954764069495e-01
      -7.1250388062442183e-01 -7.6271049259133639e-02
      1.0037545363978291e+00 -8.3114955197925988e-01
      5.4802771940438577e-01 -4.8466930797451964e-02
      -1.8651437857422834e-01 -4.8139584968517685e-01
      3.2534937144677761e-01 -2.8864939712517390e-01
      3.5297271645484668e-01 -3.7297673125324232e-01
      7.4319988186266658e-02 -3.6080407632046557e-01
      2.0480865857640935e-02 4.4685573941947149e-01
      -6.9266098329611211e-02 1.5626310547848937e-01
      -4.4422991691782730e-02 -3.6911019268136880e-01
      -8.0567158677882986e-02 -4.0397196129734902e-01
      -4.6238559980539989e-01 9.1291904661143612e-03
      5.8106576430160062e-01 7.6126249490125286e-01
      6.2179436671106791e-01 2.1589617314089463e-01
      -4.9729278679675448e-01 -5.7373467429287228e-01
      2.0839663244677353e-01 -7.8688069779649117e-01
      4.7393221912473937e-01 8.0568305187814859e-01
      5.9476106121058259e-01 4.6603143172682555e-02
      -1.2353585665452933e+00 4.2468531237679119e-01
      3.0637534039565162e-01 -1.1128121203902400e-01
      4.0104524854455725e-01 -5.9122948866188096e-01
      5.0186869162142367e-01 7.3846339796212424e-01
      -1.7027389939232423e-01 3.7586891395791572e-01
      6.2023961865467747e-01 -1.0659986359446023e-01
      -1.0114046776981532e-01 5.3275959743944701e-01
      4.9737752182650757e-01 -1.0588544852739277e-02
      1.0120243453618671e+00 2.5270442496538570e-01
      1.1442371457502403e+00 -1.3628317350296562e-01
      7.5906127226765796e-01 -7.2963264750626122e-01
      5.3216815838501519e-01 2.5806885944283592e-01
      5.6548373748985681e-01 4.0259047046437450e-02
      6.0843245473906848e-01 -2.6715478095758505e-01
      1.3080659388741520e-01 5.1734406600365801e-01
      -7.3387145550030253e-01 -7.2967597329669143e-01
      4.7772825055564433e-01 1.2827126434038558e-01
      1.6479167867483266e-01 -6.3397664756718319e-01
      -6.2623180503843678e-01 9.1878689602999213e-03
      9.9696779677368030e-01 -7.7008079865219337e-01
      5.8720829933947749e-01 -9.3837396916698110e-02
      -4.4085346579884044e-01 -4.6791303369756088e-01
      4.7751173984201856e-01 -2.6890270993253901e-01
      1.9074104661050237e-01 -5.7292881903389015e-01
      5.7789571129526963e-02 -4.1306490102197030e-01
      1.6179551731544856e-01 3.3506876521369083e-01
      -3.0722192415457455e-01 1.1351870301543902e-01
      -2.7574299926546969e-01 -4.9903156717228875e-01
      -1.7890878583734508e-03 -4.4266339049452741e-01
      -3.9855902874445437e-01 -9.5549113576058817e-02
      5.2001538004995695e-01 5.4586820432008809e-01
      5.6698528984651719e-01 7.7016213639986106e-02
      -4.8503580944744235e-01 -5.3137147923566641e-01
      3.5204502468720805e-01 -6.3096691267119343e-01
      2.1760367456158880e-01 7.2909325479343778e-01
      7.7826171829372792e-01 1.9317583298152349e-01
      -1.0256603192980409e+00 5.9062697644500262e-01
      4.6089501947453115e-01 -1.3606870310768468e-01
      2.4842568804790541e-01 -4.1096767271808149e-01
      4.2791261402093911e-01 6.5609523445942286e-01
      -2.9883983731774022e-01 3.6648776202394617e-01
      7.7436914571322946e-01 -1.8563760603228990e-01
      -5.4523184509301194e-02 6.3756232295263460e-01
      4.9821354234852705e-01 2.3032305230986133e-01
      4.4612866464675338e-01 3.9848528205622857e-01
      8.5424882386188861e-01 -2.8544844220339372e-01
      9.6143459828563937e-01 -7.2990663372232867e-01
      2.4057351292010851e-01 1.6060122755881501e-01
      4.2186518848004367e-01 -6.5678406080124624e-02
      6.6803772415909191e-01 -4.5289514637414841e-01
      3.2091852279728500e-01 3.8748852922015442e-01
      -6.8517415529518066e-01 -7.9688938429430156e-01
      4.4570330779280637e-01 3.0549991783846614e-01
      2.5914250452696258e-01 -5.8310035374491398e-01
      -3.7252038037077956e-01 -1.1039661502590527e-03
      1.1590543063499534e+00 -6.6137295536582652e-01
      1.0827765157390894e+00 -1.0361952488352054e-01
      -1.0117814315210700e+00 -2.7904371688915525e-01
      3.5800908890041611e-01 -2.8720845200341316e-01
      -4.1669717385497608e-02 -5.3554037803843402e-01
      3.2895382029504698e-02 -5.8006283621534671e-01
      2.3471630071119762e-01 -1.2784078558883344e-01
      -5.6157236941566047e-01 1.6370519829204022e-01
      -4.5945195463118221e-01 -4.9357895861059858e-01
      7.2690350302813761e-02 -6.9334406978467089e-01
      -2.0325137988826875e-01 -6.1786901934378441e-02
      3.6486227402965304e-01 4.4304310094144395e-01
      3.8849729354656659e-01 8.6308360735014605e-02
      -3.1060412211770611e-01 -4.9315241355983802e-01
      7.2356190868625558e-01 -5.0323696855871580e-01
      3.0038258088846480e-02 5.1979537554593569e-01
      8.0927242406425071e-01 5.2716806958999329e-01
      -9.1683055716656126e-01 6.1009445554938946e-01
      5.2998828119542640e-01 -1.9105075206570291e-02
      2.5396823076061070e-01 -3.2877258019135475e-01
      2.5788741991343872e-01 6.3391316102120721e-01
      -4.8141855511554876e-01 3.3085178557256101e-01
      6.1560562222457849e-01 -3.0479903325738655e-01
      -1.6759471053952338e-01 3.7971290877437042e-01
      2.3253558647994638e-01 6.8660932362308291e-01
      3.0163290721009051e-01 5.2756199965775030e-01
      4.2184407586500211e-01 -1.8731566526603402e-01
      1.1961692591777755e+00 -7.5100994145748823e-01
      -6.9122636859279074e-01 4.9245743828526575e-02
      2.9225645810386081e-01 -3.5665898715989824e-02
      1.0564417077410830e+00 -7.8605589868193171e-01
      5.3196760475079252e-01 1.7316189754017466e-01
      -5.8314809164796089e-01 -6.7415387151860384e-01
      3.3221905109851646e-01 3.6589104560386554e-01
      5.4191631173600818e-01 -5.3843489357798624e-01
      -3.2864412240516033e-02 -3.6331142333692036e-02
      1.0388515095241058e+00 -5.9607231873493072e-01
      9.2409206831073287e-01 -3.1644478929334380e-01
      -1.2140124751954244e+00 -1.2564814099927632e-01
      3.2068257754195795e-01 5.6797011338905128e-02
      -3.9852793848503132e-01 -6.7872150453579283e-01
      2.0451205959805627e-01 -4.2869408571832029e-01
      9.8242732193197818e-02 -5.2812252196861809e-01
      -7.2649605434918629e-01 8.0125582979425819e-02
      -4.2728210567607866e-01 -7.1922398296038348e-01
      1.7812443424444313e-01 -6.7352637673073312e-01
      1.5493724925334659e-01 2.7010189758812858e-01
      1.9150332129955941e-01 4.3176137657592717e-01
      3.2324549424630661e-01 1.6424180976963040e-01
      -9.0230771849238930e-02 -3.8583660395813990e-01
      7.9861277447427093e-01 -3.9813712525367345e-01
      -7.1695831876276900e-02 4.1922367152091822e-01
      8.6282411022224526e-01 7.6485570428248928e-01
      -3.3270978534519507e-01 4.6087465669472960e-01
      3.4721226264503363e-01 -1.5675441322726436e-01
      1.5640045166673464e-01 -2.9194293944336264e-01
      1.0380415581834161e-01 9.1971089050331045e-01
      -6.7842412539831831e-01 3.5679565550947484e-01
      3.3999722389977599e-01 -2.2230802105892111e-01
      2.3280065758027286e-02 9.8773255410666214e-03
      1.5372944710165018e-01 7.6039798014747872e-01
      8.1000933369843126e-02 1.0989556551727460e+00
      9.2088372059423954e-02 3.5346426757815891e-01
      9.0672701081413898e-01 -6.5877760461045864e-01
      -1.0474303887492067e+00 6.1279902250360875e-02
      2.6969640004053025e-01 4.1635041855014134e-02
      1.0223600215340209e+00 -9.8740071743044855e-01
      6.3068568391459123e-01 -4.7696599331910949e-02
      -4.3811895486400537e-01 -5.2008048180748889e-01
      8.1835284181886889e-02 1.4326483497231132e-01
      6.7260432069501075e-01 -4.8046551480415095e-01
      -1.4864269639831745e-01 -1.9882695975234763e-02
      6.7633267099625261e-01 -4.5792059671622370e-01
      5.6404854633627288e-01 -1.1634163329365774e+00
      -8.3768308856056684e-01 1.7230296908749582e-01
      5.1376439276808705e-01 4.5773547789017943e-01
      -6.2695888184519144e-01 -7.8228654504289241e-01
      4.0590444624561067e-01 -9.5053464914405292e-02
      -2.6778711601044825e-01 -9.4153409608793248e-01
      -5.4927229680282519e-01 -3.6840831787381195e-01
      -1.2538006562513535e-01 -7.4568493810576664e-01
      -1.0466767640342668e-01 -3.8981991173527969e-01
      4.5248000394412496e-01 2.1946167365037356e-01
      1.3243997989784659e-01 2.6546848470846252e-01
      4.3712439342932036e-01 -1.5344231155715071e-01
      1.1594240836849361e-01 -2.5689736735921220e-01
      1.2153388545808352e+00 -7.8792936603603134e-02
      -1.9543336424269442e-01 2.4304006327647970e-01
      6.0197417609928361e-01 6.2016063476037009e-01
      1.2624612841373029e-01 3.0714989950485788e-01
      3.3824374183439604e-01 -4.0279688816160703e-01
      1.8705322210718325e-01 -2.2737881918817279e-01
      1.0624453080054150e-02 7.5632429433440218e-01
      -5.5689834425283402e-01 8.3685463417071934e-02
      -3.1257866600562026e-02 -2.3743174632579278e-01
      3.8751796003295719e-01 5.0976643141349171e-02
      -1.7880530229042821e-01 5.5472235561485495e-01
      7.1574881132663018e-03 1.1707611408341094e+00
      2.4470947449616470e-01 8.9769015756114867e-01
      4.3229319762921337e-01 -3.9341861733177030e-01
      -4.5812239365268209e-01 -1.5907416266750793e-01
      3.6020425806552964e-01 -2.8476246416520529e-01
      4.3600658055940161e-01 -8.9756334358872802e-01
      1.4330404906788705e-01 -1.0343456479181291e-01
      -7.6734368094923441e-02 -1.5284464578843207e-01
      -2.0185804764666132e-01 -1.0782495349240706e-01
      2.5611943491616329e-01 -5.8186595779891070e-01
      -2.7953125321454603e-01 9.5445942647728405e-02
      5.3594466326724699e-01 -4.0028374884213069e-01
      4.0420471290560062e-01 -1.4165313708567393e+00
      -7.0137898386194397e-01 2.2504453859327625e-01
      7.1186116118580012e-01 5.1566487368915248e-01
      -4.8081695932822499e-01 -8.8799970209285728e-01
      2.4806196347154608e-01 5.8797569158324244e-02
      -3.3426361867939447e-01 -9.5258742292559262e-01
      -4.9640457206981908e-01 -2.9825319505810705e-01
      6.2529509524732158e-02 -9.8324275061578947e-01
      -2.5045696833904524e-01 -3.1696351609575085e-01
      5.1098050020206753e-01 1.6879703218116354e-01
      3.5789624774898343e-01 9.6149846393251484e-02
      3.1233625898065503e-01 -2.3920042794932636e-01
      9.4672154033408104e-02 -1.4463307472743854e-02
      1.5999868816278733e+00 5.9226959622980316e-02
      -4.5071026042872464e-01 -1.8986532219495580e-01
      3.7469271968819007e-01 3.5897657090496865e-01
      2.9622115619835260e-01 3.3904011904136905e-01
      5.7320750501653230e-02 -5.4525358484105935e-01
      1.7679544482836529e-01 -4.9909931176939648e-02
      -1.9758569032310238e-02 8.9642936705755405e-01
      -7.0002456092620913e-01 1.5098040306393734e-01
      -8.3652831508450612e-02 -3.8796305142186877e-01
      5.0905992496523333e-01 6.3695722620686707e-02
      -4.0505230246814167e-01 3.3786239359075459e-01
      -1.2958500639295112e-01 1.3059389828910941e+00
      3.3886034264201764e-01 5.8834116314900198e-01
      2.7774627869070534e-01 -2.3039603043166471e-01
      -1.9618083041851520e-01 -3.0314352418201723e-01
      5.2574873853733051e-01 -3.2610783675889427e-01
      3.3207642785165492e-01 -8.2540626323929234e-01
      1.5462717187376307e-01 -6.4253411819763032e-02
      3.1045238464487316e-02 -1.1512118177438561e-01
      -3.2349167449366312e-01 -2.5113173174014175e-01
      8.9237472473625457e-02 -6.9770856561891881e-01
      -1.9929428809223296e-01 1.3310051990645150e-01
      5.6447829771950564e-01 -3.8669318867943836e-01
      3.4737109329875315e-01 -1.2806683218526977e+00
      -6.5763350435292667e-01 2.4604296436069750e-01
      5.4440601258187649e-01 4.0931805085662365e-01
      -3.7487803338297815e-01 -8.7695951444387343e-01
      3.7128239778300771e-02 2.5707075898342441e-01
      -4.9980403980316773e-01 -7.9749352983830624e-01
      -4.2440996050211988e-01 -1.8935946841285353e-01
      1.3104432271408306e-01 -1.0551345655710636e+00
      -3.8605245428833440e-01 -3.2168146575209089e-01
      4.1943265172895444e-01 1.4729099018652006e-01
      5.1932851777301925e-01 -1.8428458445546362e-02
      3.5034302304016784e-01 -3.8858549944656728e-01
      -5.5925652497827421e-03 1.7425193423464985e-01
      1.5432983455671663e+00 1.6315824559477268e-01
      -3.4433792773193295e-01 -2.9939410578388859e-01
      1.1920869293322188e-01 1.9783411821742172e-01
      2.5547458991558053e-01 3.6277102106333176e-01
      -1.4718595525353546e-02 -8.6316088128784174e-01
      2.9161321556064024e-01 -1.6269815014066108e-01
      -5.6951016778482933e-03 9.2719997938833976e-01
      -6.5073389926060043e-01 2.9914589530833285e-01
      -7.1690186527652119e-02 -5.5825126397297875e-01
      5.8506316460853092e-01 -2.2457847896280472e-01
      -4.3594412337895938e-01 3.8890022570935628e-01
      -1.9303252472670149e-01 1.1108363326954804e+00
      2.4081808290786871e-01 3.4756142311301341e-01
      1.7612183876578599e-01 2.2819905882970057e-01
      -1.0848660161428293e-01 -5.4437688628866132e-01
      6.2061896960104068e-01 -3.3373165876776828e-01
      4.0637027695518896e-01 -7.9532166775631907e-01
      2.4598481986719808e-01 2.2523231812333254e-02
      1.6932150279247457e-01 -1.6644779153204889e-01
      -2.6920670473995839e-01 -1.5133762465334580e-01
      3.4862737480752172e-02 -5.7697649989196020e-01
      -2.2244468261246356e-01 2.1171437938645010e-01
      5.4410526341010201e-01 -2.7990942220753678e-01
      3.5614409022814153e-01 -1.1308978446347413e+00
      -3.5382462963880390e-01 5.1773311293682706e-02
      -2.9308898951199897e-03 2.7443570478599172e-01
      -4.3832819372802273e-01 -6.3496212625553694e-01
      -6.8539469016173360e-02 2.6298982355721195e-01
      -4.0237308621821244e-01 -4.9043591491943134e-01
      -3.6973191545697554e-01 7.0838348501512258e-02
      -1.2065485651811703e-01 -9.3610010051605719e-01
      -6.2326586357665281e-01 -2.7516178642778100e-01
      3.1196154442150320e-01 -1.0646939562813955e-01
      6.5562369132557552e-01 -1.5994988534693275e-01
      6.2310022258780004e-02 -2.7770758698367048e-01
      8.8546699872246976e-02 2.9999070033864389e-01
      1.1661046105299298e+00 2.4250974109018489e-01
      -3.4411994682495756e-01 -3.1329929542546192e-01
      3.9939982470162588e-02 3.5323411214028322e-01
      3.2252902898662605e-01 2.2024600671772290e-01
      -2.5590216996156278e-02 -7.5443164351228398e-01
      2.8397942117052777e-01 -4.1655717336113535e-02
      -2.2719221563985786e-01 1.1492754779989780e+00
      -5.7311200406966989e-01 4.0429397385153448e-01
      -2.2722420122136161e-01 -6.3643183465954900e-01
      5.4698063227482896e-01 -3.7217380961709207e-01
      -4.2820334773793084e-01 3.0252977724635094e-01
      -3.0636195219089868e-01 1.0341063950258929e+00
      1.2710904256025932e-01 2.1017101441309383e-01
      -5.7060404711956024e-02 3.3334783383251482e-01
      -1.1492908770960350e-01 -7.3881924008009203e-01
      6.3492090750443220e-01 -3.9759854901478531e-01
      3.8115622263538473e-01 -5.5391655873856949e-01
      3.4529555821538727e-01 -4.5105692223504662e-02
      3.0467451968496795e-01 -2.6451774695828284e-01
      -3.2149867182069253e-01 -6.1685895736419159e-02
      1.7471827160328668e-03 -3.1232646234010558e-01
      -1.2544944299460684e-01 2.3334999324947306e-01
      4.4199031074169520e-01 -3.7328348999766819e-01
      2.6173484011784004e-01 -1.0811879531241340e+00
      -5.5087911707285286e-01 9.0693965391048986e-02
      4.7886073202640371e-02 2.6316585087457559e-02
      -6.0306646937251251e-01 -4.2232608307891428e-01
      -1.0899356058756161e-01 1.6204126625569748e-01
      -1.4602433798893305e-01 -3.3891760193076448e-01
      -3.6017282981685744e-01 7.0767887555446343e-02
      -2.8276040804977787e-01 -6.2987854754171713e-01
      -6.1529662471503910e-01 -1.2920001026719286e-01
      1.8588617145514247e-01 -5.2616977969830658e-01
      4.5207818252147836e-01 -3.6572636561939426e-01
      -2.3588862779107045e-01 -1.2742925497635517e-02
      2.4143070431559913e-01 3.3967697782776107e-01
      1.1121533067507372e+00 3.4011488845575000e-01
      -5.1834974397767253e-01 -2.6944472905118089e-01
      5.9162468873278154e-02 4.2638840776952147e-01
      4.2872677366768897e-01 6.6137420293958027e-02
      1.4477133026789610e-01 -3.9078366913903828e-01
      8.2577701017199551e-02 3.4080845606045146e-01
      -4.1906604705296763e-01 1.1576041662362719e+00
      -5.1478106564996973e-01 5.2759834444349597e-02
      -4.7542461231821043e-01 -6.4766049934323500e-01
      6.0209294503075284e-01 -2.3079469830005583e-01
      -3.9181682252910344e-01 3.5820430535218434e-01
      -5.0592890540291779e-01 1.1863891521972509e+00
      1.3346339743750202e-01 2.8293289316530721e-02
      -3.4060494082125015e-01 2.7423327551253873e-01
      -1.5346691751071517e-01 -7.7419880529485841e-01
      6.0121170906074073e-01 -4.7046692521609246e-01
      2.4757596300003124e-01 -4.0339098418394187e-01
      2.9928965293939946e-01 -1.9618675783901715e-01
      4.9733284701515940e-01 -9.9908874416815036e-02
      -3.9934186481883105e-01 3.9775057039618013e-03
      1.2780723256389598e-02 2.0184286080805633e-01
      9.8812886400339063e-03 2.5268359262966184e-01
      3.5312072722349702e-01 -4.7375650589880874e-01
      8.5779760542608885e-02 -9.4498100527718687e-01
      -6.3589946221716165e-01 1.9671018341466828e-01
      2.0069899540805389e-01 -4.6455319548037499e-02
      -8.3590236112727234e-01 -3.9128669215300460e-01
      -1.5813909893705538e-01 1.2040806780081723e-01
      -3.3541570864411861e-02 -1.0088815656484995e-01
      -2.7966150770548237e-01 -9.1091573881894927e-02
      -3.1443868760237120e-01 -3.5115824330823736e-01
      -5.4258461404709235e-01 5.5827197291810063e-03
      1.5743397942298931e-01 -5.6885082921134567e-01
      1.4186860268986234e-01 -3.9935183968949095e-01
      -3.6510913596021161e-01 9.5598567525055980e-02
      3.0061010966473201e-01 4.2748135877220339e-01
      9.4308728582440537e-01 5.0133793597186305e-01
      -6.8791274537116787e-01 -1.5139671283385894e-01
      -7.2364459395332967e-02 3.7803518603549180e-01
      4.5330563430592224e-01 -5.9583514756343582e-02
      7.4091601594438672e-02 -2.5584007044033619e-01
      -1.2919650999182442e-01 6.7182018281119549e-01
      -5.1535485192312602e-01 1.0720138861204964e+00
      -4.3344754515246037e-01 -1.2240535499913915e-01
      -5.8003976922394174e-01 -6.7582997862059713e-01
      6.6956670471136248e-01 -1.1513065292723527e-01
      -3.6324371705679742e-01 3.8103653742080662e-01
      -6.4867873972353329e-01 9.1507917128733285e-01
      3.1601423624267455e-01 -4.3896059871196347e-03
      -5.4582223154279719e-01 1.7505998091989414e-01
      -1.2811074589952676e-01 -7.9020241578152461e-01
      4.2845444802041777e-01 -5.2417581009480640e-01
      8.4498377625946350e-02 -1.5863346804750286e-01
      2.2048600839493041e-01 -2.2903817393424541e-01
      6.4649635347032208e-01 3.1059179688500839e-02
      -4.1273889768700528e-01 -1.2513471130948639e-01
      -6.9559107255961636e-02 1.4947156872861964e-01
      1.6713697453009785e-01 2.2870204883021494e-01
      2.5873962510547727e-01 -5.2664554558745458e-01
      4.0369546857820460e-02 -7.2496423281121336e-01
      -4.4368927008076942e-01 2.6165842920704196e-01
      3.3719930385400099e-01 -9.7249842533213268e-02
      -8.8368748496324634e-01 -4.3076536715797681e-01
      -2.5078055255985787e-01 1.0258041852146162e-01
      1.8650996999980081e-02 2.1308708734764953e-01
      -2.1213028747979745e-01 -8.9102253993808431e-02
      -3.7619405108301773e-01 -1.4865322272793280e-01
      -3.7837794034982214e-01 1.7497427052130243e-01
      1.1792601152620218e-01 -4.5261744176304314e-01
      -9.8338910509408337e-02 -4.0001335693534773e-01
      -4.7454258486530637e-01 7.1099981360695133e-02
      3.0711383376973150e-01 4.8529924694274007e-01
      7.2323757659259746e-01 5.0950637944665300e-01
      -6.9355295697966846e-01 -1.6188018896222772e-01
      -2.5237056674813152e-01 3.6196102797617646e-01
      5.1357070825043638e-01 -1.8699693614525500e-01
      -1.8627529430166478e-01 -1.5975841130962776e-01
      -2.7925651006435120e-01 8.7735417232233681e-01
      -5.0735631285508864e-01 8.4381221081787428e-01
      -4.4012705123550444e-01 -1.8630801115315110e-01
      -6.1275353889817119e-01 -7.6165281402035412e-01
      6.4966430859610969e-01 -5.5706382366184214e-02
      -3.2422140724174237e-01 4.2887588867654591e-01
      -7.2938138107836015e-01 6.7997093370802808e-01
      4.0371827400908156e-01 5.7298685414826063e-04
      -5.4476310162233543e-01 7.3708169731522624e-02
      -1.3189296740372064e-01 -6.8421952797350560e-01
      3.1643267531076097e-01 -4.2277564764355169e-01
      -1.2496657421438651e-02 1.7956871028443417e-02
      2.3711593341746337e-01 -2.3456355137967713e-01
      7.1670266995156240e-01 4.6820400346275139e-02
      -4.2592268582647630e-01 -2.2264795559939371e-01
      -1.2472914703098088e-01 6.6663204207035726e-03
      1.8250665974689084e-01 8.4445641445162103e-02
      2.2597459513327259e-01 -5.8821164213122912e-01
      1.0703790843032827e-01 -5.6818407343501298e-01
      -2.6863212467514241e-01 2.7459684548636382e-01
      3.2553267163216809e-01 -1.6273042694996559e-01
      -8.0601647697898127e-01 -4.0742715674467850e-01
      -3.6292374827389595e-01 7.4443414143654213e-02
      7.3003510916834338e-02 3.4830785137219444e-01
      -2.5991920857366851e-01 3.2115183089009257e-02
      -4.9590095432951053e-01 -2.6254834062650861e-02
      -2.6070375822205477e-01 1.9273881852918243e-01
      6.9887747620300464e-02 -3.2685376268943273e-01
      -1.8368092583420373e-01 -4.2126369915629375e-01
      -4.3362074055270200e-01 -2.1107358768399330e-02
      3.0881843484034910e-01 4.6998805704353358e-01
      6.3228818362967176e-01 5.6486212406784031e-01
      -6.3449600501229808e-01 -2.1263836671105263e-01
      -3.1597901300899844e-01 3.4564799874393359e-01
      5.1612898082653902e-01 -2.3327566917842099e-01
      -2.2788786235980760e-01 -3.5621495011443544e-02
      -3.2634925319612107e-01 9.7028618761897090e-01
      -4.4666451246194977e-01 7.7121096984921367e-01
      -4.3468424964389801e-01 -2.6034702264480636e-01
      -6.1259701030057745e-01 -8.6016104754784228e-01
      6.5162706583103813e-01 5.7032422713371840e-02
      -2.3275416020216386e-01 5.4976195967856800e-01
      -6.7982924983826787e-01 5.7801017835804280e-01
      2.7317856979889982e-01 -3.8569329812467940e-02
      -5.3127692385924274e-01 2.1473286539297820e-01
      -1.0606740912996356e-01 -5.6311318103817753e-01
      3.1611599615973590e-01 -3.1401205384855790e-01
      -3.1950371817604760e-02 1.2228808607088082e-01
      1.8338919500551062e-01 -1.9826770405648456e-01
      7.3693877137869368e-01 5.6099319362895153e-02
      -3.9990695488818334e-01 -1.9037516561837009e-01
      -1.1374104406764397e-01 1.9609220711762082e-01
      8.7346768572378747e-02 -3.0387630262752388e-02
      1.6054224976972173e-01 -5.6857260726233760e-01
      1.3742230672644329e-01 -4.1934444053403486e-01
      -1.9900728058197781e-01 3.3576768912137028e-01
      3.3807717556864508e-01 -2.3962299759829644e-01
      -7.5799361584283853e-01 -3.6281243342497815e-01
      -4.5283130432805474e-01 6.2254191382066580e-02
      1.4267560441595709e-01 4.1986027417939575e-01
      -3.2996265964000193e-01 9.1993237608877010e-02
      -5.6159444833221694e-01 -2.6717410615244332e-02
      -1.6318715426861002e-01 2.5607201847565120e-01
      3.7785822863621384e-03 -2.7190978385042602e-01
      -2.7125575735228896e-01 -4.1689946564552327e-01
      -3.8090868758115287e-01 -8.2260296118030166e-02
      2.6217488557146440e-01 5.0641315987295688e-01
      4.6480026772811944e-01 5.2686011506131936e-01
      -5.7192306957381889e-01 -2.7103817774032329e-01
      -2.8374049407153268e-01 3.0779672359620358e-01
      5.3258541203700982e-01 -2.2228077838476315e-01
      -2.5519773920925304e-01 5.5251542024562499e-02
      -3.6231943654830062e-01 9.4124255026393167e-01
      -3.8664379847444980e-01 7.4867312422799792e-01
      -4.3031202014590408e-01 -2.7369797028473419e-01
      -6.0401530839772000e-01 -9.4134649913926860e-01
      6.1089560392056386e-01 1.3051661483896881e-01
      -1.9792164572557785e-01 5.9431554851452306e-01
      -6.1615207351871382e-01 4.9686059567535013e-01
      2.1488716627405280e-01 -8.1467249175102896e-02
      -4.3337240713695041e-01 3.3478049388878345e-01
      -7.0909181344507244e-02 -4.1255323380020409e-01
      3.1148216307203608e-01 -1.9240813091707082e-01
      5.7162242653357323e-03 9.7124720738852005e-02
      1.6623609230311537e-01 -1.7777691966047454e-01
      7.6617451913256152e-01 9.1452782957031742e-02
      -3.7942842076724326e-01 -1.7267624303241957e-01
      -9.2437835154371387e-02 3.3845137067822201e-01
      7.0502757931328458e-02 -1.1558628934254857e-01
      1.3282201206156885e-01 -5.0870259702163767e-01
      1.7328699981166934e-01 -3.2606697098677889e-01
      -1.9548510467586172e-01 3.9302340443534928e-01
      3.5190965323406703e-01 -3.0975316713642354e-01
      -7.3357965734716402e-01 -3.7638804504080331e-01
      -5.0049829721739536e-01 6.0624543959911979e-02
      1.8792422271102749e-01 4.7210796728020782e-01
      -3.6512092426992920e-01 9.5932211630646427e-02
      -6.1338863923263820e-01 3.3567493026244961e-02
      -9.2016123393370605e-02 2.9946277218140133e-01
      -4.6858958851030141e-03 -2.5657067790154880e-01
      -3.4525435028688056e-01 -4.1053068004789156e-01
      -3.7548544428066510e-01 -8.0742301026378235e-02
      2.1969618954156059e-01 5.3418774590592666e-01
      3.9401945831518415e-01 5.1193232493510377e-01
      -4.9589895485325669e-01 -2.9195250422918684e-01
      -2.1391428983434818e-01 3.0399373208704211e-01
      5.0622081610520697e-01 -3.0154784129347734e-01
      -2.7072432304804878e-01 1.3983845509225115e-01
      -3.9667044693352027e-01 9.6283516912647238e-01
      -3.5609610326720098e-01 7.7264270203336849e-01
      -4.3663494928666929e-01 -2.0973680402689568e-01
      -5.4889697337913335e-01 -1.0012790869360335e+00
      5.9673990157382351e-01 2.4180961941616685e-01
      -1.1866380604187314e-01 5.4576258053602655e-01
      -6.0547922236495788e-01 5.0178496217030855e-01
      1.8853054753504161e-01 -8.5780936184379000e-02
      -3.6436241274713144e-01 3.8315687958322187e-01
      -7.7217376601276561e-02 -3.4736676814081174e-01
      2.3615369425005228e-01 -1.4511259364514589e-01
      5.3579834146971955e-02 7.0735914266348690e-02
      1.4285994825581025e-01 -1.4587695131845499e-01
      7.8255529406973323e-01 6.5641112720862135e-02
      -3.4546778239547177e-01 -1.5085557044028175e-01
      -6.9762700105737699e-03 4.1481080052224473e-01
      2.4864170232932498e-02 -2.0693754384398796e-01
      1.7672742180975773e-01 -4.6441234649566854e-01
      2.1485767894040397e-01 -1.8880627379475629e-01
      -2.7225952569073375e-01 4.6786143017799597e-01
      3.2087532086406440e-01 -3.7100176099508508e-01
      -6.9847305639327306e-01 -3.4714698174730901e-01
      -5.4300705975662011e-01 4.3596247475034690e-02
      2.4875458491129732e-01 5.3258957019213415e-01
      -3.8589343266875981e-01 7.1223609503520885e-02
      -6.4152565610779855e-01 1.0108697621771193e-01
      -3.7074997430128535e-02 3.5364105948513097e-01
      -3.9200241093935120e-02 -3.1067549598602245e-01
      -3.8438960749651596e-01 -4.0352521797184682e-01
      -3.5068784621583754e-01 -1.2285668176021280e-01
      1.5139682911647520e-01 4.9464525612026478e-01
      3.5076283044087120e-01 4.7475035266117382e-01
      -3.8769680680409013e-01 -2.6667480759224171e-01
      -1.2724569202421276e-01 3.1388748255976612e-01
      4.8276568486753718e-01 -3.2294614906728658e-01
      -2.5411400361167680e-01 2.4751790731067994e-01
      -4.2795760894410839e-01 1.0093770162059936e+00
      -2.9727647906094051e-01 7.6615350680622063e-01
      -4.2492042635802058e-01 -2.0891441097904606e-01
      -5.0450310105071550e-01 -9.7901200153814372e-01
      5.7155439893119697e-01 3.0247134693722844e-01
      -2.8442765325183746e-02 5.6050161382575581e-01
      -5.4222350081215342e-01 4.9353100760487656e-01
      1.6908594542596050e-01 -8.7329286001771686e-02
      -2.5541391650378487e-01 3.6321110257583955e-01
      -1.6384878745580714e-01 -3.0640444735892014e-01
      1.9068731432647573e-01 -9.4026202342302870e-02
      1.4601175553638909e-01 -2.5623740032330717e-02
      1.1439892140373535e-01 -1.1622090642754790e-01
      7.8198712108545054e-01 2.3965390986598955e-02
      -2.9073636989386370e-01 -1.6329842734907674e-01
      9.7349352413597628e-02 4.5109453387090298e-01
      -3.6119467034568302e-02 -2.8497528596038318e-01
      1.5630958972353040e-01 -3.6484507850591008e-01
      2.2775957496171917e-01 -9.1784786763799683e-02
      -3.4676423544428331e-01 4.9616725099860792e-01
      2.9230610806999358e-01 -4.2997833612418751e-01
      -6.3480300194007100e-01 -3.3349231050658013e-01
      -5.8485421826192086e-01 9.8198144788920527e-02
      2.8749647979005610e-01 5.8913573647388540e-01
      -3.6194523787855210e-01 8.9197942428246343e-02
      -6.3760090624068000e-01 1.6280471652860901e-01
      6.9324058599350830e-04 4.1108202502171665e-01
      -8.2845799296999811e-02 -2.8118256014083021e-01
      -4.3890892121579472e-01 -3.5964657797256050e-01
      -3.1826077379918499e-01 -1.7385538683272619e-01
      9.9864971008705408e-02 5.1227945816836928e-01
      2.8747465244458587e-01 4.1006150247545353e-01
      -2.8308470168116301e-01 -3.0243382342912711e-01
      -5.7239961780637602e-02 3.4462850344180518e-01
      4.4886936734377658e-01 -3.5183359442025203e-01
      -2.5296001831764403e-01 3.0855384677943065e-01
      -4.3628662405069973e-01 9.9513668056939830e-01
      -2.5969065067514974e-01 7.6568507922504325e-01
      -3.8452763918615768e-01 -1.6982114226918915e-01
      -4.5456125201341036e-01 -9.9556303872295004e-01
      5.1779246208096397e-01 2.9103276854840693e-01
      4.9653641077928136e-03 5.1733481542901183e-01
      -4.9183428046895533e-01 4.0829529634560585e-01
      1.4612235408135948e-01 -1.0267782493900079e-01
      -2.3911972059181005e-01 3.0518752688403306e-01
      -2.3570058272599453e-01 -2.5934885446105604e-01
      1.9241516657706290e-01 -4.2853204017152154e-03
      1.9914537652600478e-01 -1.1749125028073881e-01
      1.2267481280209351e-01 -7.8095150945027031e-02
      7.9851687509242819e-01 1.6103728571318428e-02
      -2.3163581394749766e-01 -1.2861276644211464e-01
      1.7116144824862234e-01 5.1729057074176499e-01
      -7.4814509449485742e-02 -3.7800806985396113e-01
      8.3010640031658506e-02 -3.5068931721408847e-01
      2.5879033815463598e-01 -2.3843078044353649e-02
      -3.2044593924652615e-01 5.1869612179215752e-01
      2.5981817242144367e-01 -4.5047498473078496e-01
      -5.5852018987997287e-01 -3.1032651531694760e-01
      -6.2151179182454208e-01 1.0364235772306585e-01
      3.0180322715888125e-01 6.1432236318044908e-01
      -4.0404598588084095e-01 1.2241168374686966e-01
      -6.5889451197864601e-01 1.9454717329209834e-01
      9.7588301131986809e-03 4.4988847652945002e-01
      -1.0193667910103249e-01 -2.8762059504636922e-01
      -4.3884577810157360e-01 -3.8980351691922199e-01
      -3.1440004869426835e-01 -1.9538869323173205e-01
      6.4690608423447107e-02 5.3563720368320500e-01
      2.0402024753004119e-01 4.4928959951246533e-01
      -2.4448047635682202e-01 -3.2081966758981006e-01
      -9.1099924635114515e-02 3.9185185127353106e-01
      4.4433248123508129e-01 -3.7173993419977525e-01
      -2.8460414782645432e-01 3.4850377319169201e-01
      -4.4334147801963436e-01 1.0520426728110701e+00
      -2.3649553035572021e-01 7.9217596895210152e-01
      -3.4490243521205366e-01 -1.7338598243247891e-01
      -4.4807854907487360e-01 -1.0514686229683849e+00
      5.2515385784957369e-01 3.6673071505146176e-01
      1.9160537034311326e-02 5.6529867514178933e-01
      -4.6637316541016871e-01 3.1903040349002948e-01
      9.5495709350504818e-02 -9.8429758555099001e-02
      -2.3742265469086155e-01 3.4359459445614227e-01
      -2.6376299823178839e-01 -2.3837504527629108e-01
      1.3820224330506350e-01 3.5802207828552292e-02
      1.8942392008488254e-01 -1.3162702387808684e-01
      1.3572889259525459e-01 -4.6925492444485011e-02
      8.0952877303407278e-01 3.0586055582382858e-02
      -2.2131848723328970e-01 -1.2476263982900902e-01
      1.9878759992545034e-01 5.9865027172072549e-01
      -6.7019452343505870e-02 -4.2525240913770884e-01
      1.1659859792718702e-01 -5.4454553751405281e-02
      3.7997968479157562e-01 1.1765083625374426e-01
      -8.2752174387583990e-02 2.9196179457834032e-01
      -1.4233796224312262e-01 -3.7093534846249132e-01
      -2.4702083915456374e-01 -3.4924948426654884e-01
      -4.3914514844414176e-01 -2.9303267230587454e-01
      2.5650760258081290e-01 5.5415236710865734e-01
      -4.7522861888175877e-01 3.4595092231258667e-01
      -6.0431317959949082e-01 2.3046072493974434e-01
      3.8600215679940858e-01 7.1298559683439167e-01
      -7.0239074865124568e-02 -5.5438412286645244e-01
      -6.4948417460968011e-01 -4.7376294467718527e-01
      -3.1773155040890749e-01 -6.4212546131005022e-01
      1.9046841915905363e-01 1.3548243579103036e-01
      3.7398343415284946e-02 4.5953191782427777e-01
      1.1049308449628943e-01 -8.8081053769261480e-02
      -5.0205957169950122e-01 4.9439597940747032e-01
      5.4902603939203698e-01 1.4252024562803552e-02
      -3.4932771851763267e-01 5.7396079298848068e-01
      -5.3917820720570309e-01 1.0001055137727271e+00
      -1.5817740308337083e-01 5.5076287090032650e-01
      -2.1229177509646577e-01 -3.9745862184472963e-01
      -3.9704604984584652e-01 -5.8649427288336653e-01
      5.2248056491337080e-01 4.4618535870101284e-01
      1.2053555539344196e-01 3.7163202060131706e-01
      -5.2541662279957446e-01 2.6505787958692684e-01
      -8.7902812755420875e-02 -3.9950041818867310e-01
      1.0500016203531170e-03 4.4000464012951690e-01
      -2.2462283823745796e-01 -3.5535067961109629e-01
      1.8479090472466722e-01 4.1368490706750322e-01
      1.6933554538303067e-01 -2.4282378363904494e-01
      -7.5397662085156247e-02 -1.3932175759213777e-01
      5.4742436221288560e-01 6.0208043066763785e-02
      -1.3690953941221626e-01 -1.9552861587079060e-01
      1.0510417912830590e-01 9.0197187007975255e-01
      -1.0250085522801866e-01 -3.1125086561032239e-01
      9.5370923694892779e-02 4.3675960338853398e-01
      1.7149526832386150e-01 5.4251593417672439e-02
      -4.7261760981554032e-02 -1.7980337296699841e-01
      -6.5015363468173848e-01 -5.3750619880490813e-01
      -6.1349541597569252e-02 -4.6672130131884620e-01
      -3.0665818294914138e-01 -7.7447948772508257e-01
      2.7884827239388343e-01 2.1893043237696286e-01
      -4.7658178378813976e-01 2.1887625811936007e-01
      -4.2701400535169587e-01 1.0615279029446262e-01
      5.9908210109004434e-01 9.4120465582244339e-01
      -1.1173086213386445e-01 -8.6825941751996538e-01
      -5.8148711798551145e-01 -3.8374901070410150e-01
      -2.0146601266628722e-01 -4.2693309409059227e-01
      5.9154503355460956e-02 -5.7091074252286498e-03
      2.0745644088032381e-01 3.8922867051779897e-01
      3.7394431874772466e-01 -4.3798037545868945e-03
      -3.4594969895767308e-01 5.4198725966846462e-01
      5.8246842923075792e-01 4.5176341656584212e-02
      -3.9069992939157527e-01 5.0404755847826210e-01
      -5.5053236402752159e-01 5.8057080813086159e-01
      -2.1364209394151704e-01 2.7373411568445771e-01
      -9.2472453597736676e-02 -6.4748589055723249e-01
      -1.5026110428904502e-01 -3.8721273425053371e-01
      4.9678765240294709e-01 5.4219009197271284e-01
      1.5944527870251182e-01 3.0350828616703529e-01
      -4.1113998829127069e-01 1.5238409928291038e-01
      -9.3951276601388009e-02 -3.1705849357319982e-01
      3.3972800531572461e-01 6.4776949432492692e-01
      -2.2188565931238247e-01 -4.6677681836163942e-01
      3.7930417291897112e-01 5.7017363029261947e-01
      7.3653483567616099e-02 -1.6668265145164815e-01
      -5.6233202322307406e-02 -8.4822857908246438e-02
      6.5753394811179644e-02 7.2886186107402703e-02
      -2.0398564075345074e-01 -2.5570699306514288e-01
      2.5666736024092512e-01 6.9125748291802247e-01
      -8.8206158894145195e-02 -2.9195145231902059e-01
      1.6738925603564050e-01 5.8915572995635412e-01
      2.7395195555023544e-01 1.3724683736540461e-01
      -4.8874040736765170e-02 -3.0992965134257966e-01
      -6.7066352906204107e-01 -5.3719125074974894e-01
      3.9664457219651401e-02 -5.0189158582801330e-01
      -3.0483402728934261e-01 -9.5496028311285541e-01
      2.2114321385848876e-01 1.1507312308693501e-01
      -4.6187681723250884e-01 1.4756142838618197e-01
      -3.6386447693835322e-01 5.0999508243382606e-03
      6.7282654276930731e-01 9.0238692133645637e-01
      -1.2662200756307654e-01 -8.3979647412195690e-01
      -5.5346329300628849e-01 -3.2087751365047845e-01
      -1.3920460188533745e-01 -3.0113991299347437e-01
      1.1862875043380482e-02 -5.3869628364691918e-02
      2.1500971882427783e-01 3.1955457184229102e-01
      4.8076406681709855e-01 1.9116067329036410e-02
      -3.1125873859646985e-01 5.5834714309131173e-01
      5.6710797970078053e-01 8.1416755964800011e-02
      -4.4906375741138999e-01 4.2385259433092759e-01
      -7.1046840340196260e-01 4.8194941856447504e-01
      -1.8524851933792030e-01 2.2730585521285901e-01
      -9.3004362400112436e-02 -6.2373231019736974e-01
      -6.7154793001490645e-02 -2.9687750216245101e-01
      5.0106861145225923e-01 5.8617476324697115e-01
      1.8221482185992910e-01 2.5100812496482799e-01
      -3.2046380079023556e-01 1.8308251493793593e-01
      -7.4025717441479039e-02 -2.8555298507638099e-01
      5.4852118986719522e-01 7.7317992634936117e-01
      -2.0500416914924346e-01 -5.5421713630518776e-01
      4.2341875096127207e-01 5.8845234311564976e-01
      1.7931720043259805e-01 -1.1059711069395536e-01
      -2.8999369770030922e-02 -3.5594210167665938e-02
      -1.9515518845777267e-02 4.8266380318672746e-02
      -1.9686463929333956e-01 -2.5487313364405118e-01
      2.2092422529254807e-01 6.0651487904810764e-01
      -9.2153110339106142e-02 -2.6346223920535738e-01
      2.2133451330080312e-01 6.8272021294472340e-01
      3.4296259028582687e-01 1.8586391742712810e-01
      5.3316869684561551e-03 -3.8065174411652369e-01
      -6.4243989694305226e-01 -5.0328690559828337e-01
      5.8238868073293822e-02 -5.3607724082286301e-01
      -3.4373126888101241e-01 -1.0632998417791717e+00
      1.6166279051713964e-01 8.9762767173187610e-02
      -4.8550395352327635e-01 1.0923015305259828e-01
      -3.5735423183041076e-01 -4.3036201909623747e-02
      6.9113830560300538e-01 8.7138004757343468e-01
      -1.6545539776554505e-01 -7.5934492996754499e-01
      -4.7306813212420906e-01 -3.3506010833381161e-01
      -1.2582542987638162e-01 -2.5424196594688364e-01
      -2.7624850933904609e-02 -1.2235584607585515e-01
      2.2783899165409022e-01 2.7977594681157869e-01
      4.9905380620634759e-01 3.7959373232214287e-02
      -2.6357924224246637e-01 5.5304657966065185e-01
      5.5635616047727487e-01 1.2246362303096045e-01
      -4.9799191580164714e-01 3.7381913641648007e-01
      -6.8578079264530933e-01 4.2272465430478279e-01
      -1.6759062698496793e-01 2.1045950746620984e-01
      -8.1721723773861901e-02 -5.5739846780987279e-01
      -4.7403356638329050e-02 -1.7597519145087795e-01
      5.4426106885829018e-01 6.0257006159455340e-01
      2.0575454297124085e-01 1.8986117664819838e-01
      -2.4337709501555252e-01 1.5919400755095761e-01
      -4.3020884019230751e-02 -2.5945165347797600e-01
      6.5863686034993973e-01 9.0924812559346568e-01
      -2.2924405631993225e-01 -5.3062966864234662e-01
      4.6323550194186397e-01 5.8495327673657216e-01
      2.4580761137126120e-01 -5.4414205220953665e-02
      -1.3290145995600876e-02 -2.5869437189189816e-03
      -7.0550858030502456e-02 1.3605279556532802e-02
      -1.7941002872198977e-01 -2.6127501914102275e-01
      2.5692734875440182e-01 5.8216433524051381e-01
      -1.1479649905554605e-01 -2.3132270721718706e-01
      3.1315053966439133e-01 7.7806389160649569e-01
      4.1125732561422046e-01 2.0518276583655101e-01
      -7.7996914507686518e-02 -4.2433590798002835e-01
      -6.9060955645340449e-01 -4.2458918983326477e-01
      1.3786762677762265e-01 -5.2760472018210347e-01
      -3.5803017907523199e-01 -1.1411158124923193e+00
      1.2599799451300786e-01 6.5047411015565326e-02
      -4.3504337441687602e-01 1.4136370729037351e-01
      -3.3702216080751557e-01 -7.0781356683248683e-02
      6.7292840822307565e-01 8.4203780645259441e-01
      -2.1441477925715119e-01 -8.3720367263961026e-01
      -4.7605032994676472e-01 -3.3272797318467889e-01
      -9.1244497435181607e-02 -2.9671555429597413e-01
      -4.7049917186848977e-02 -1.8117878746999785e-01
      2.7984269357889868e-01 2.8876681080081690e-01
      4.7392014845347763e-01 5.9722907524015358e-02
      -2.2047607208018705e-01 6.3110991687725493e-01
      4.3282975266574014e-01 1.9814621843094077e-01
      -5.4069756983575490e-01 2.9037480097362234e-01
      -5.8864226515752693e-01 3.4296058864508361e-01
      -1.3321703505259444e-01 2.8183031674217096e-01
      -7.9581355247825461e-02 -4.5376935579141298e-01
      9.8328716183066316e-03 -1.2508960349804443e-01
      5.7646906915121143e-01 5.0700872894512639e-01
      2.4819115954813856e-01 1.7893392815231157e-01
      -2.1887390462552014e-01 1.4107149488687643e-01
      -7.8693564947767780e-05 -2.1995641019512063e-01
      7.1793746815146064e-01 9.2090763341404924e-01
      -2.3203035053838617e-01 -5.4158464760132896e-01
      5.4717118248265484e-01 5.8134112986422826e-01
      3.4452058886222864e-01 -7.8405225348511839e-02
      1.5907757655986603e-02 2.9264208841458871e-02
      -9.8974539574340256e-02 -4.3769380462160612e-02
      -1.4714144361654632e-01 -3.0630998510234053e-01
      3.2485186863789062e-01 5.6161205629408262e-01
      -1.4718235205050992e-01 -2.7350974742935047e-01
      4.0440404615906173e-01 8.6234664660093097e-01
      4.5790027804430072e-01 2.5372738819615576e-01
      -1.8734624536957251e-01 -4.2209148020458243e-01
      -7.3258606553014183e-01 -3.9572569519602868e-01
      1.6235443602556837e-01 -5.2285085711757229e-01
      -3.3012184724959981e-01 -1.1315593158911985e+00
      6.6946493363946924e-02 3.0745569024754772e-02
      -4.1037649640922208e-01 1.3167445281914175e-01
      -2.9724763169697654e-01 -7.2931145778449752e-02
      6.2345716065722989e-01 8.3273421775336687e-01
      -2.5230627037603642e-01 -8.8839451756630472e-01
      -4.1046076843864393e-01 -3.2628284243991079e-01
      -1.0388335796932704e-01 -3.1920621497576973e-01
      -1.0477370221996726e-01 -1.9000826689551176e-01
      3.0543644031758216e-01 2.3035676931163460e-01
      5.2629450550624746e-01 9.7369785366731049e-02
      -1.5914985346949165e-01 6.7052163999425529e-01
      2.7363744062344403e-01 1.9326953304656641e-01
      -5.5385616551354344e-01 2.4637216627096933e-01
      -4.9015852391398107e-01 3.0799241969688795e-01
      -1.2201417085357358e-01 3.4680701309942324e-01
      -8.0519283508845810e-02 -3.6798973664251000e-01
      5.5773770219131227e-02 -6.5944744917214776e-02
      5.7279792247525818e-01 4.1978598814707119e-01
      3.1427961228875595e-01 1.5516623749308725e-01
      -1.5147050927855860e-01 1.2114183301483920e-01
      1.2502665915647865e-01 -1.4585401357339681e-01
      8.0546859813116056e-01 9.0542260242637918e-01
      -2.4149795163327262e-01 -6.0319647045171931e-01
      6.1087785369927039e-01 5.8177110417491007e-01
      4.1948373143351686e-01 -1.0343314462357064e-01
      -1.4623079532800818e-02 7.4451829076641773e-02
      -1.3572005853629013e-01 -8.8607237518744580e-02
      -9.7340734499190978e-02 -3.4021805187599052e-01
      3.7624765391961557e-01 5.2395270630765300e-01
      -1.7945481813362421e-01 -2.6458768882367145e-01
      4.4518323104233548e-01 8.7625997400633138e-01
      5.0797800062387077e-01 2.7365693734452351e-01
      -2.1227345612216614e-01 -4.3061193566548678e-01
      -7.3719955305018126e-01 -3.9921214559863272e-01
      1.7897945058470227e-01 -5.4183658142226232e-01
      -3.0709570096911443e-01 -1.1332767107663462e+00
      7.4503214430063996e-02 1.0775471895363414e-02
      -3.6663039836653538e-01 1.1606768009319268e-01
      -2.8411046862965278e-01 -1.0538321264282174e-01
      6.4235037529779204e-01 8.4061476310527794e-01
      -2.7351782607481945e-01 -8.6930168247882067e-01
      -3.8241620720544711e-01 -2.9415086076191438e-01
      -7.1309698862651261e-02 -3.4223484716387192e-01
      -1.0631637059950112e-01 -2.2119423087004617e-01
      3.0083963427438504e-01 1.9241044280016262e-01
      5.2643684244846811e-01 1.5074516126195847e-01
      -1.3568055451548799e-01 6.8677877680126254e-01
      2.1389996662287716e-01 1.8324411801630366e-01
      -5.9101066887740428e-01 2.1675319977407476e-01
      -4.4181737355713502e-01 2.7561449374655833e-01
      -1.1602153372636966e-01 4.0049027953974314e-01
      -6.7889893202648585e-02 -3.3259511492432342e-01
      6.7789109945989870e-02 -6.2653359603088129e-03
      5.6646387647771113e-01 3.2770947719132121e-01
      3.3453133833081794e-01 1.3526430450245697e-01
      -8.6205482766174221e-02 1.0344570418970864e-01
      1.8240302526157604e-01 -1.2719930351411377e-01
      8.7659615660605583e-01 8.6216785047452149e-01
      -2.4921755157397082e-01 -6.2249243148435007e-01
      6.1664274294164589e-01 5.7054683408223617e-01
      4.4955628967620698e-01 -1.1902026675212901e-01
      -1.7432063921252511e-03 8.4248544810682696e-02
      -2.0549140864781679e-01 -1.2876622096780821e-01
      -6.8198824402799771e-02 -3.5125785586240588e-01
      4.1819668348537969e-01 4.5984514082173678e-01
      -1.9828769871874180e-01 -2.3695636948332222e-01
      4.4997622566080930e-01 8.6189051643556236e-01
      5.5007772492487084e-01 2.8310208204176140e-01
      -1.5383911951972279e-01 -4.9818640580257012e-01
      -7.3592596641250041e-01 -3.9950396950821326e-01
      2.0119547412009750e-01 -5.0759494743470779e-01
      -3.0653564146204115e-01 -1.1890915356656004e+00
      1.0980804502454937e-01 2.5451239633626478e-02
      -3.9753185945559050e-01 1.5713739449562342e-01
      -3.0523001869529198e-01 -7.9251106953801803e-02
      6.2476568168330493e-01 8.2742828298076243e-01
      -2.7107775693206093e-01 -8.7572024790357184e-01
      -3.8111592102911535e-01 -3.1082915418246437e-01
      -9.7892187915812681e-02 -3.6439814578910396e-01
      -1.2628071632143698e-01 -2.5001160497811348e-01
      3.4907445319092961e-01 2.0536392036177717e-01
      4.3691460004227017e-01 1.1424807197648600e-01
      -1.4606216759144433e-01 6.6113213612377086e-01
      2.6228076563136049e-01 2.2056663534479298e-01
      -5.9560402748184882e-01 2.4304273010141467e-01
      -4.1948293161965211e-01 2.1689029723865130e-01
      -1.0565611190635958e-01 3.7178735748813535e-01
      -1.0243523538635538e-01 -3.6919403592336220e-01
      8.3580086665306350e-02 9.9018827525319576e-03
      5.7163778677589916e-01 2.9435678849610986e-01
      3.2044648832585365e-01 1.4462197266534890e-01
      -1.0874052744074815e-01 8.3492826956621857e-02
      1.3904590473025230e-01 -1.8923172952916814e-01
      8.4172055265554990e-01 9.0142604855557606e-01
      -2.2909787360980891e-01 -6.1738288189377688e-01
      6.7977447633400856e-01 5.6756687751585522e-01
      4.5693539273610106e-01 -1.0434439533907511e-01
      -8.9952129263805615e-03 1.1000064946510373e-01
      -2.2862306548016656e-01 -1.6456197015040666e-01
      -5.4778773483591503e-02 -3.2734214764974423e-01
      4.0012444245178930e-01 4.6444090294673684e-01
      -1.9288229568846121e-01 -2.6284315426284688e-01
      3.7544466114737790e-01 8.0032189090072536e-01
      5.2914445237570806e-01 3.2941673117699027e-01
      -1.8977382520313637e-02 -5.3868858892105265e-01
      -6.9541031268725928e-01 -4.4421030065020800e-01
      1.6303004824042253e-01 -4.3400494287241564e-01
      -3.4428749011610332e-01 -1.2628583182802522e+00
      1.9253928603219903e-01 7.8568824337509405e-02
      -4.4736599110386804e-01 2.4521285929143483e-01
      -3.6646950390515737e-01 4.3333423014410869e-03
      6.5082449224775707e-01 8.4813277103498463e-01
      -2.8392611581282451e-01 -8.0563593329198424e-01
      -4.4254179836154212e-01 -3.4294373713613774e-01
      -1.1494817312147579e-01 -3.3568582863386248e-01
      -9.1284328649727423e-02 -2.1103576612899394e-01
      3.9193592701970337e-01 2.4523994510728875e-01
      3.4834581674900039e-01 8.1461108715276356e-02
      -2.2818624328646345e-01 6.0524431461268358e-01
      3.5529582532824433e-01 2.3833433950031621e-01
      -5.7572602742276269e-01 2.9204370331084833e-01
      -4.5487935021332643e-01 2.0532481241760442e-01
      -1.4150860255506517e-01 3.2278587421236343e-01
      -1.4173457532029154e-01 -4.2731428551092882e-01
      7.1647726806406978e-02 -6.9761265547601424e-03
      5.1970642694600988e-01 2.8639357367256002e-01
      3.2973134472165005e-01 2.3767675595708021e-01
      -1.8860598457790870e-01 6.1428443859829276e-02
      5.1401438192480199e-02 -2.8194020521586582e-01
      7.1760075614906227e-01 9.5041253856322749e-01
      -1.8416473265322006e-01 -5.7718785975923392e-01
      6.8338629323436206e-01 6.3518743041754056e-01
      3.8768677655564937e-01 -3.1389959042540584e-02
      1.3011857279861469e-02 6.1783030359635525e-02
      -1.8350190557955043e-01 -1.0615636893101897e-01
      -1.1489693023035286e-01 -2.9254070353635775e-01
      3.5435209893507036e-01 4.8143571977747113e-01
      -1.7495524784801969e-01 -3.2112756102661238e-01
      2.9731858972380160e-01 7.4187251921517638e-01
      4.9896392443252513e-01 2.7926663868956514e-01
      3.7739354220233709e-02 -5.4212032529137633e-01
      -6.1668543204789583e-01 -4.7443415050044740e-01
      7.8929738023861468e-02 -3.8923911916304016e-01
      -3.4850466191454227e-01 -1.2601566582970716e+00
      2.3674488992991347e-01 1.1761401719441913e-01
      -5.0011503252918266e-01 2.3343635531138549e-01
      -4.0463087840382156e-01 -1.9230119836924377e-02
      6.5724272691929464e-01 8.9394498096080410e-01
      -2.1755082308410173e-01 -6.9398227536230661e-01
      -4.5881686305719077e-01 -3.5676414026346981e-01
      -1.2588047628595922e-01 -3.2579906229169087e-01
      -4.8410322740642296e-02 -1.6087093647876727e-01
      3.6499348019456607e-01 2.7331640882957148e-01
      2.6377810369834720e-01 4.0693220817907175e-02
      -2.7552672006091838e-01 5.1792908722766318e-01
      4.3295517131249456e-01 1.9345907467631954e-01
      -5.6503450359285590e-01 3.3249747395211771e-01
      -4.5105976832116451e-01 1.9351113379495072e-01
      -1.6247334014845852e-01 2.9185857390781172e-01
      -2.3030161893540715e-01 -4.2197555803901737e-01
      4.1436261017259911e-02 -1.1295250107361291e-02
      4.7586950631190644e-01 3.0480294309415878e-01
      3.1087732830642612e-01 2.3923074949975562e-01
      -2.1334705443547555e-01 2.5152209963326677e-02
      -4.6798980703480507e-02 -3.3497118117344243e-01
      6.7104449412709566e-01 9.4486238225690955e-01
      -1.6589789226262983e-01 -5.4295018233500514e-01
      6.3690778259686076e-01 6.6775903761882194e-01
      3.2679670264238647e-01 2.1752500804349935e-02
      1.2964303167603873e-03 3.7408997331421813e-02
      -1.5079570287284322e-01 -7.8453622760416550e-02
      -1.4243158076999840e-01 -2.8479021286270667e-01
      2.8789276057686597e-01 5.4566683103739133e-01
      -1.6554118178199273e-01 -3.4118565935470035e-01
      2.6241140843412392e-01 6.1820772868929807e-01
      4.8688251603922705e-01 2.9269749826200109e-01
      9.2825521802020375e-02 -5.2257570014188193e-01
      -5.1811444070362123e-01 -5.6555483862775413e-01
      -1.4881229239572896e-02 -3.4129625141907777e-01
      -3.6123417832571503e-01 -1.1728961965427758e+00
      2.9363656258348431e-01 2.2125547254590672e-01
      -5.6722766327456686e-01 2.3080261919718564e-01
      -4.4480518973854910e-01 -1.1244653198506979e-04
      5.8916058602292332e-01 9.6283667999339739e-01
      -1.7489254724474557e-01 -5.7304589533008299e-01
      -4.9694208274878843e-01 -3.1451251907907124e-01
      -8.9109123330067624e-02 -3.0885060345180804e-01
      -1.3651669161570538e-02 -1.1998078161019174e-01
      3.0291768323228746e-01 2.8482055616514718e-01
      1.0980430107373228e-01 3.7318614143670631e-02
      -2.8289897102289818e-01 4.2830745386387342e-01
      5.1274659139536105e-01 1.8863507348163250e-01
      -4.9931989121319681e-01 3.8410690696729333e-01
      -5.1741684730407245e-01 1.2513587488222191e-01
      -1.6348105654151629e-01 2.7300246239491494e-01
      -2.8691473917703347e-01 -4.8102285604520240e-01
      -6.7339278138610639e-02 -7.4345131280676824e-02
      4.0412853297777157e-01 3.8076317785767155e-01
      2.7014778218843732e-01 3.2204562676730553e-01
      -2.5139022159707131e-01 -6.5943347310814179e-02
      -5.9652284303580966e-02 -4.1575075339406647e-01
      5.6327051142908857e-01 9.0256214133140189e-01
      -1.9679778774700399e-01 -5.0187588942315697e-01
      6.5479245123111174e-01 7.1894240721661651e-01
      2.6235321424725566e-01 9.2722847953682200e-02
      8.7511497746763867e-02 3.6407445141084177e-03
      -1.0177415020408603e-01 -4.6665752425485083e-02
      -1.2078015079545773e-01 -2.1170832478446749e-01
      2.2116425884460547e-01 5.0803568525939258e-01
      -1.6437400119879436e-01 -3.3816774874285210e-01
      1.2789743664946257e-01 1.7383543922151212e-01
      4.1701676781731206e-01 1.1952208321189066e-01
      -6.2301866876537951e-02 -1.9889848335969113e-01
      -1.2591324553201785e-01 -5.6370584475743435e-01
      -4.0931449826874916e-01 -2.0854212714770473e-01
      -5.6860268531702829e-01 -6.8610316225366952e-01
      3.6196284619063429e-01 5.6103141376788557e-01
      -6.3480481998092197e-01 7.2360765249803796e-02
      -5.6034923152750171e-01 2.6461187721345101e-04
      1.7791747574277958e-01 6.9408552774667642e-01
      -2.4364430893920042e-01 -2.8141060997603440e-01
      -2.9001536381290910e-01 -2.5808049254176108e-01
      -9.7359093752163936e-02 -2.6650802510503618e-01
      -1.0967831703544591e-01 1.8293237482188665e-01
      3.8945786308691915e-01 3.9150062096213128e-01
      -2.6927464229265885e-01 -1.5515358582660699e-01
      -5.0594157416890786e-02 2.6357316580959689e-01
      4.5204476012603584e-01 1.0502860214739976e-01
      -3.2470600759157975e-01 3.4315036205301680e-01
      -2.7539646588037409e-01 3.0124863003160762e-01
      -1.8573604793625476e-01 5.5253050012877170e-01
      -2.8858989497071619e-01 -2.2787765857896550e-01
      -1.7401828667505423e-01 -3.1206975423028077e-01
      5.3802796122430829e-01 4.2858433747036245e-01
      1.7978428910601568e-01 4.8822277381697665e-01
      -2.1359395523380706e-01 -2.2407225973601733e-01
      1.0606363302251944e-01 -1.7249991809606072e-01
      2.0980937640356151e-01 6.7163950166385999e-01
      -3.2108108388909440e-01 -3.4703587766071126e-01
      5.4591552474646143e-01 3.5363157128436923e-01
      2.8473443105740409e-01 -7.2243231596846411e-02
      1.9142466516406009e-01 -3.9540761645190298e-02
      4.8627696201138174e-02 -9.3101097907715771e-02
      -1.2047247567409554e-01 -1.1004556886503160e-01
      3.3787767737347885e-01 2.9890528589180143e-01
      -1.5648590896777156e-01 -6.0797382614917062e-01
      2.7453884659776828e-01 -1.8094471136836474e-01
      4.0914040422997100e-01 1.8828362061856585e-01
      -1.3001512793297373e-01 3.0953533521905852e-01
      3.1132430525120586e-01 -4.9749771267521298e-01
      -5.4757246440744178e-01 -5.2131878191477542e-02
      -7.2455053396208569e-01 -2.7694172703969622e-01
      4.1681726231230820e-01 6.9495656901800362e-01
      -7.1294203720458182e-01 2.0908721882567108e-01
      -6.9315503577517457e-01 -3.3027817344923188e-02
      -1.4337221557857466e-01 5.6611594061813419e-01
      -1.6372765853101823e-01 1.9084462552640019e-01
      -2.7167856996727180e-01 -3.8496829003723643e-01
      -1.6150779512265212e-01 -3.1227207220320818e-01
      -1.0805411326120850e-02 4.4405572774972685e-01
      1.5749475892883427e-01 4.5279511340334594e-01
      -5.9139396363500429e-01 -1.8991125396384201e-01
      -1.0004541772876777e-01 2.6434400191069629e-01
      3.3528696832902560e-01 -1.5566524600383333e-01
      -3.3491586209897711e-01 2.9042210043333311e-01
      -1.0370446627634089e-01 5.9220226898289374e-01
      -2.0432357531308790e-01 7.7479629438258635e-01
      -5.4860363398558887e-01 7.9132460881839228e-02
      -2.7170918604938221e-01 -6.2460608463643252e-01
      4.8854562722923539e-01 4.2799848724867340e-01
      6.7969621091013219e-02 5.0109527871824344e-01
      -2.2916739884475812e-01 6.7325143070184529e-02
      1.3438423249648004e-01 -2.7441045479920695e-01
      -1.5440963014518562e-02 3.7419087442208271e-01
      -3.0784680722919450e-01 -2.8225229894989029e-01
      3.7919786332814481e-01 1.7513835402226316e-01
      3.0299211451089064e-01 -6.6947135815312614e-02
      1.4524028692220006e-01 -3.0989425031227084e-02
      5.3451066880368170e-01 -1.2748862893116347e-01
      -1.9116706862192848e-01 -9.2193911554347863e-02
      3.2779017102459035e-01 3.2639233417216057e-01
      -1.5695264630294889e-01 -6.1091339754979457e-01
      3.1480281305349395e-01 -2.0067785968576637e-01
      4.0790594802523444e-01 2.2263550480753158e-01
      -1.5708417923707899e-01 4.6339750098884069e-01
      3.6823195008262183e-01 -5.3193614016529089e-01
      -5.5890810143063741e-01 7.7444820950346008e-02
      -7.3490643068925110e-01 -1.9876456126591108e-01
      4.7654827387777521e-01 6.8665409253940801e-01
      -6.7109694582948265e-01 2.2407616757212812e-01
      -6.8476035763949483e-01 -3.8137294249438791e-02
      -2.2796424700424617e-01 5.7950634056101713e-01
      -1.5548759507102974e-01 1.8243001210750098e-01
      -2.9174714338935059e-01 -4.0241787969914294e-01
      -1.7738739943192955e-01 -2.4119967969858577e-01
      3.7954458205238358e-02 5.1850634673821216e-01
      8.9246951682805609e-02 4.6562635483949466e-01
      -7.0527317039009052e-01 -2.8424040657301353e-01
      -1.6632878886688285e-01 2.9914398805015696e-01
      2.8878023540305853e-01 -1.5399328625084949e-01
      -3.3373450046723763e-01 3.0082867515482692e-01
      -7.9996701155761657e-02 6.2652126962681864e-01
      -2.1228455037976346e-01 8.1289724720934042e-01
      -5.8087406531418118e-01 1.0696893662586497e-01
      -3.1676528038705559e-01 -5.8432388904133736e-01
      3.5737495324893681e-01 5.0255313067657781e-01
      3.4072605985552173e-02 5.2090341092897197e-01
      -2.6367190772162902e-01 2.9947159802108415e-02
      1.1573229093504479e-01 -3.2565893696240239e-01
      -1.4960872307906631e-01 2.9413267389934639e-01
      -3.5362078295539240e-01 -3.6214379087748388e-01
      3.9352199126623910e-01 1.9746295782138915e-01
      2.2196096519231123e-01 -1.3271830263898166e-01
      1.8010919716840418e-01 -4.5834101248948080e-02
      6.0209154940525711e-01 -9.3018525464153734e-02
      -2.1310562521101148e-01 -9.3291419744516227e-02
      2.6044702618824545e-01 3.0263313687573351e-01
      -1.0854449153960880e-01 -6.0001518790969477e-01
      2.3800610555587709e-01 -2.2197707788743437e-01
      4.3352952765121000e-01 2.1238729288375532e-01
      -7.9242800515137005e-02 3.6417936478874258e-01
      4.0417640391284915e-01 -5.5487328763949206e-01
      -5.6439251963537329e-01 2.0118659120030905e-01
      -7.1104093377343192e-01 -2.7807939151588978e-01
      4.7596896686607748e-01 5.8415221842187215e-01
      -6.6202118213961092e-01 2.0126496625581730e-01
      -6.6523861030878662e-01 -1.5657197569762585e-01
      -2.1763349425199274e-01 5.5490299217123062e-01
      -1.3588178780536370e-01 2.0949705106171582e-01
      -2.8690331897609689e-01 -4.0414800267712941e-01
      -2.5983678180636294e-01 -1.2139613645173673e-01
      1.1381800409450021e-01 5.5191870903226070e-01
      1.0530714060367377e-01 5.0187699850899725e-01
      -8.1332663628812518e-01 -3.4226140039776282e-01
      -3.2383511494535178e-01 3.3427067683875583e-01
      3.1564788799464299e-01 -1.5198366043721409e-01
      -3.3310424693757540e-01 2.9442885476302716e-01
      -3.9591575841511047e-03 5.7362169379599104e-01
      -1.8721870831421114e-01 7.3227234888567005e-01
      -5.3713034547935345e-01 9.3320327392195160e-02
      -3.5192524237405520e-01 -5.7015804965635020e-01
      3.1585728731523821e-01 4.5884347797781239e-01
      2.8461227885015931e-02 5.5174996987031966e-01
      -2.7105632753594461e-01 -9.0512526348077799e-02
      6.6228658215516767e-02 -3.5418878254996156e-01
      -1.8746577199091366e-01 1.9826701760952817e-01
      -2.9527162992722805e-01 -4.5754394849591107e-01
      4.8271836128749174e-01 2.5753564975885640e-01
      2.2438575476176564e-01 -9.9471475887546346e-02
      1.7592751368055864e-01 -5.1452430090700954e-02
      5.7583185098918876e-01 -7.9341158850947224e-02
      -2.2384634525489566e-01 -7.3832399882997751e-02
      2.1494104376167686e-01 2.8805613739807928e-01
      -1.2997919723177065e-01 -6.2370182549826847e-01
      2.4471804401662391e-02 -2.9831017624063355e-01
      6.3542848414619646e-01 2.5122248307637807e-01
      2.4991647750322932e-01 2.5316774442500051e-01
      4.7127003331283052e-01 -5.2195266639596216e-01
      -5.0121355430645431e-01 1.9499469215281151e-01
      -7.1706539631105048e-01 -4.8327059545897405e-01
      3.9970537013154755e-01 2.0384737754849738e-01
      -6.5268048212216234e-01 1.4210057171227924e-01
      -5.8174689209699804e-01 -3.3109370002574368e-01
      -9.2418585987687027e-02 6.0088346581480401e-01
      8.3834369068845768e-02 1.3715324875024190e-01
      -3.0077972600535829e-01 -3.0905701211636444e-01
      -2.1046507410077342e-01 5.1584126980078214e-02
      9.6786983677251706e-02 4.4952762085804515e-01
      2.5406346025766152e-01 5.3344344916856956e-01
      -7.3634219691228098e-01 -3.4958261734558660e-01
      -3.2921838921146940e-01 3.2940130276756674e-01
      3.4073944306936543e-01 -1.6570079245348543e-01
      -1.3662208490888894e-01 2.0762596826860710e-01
      -5.3340240565687549e-02 4.9692884569395684e-01
      -1.6464849006885207e-01 4.6554068007998256e-01
      -3.0101926215145658e-01 -1.2150413053079991e-01
      -2.9323691650595257e-01 -6.6364044226601293e-01
      3.9088016480920862e-02 7.5166895205562481e-02
      -1.2630500174694118e-01 5.7825696985683939e-01
      -2.6671813596112282e-01 -2.3249164501666145e-01
      8.5284221652863493e-02 -3.5358882501083133e-01
      -2.6160242525548749e-01 2.2676797912615310e-01
      -1.5979419657172281e-01 -5.0017558135314100e-01
      4.0310973731587124e-01 3.7208785018358748e-01
      4.3495491170931566e-01 7.3637904291685999e-02
      2.1522338561693727e-01 -1.6327743919489220e-02
      5.2976740118821242e-01 -4.5436567285882509e-02
      -2.1073143086667231e-01 8.5278412115282851e-02
      1.3409988998329150e-01 2.6587646064484360e-01
      -9.8632360743116047e-03 -6.9163749088931104e-01
      -1.3079011248767197e-01 -3.2243299456176322e-01
      6.9398367928979277e-01 4.2269396059572778e-01
      4.5098541188890290e-01 1.8513747718399198e-01
      4.4074967209781379e-01 -5.1456951070208001e-01
      -4.5052209434921919e-01 2.2594218072791095e-01
      -7.2534578513826764e-01 -5.9655048101731600e-01
      3.9648054099946561e-01 1.3810318765410642e-01
      -5.5766535087925695e-01 9.3727902494829568e-02
      -5.3697120981782331e-01 -3.6538256671245867e-01
      -1.0304428196436476e-01 5.8021173908825519e-01
      2.4097596186068709e-01 1.7450487759226713e-01
      -2.4301561960751270e-01 -3.0371941241430156e-01
      -1.7533922296021318e-01 1.4427468923486525e-01
      9.3086798488957109e-02 3.8419085407387044e-01
      3.0702904197801162e-01 5.7487369356931195e-01
      -7.1936658891159233e-01 -3.1215677245622259e-01
      -3.0910236880957026e-01 3.4307580856663422e-01
      3.2740052603048692e-01 -2.3073789647726606e-01
      1.6672309368355978e-03 1.8448398446837738e-01
      1.4743967126949462e-02 4.2794514136943607e-01
      -1.4467369060718629e-01 3.3770812216103030e-01
      -1.2896061131917905e-01 -1.5537476684622217e-01
      -2.5137190414496552e-01 -5.8769946835965614e-01
      -1.1986979552883255e-01 -5.0764904019776833e-02
      -2.2044312404617269e-01 4.9305657661008945e-01
      -2.1352326966695284e-01 -2.2233284222911404e-01
      5.7660845765956224e-02 -2.9367265429930667e-01
      -3.2994704648187939e-01 1.3736684772935556e-01
      -1.6659341134402730e-01 -5.5525378619149479e-01
      3.0691882272794085e-01 3.8105580409957773e-01
      5.0928636891171930e-01 1.8002325790779825e-01
      2.5686808024868268e-01 -1.5659174573754250e-02
      5.1693146970421677e-01 -4.6474860263099861e-02
      -2.3216135973109783e-01 1.3937068591399143e-01
      6.5498304518889772e-03 2.0489093306822892e-01
      9.0809802250446395e-02 -6.6197003226988005e-01
      -5.4181499916726945e-02 -1.3609335247088028e-01
      8.2747375862875705e-01 6.8155779548886353e-01
      1.9313103698076578e-01 3.4893110740276950e-01
      3.7589501813120674e-01 -6.3029486586134453e-01
      -4.7255026477375994e-01 2.3392552194971855e-01
      -6.3934345117995628e-01 -5.0622379244667637e-01
      3.9461025998086657e-01 1.4502231201918978e-01
      -4.3049276153280924e-01 8.2938568002810839e-02
      -4.5803401889975598e-01 -4.4245173344975391e-01
      -2.5254346274729115e-02 4.0304440094147004e-01
      2.1499216863704468e-01 6.5854607653036176e-02
      -1.3494135973889779e-01 -4.4403904433207253e-01
      -1.3484081797213754e-01 1.9789459138323390e-01
      1.4286048198089167e-03 3.8753951803710490e-01
      3.0121803853248741e-01 5.3713748822335583e-01
      -8.6824758118000844e-01 -3.8389269427264927e-01
      -2.7504134605900021e-01 3.1948800290756024e-01
      3.0534970229518787e-01 -2.3037924934367524e-01
      -2.2541358203993500e-01 2.9141309583212344e-01
      1.7605904164541966e-01 4.6363737940876826e-01
      -9.8081795071864888e-02 2.7695939526433222e-01
      -5.2205157966849325e-02 -1.1937622536135667e-01
      -2.3119441725278164e-01 -3.9295640374038382e-01
      -1.2917282311400385e-01 -2.4109956350353090e-01
      -2.1676427988616692e-01 4.3584038812717407e-01
      -1.7830195169370397e-01 -2.9612697252208975e-01
      2.1618377297306996e-02 -2.4063157639739138e-01
      -2.5248643563888928e-01 2.2615882438766080e-01
      -1.5124301696856748e-01 -6.6594870376927284e-01
      3.8293979567778086e-01 4.3671303241051335e-01
      5.9451134041327047e-01 8.6456722193741856e-02
      3.4180309494700983e-01 4.4838953975507662e-02
      6.4364686166754170e-01 -1.6243312284024619e-02
      -1.3439125844603106e-01 9.3700917709969342e-02
      8.8525078355246672e-02 4.5215522604607150e-02
      -5.5320091176184038e-03 -6.2305614659501407e-01
      4.9417169091815406e-02 1.3115761242791735e-01
      9.8592528651196998e-01 8.6392256343197948e-01
      -2.6793410905904030e-01 4.0427005229161705e-01
      3.0388232731184511e-01 -6.6023852338022826e-01
      -4.0726950987556776e-01 9.7850187701534877e-02
      -4.9337535110715575e-01 -3.4216767050274316e-01
      3.7031232645459083e-01 8.4881252305070612e-02
      -1.6258264974286341e-01 8.9283917026733911e-02
      -3.2923722559520835e-01 -4.4409181390477381e-01
      4.5073209117428743e-02 2.7966050601476089e-01
      1.5539365437523323e-01 -1.0037688560105557e-02
      -1.9220855438488296e-02 -3.8155043860692628e-01
      -5.4524586606120501e-02 1.8961902231137517e-01
      -1.0823229411947870e-01 3.8062900827749646e-01
      3.4271883437015421e-01 5.3003785212606602e-01
      -9.4141519326334133e-01 -3.7208963036963849e-01
      -2.4247908325405085e-01 3.0263642859427270e-01
      9.2024779723365341e-02 -2.5101885984084205e-01
      -5.2759511356483868e-01 3.4655702704768437e-01
      3.4948024075342188e-01 5.3812660037437321e-01
      -6.2488466751593259e-02 2.2192363939730098e-01
      5.3287889945546008e-02 -9.7738944826062907e-02
      -2.8326284929640161e-01 -3.3026687418039680e-01
      -1.4394826663675059e-01 -5.5466396346246405e-01
      -2.4045489201079784e-01 2.4948027663030989e-01
      -3.3077105394151030e-01 -3.4373659793830980e-01
      9.8399287929650490e-03 -1.0856180631216428e-01
      -1.4925852576182219e-01 1.5096717120710551e-01
      -3.0198000706155070e-01 -6.7660395970173526e-01
      5.1120448511691907e-01 4.7187975367348045e-01
      7.8673561111865853e-01 -1.4239263255741341e-01
      3.7273693553995735e-01 1.2245993963408634e-01
      6.2135250614713455e-01 1.6792730181025874e-02
      -2.7603925435004856e-02 1.9972697600176916e-02
      2.0016072819437836e-01 -9.1073529107442305e-02
      -1.1828527519606208e-01 -4.9191882876972304e-01
      1.2478785856916982e-01 2.7906588900103207e-01
      9.7568607177213418e-01 9.2764611853150458e-01
      -7.7657844614747695e-01 4.1493869608880513e-01
      3.1499613644326085e-01 -5.0172177727908829e-01
      -4.4379115767273458e-01 -1.0061780680812167e-01
      -4.7433419048104469e-01 -2.9544933006197549e-01
      4.3178652725080030e-01 -5.1620883214230209e-02
      -1.2946829296906166e-02 -6.1665807943984255e-02
      -2.5570616112792011e-01 -4.8417949026100848e-01
      3.5050583792735628e-03 1.7350771484609381e-01
      1.3666220485893960e-01 -3.3057755506415945e-02
      1.2513786082897629e-01 -3.1148622593132103e-01
      -7.5562724906779677e-02 2.7680948033960334e-01
      -1.3066040336670171e-01 3.5599186791379617e-01
      3.2106466460363531e-01 4.7868575306931599e-01
      -9.2456818514090966e-01 -2.7347502744131719e-01
      -2.1782058104898189e-01 3.6793061960848650e-01
      -1.3848909161152118e-01 -2.5828976165954509e-01
      -7.4680544491139056e-01 3.9077117940992284e-01
      4.1468325557486152e-01 6.0080935424745974e-01
      1.9516765698743024e-02 2.6023886831687904e-01
      6.6345196123691372e-02 1.1190124479566819e-01
      -4.1342701866509807e-01 -3.2418818200202176e-01
      -1.6618393283477670e-01 -7.2651708672300652e-01
      -1.8567753220564748e-01 1.6964813233322484e-01
      -4.2437416836857605e-01 -3.6879485529891265e-01
      4.1255669854843732e-02 6.6185531676833109e-02
      -2.4905862348803229e-01 1.0571439770762280e-01
      -4.3234399909282756e-01 -6.1772714784592841e-01
      5.7060286818974215e-01 3.1006334526040547e-01
      8.9388443128545869e-01 -3.3088773259483251e-01
      4.6789312383739662e-01 1.2104961625931265e-01
      5.1647989425043694e-01 -1.2071845294475229e-01
      3.6167688998827517e-02 -1.3065342083276468e-01
      2.8687885184252909e-01 -2.1512971479052193e-01
      -1.6836705249063114e-01 -3.9573979976884460e-01
      1.2343646782664931e-01 3.7995940329401218e-01
      8.7998448195332546e-01 9.5350441501392180e-01
      -1.1396337266965972e+00 4.1071628350858974e-01
      3.9374331631977039e-01 -3.3335774991923905e-01
      -4.7557249381562927e-01 -1.6833881746255086e-01
      -5.2439027698147012e-01 -2.7624480299162441e-01
      4.2150844795133174e-01 -2.1727806537381947e-01
      6.7147472088315424e-02 -1.7068114668517737e-01
      -2.2858639497937902e-01 -4.6540889607675817e-01
